#-------------- Creating on pcbutt163 @ 2019-02-05 11:09:40.575398
# INIT TIME STEP TEST ..................................................  
# VDS       : -50.0 	 Current compliance 0.001
# VGS       : -50.0 	 Current compliance 0.001
# NPLC      : 1.0
# DELETE    : 0.0
# pozycja poczatkowa szhuttera: 0 keep open 0 before measurmeents
# :: ----------------------------------- TIME --------------------------------------
# ::     Time 	 IDS 	 IGS 	 VDS 	 VGS 	 XPIN 	 | Shutter | 	 Delta Time	     
# :: -------------------------------------------------------------------------------
#------ comments: init_log
0.2600 +6.911796E-09 -3.254160E-09 -50.0 -50.0 TI0.0 | 0 | 0.2600
0.3800 +8.504010E-09 +7.281216E-10 -50.0 -50.0 
16328 | 0 | 0.1200
0.7100 +8.084996E-09 +4.626555E-09 -50.0 -50.0 
16328 | 0 | 0.3300
0.8300 +8.587806E-09 +3.927703E-10 -50.0 -50.0 
16328 | 0 | 0.1200
0.9600 +8.336411E-09 +3.285151E-09 -50.0 -50.0 
16328 | 0 | 0.1300
1.0800 +8.462090E-09 +3.578588E-09 -50.0 -50.0 
TI0.0 | 0 | 0.1200
1.5000 +1.030569E-08 +2.991723E-09 -50.0 -50.0 
16328 | 0 | 0.4200
1.6200 +9.090602E-09 +3.620507E-09 -50.0 -50.0 
16328 | 0 | 0.1200
1.7500 +8.797302E-09 +6.051794E-09 -50.0 -50.0 
16328 | 0 | 0.1300
1.8700 +8.252599E-09 +2.279111E-09 -50.0 -50.0 
16328 | 0 | 0.1200
2.0000 +8.043093E-09 +3.788181E-09 -50.0 -50.0 
TI0.0 | 0 | 0.1300
2.3000 +9.467684E-09 +3.410917E-09 -50.0 -50.0 
16328 | 0 | 0.3000
2.4300 +8.629693E-09 +6.177544E-09 -50.0 -50.0 
16328 | 0 | 0.1300
2.5500 +7.330799E-09 +2.782127E-09 -50.0 -50.0 
16328 | 0 | 0.1200
2.6800 +5.487184E-09 +4.123528E-09 -50.0 -50.0 
16328 | 0 | 0.1300
2.8000 +8.671593E-09 +5.632600E-09 -50.0 -50.0 
TI0.0 | 0 | 0.1200
3.1100 +8.797301E-09 +5.129579E-09 -50.0 -50.0 
16328 | 0 | 0.3100
3.2300 +6.283310E-09 +4.375034E-09 -50.0 -50.0 
16328 | 0 | 0.1200
3.3600 +9.048700E-09 +5.842193E-09 -50.0 -50.0 
16328 | 0 | 0.1300
3.4900 +7.288893E-09 +3.746259E-09 -50.0 -50.0 
16328 | 0 | 0.1300
3.6100 +8.503992E-09 +6.219467E-09 -50.0 -50.0 
TI0.0 | 0 | 0.1200
3.9200 +9.090597E-09 +4.878070E-09 -50.0 -50.0 
16328 | 0 | 0.3100
4.0400 +9.928597E-09 +3.746256E-09 -50.0 -50.0 
16328 | 0 | 0.1200
4.1700 +8.336393E-09 +5.045738E-09 -50.0 -50.0 
16328 | 0 | 0.1300
4.2900 +9.551494E-09 +4.165453E-09 -50.0 -50.0 
16328 | 0 | 0.1200
4.4200 +7.959311E-09 +4.291205E-09 -50.0 -50.0 
16328 | 0 | 0.1300
4.7200 +9.635299E-09 +5.842197E-09 -50.0 -50.0 
16328 | 0 | 0.3000
4.8500 +8.922999E-09 +5.842200E-09 -50.0 -50.0 
16328 | 0 | 0.1300
4.9700 +1.038951E-08 +4.375041E-09 -50.0 -50.0 
16328 | 0 | 0.1200
5.1000 +8.420193E-09 +4.668473E-09 -50.0 -50.0 
TI0.0 | 0 | 0.1300
5.5300 +9.132497E-09 +5.045746E-09 -50.0 -50.0 
16328 | 0 | 0.4300
5.6500 +8.964889E-09 +6.806331E-09 -50.0 -50.0 
16328 | 0 | 0.1200
5.7800 +1.126939E-08 +5.674531E-09 -50.0 -50.0 
16328 | 0 | 0.1300
5.9100 +8.713496E-09 +4.123528E-09 -50.0 -50.0 
16328 | 0 | 0.1300
6.0300 +7.917398E-09 +4.836152E-09 -50.0 -50.0 
TI0.0 | 0 | 0.1200
6.3400 +9.258205E-09 +2.949806E-09 -50.0 -50.0 
16328 | 0 | 0.3100
6.4600 +9.174405E-09 +5.339173E-09 -50.0 -50.0 
16328 | 0 | 0.1200
6.5900 +9.090611E-09 +5.255331E-09 -50.0 -50.0 
16328 | 0 | 0.1300
6.7100 +9.300086E-09 +5.381090E-09 -50.0 -50.0 
16328 | 0 | 0.1200
6.8400 +1.001238E-08 +4.500794E-09 -50.0 -50.0 
TI0.0 | 0 | 0.1300
7.1500 +9.844797E-09 +6.093705E-09 -50.0 -50.0 
16328 | 0 | 0.3100
7.2700 +8.629694E-09 +5.381088E-09 -50.0 -50.0 
16328 | 0 | 0.1200
7.4000 +1.013810E-08 +3.913932E-09 -50.0 -50.0 
16328 | 0 | 0.1300
7.5200 +9.132485E-09 +6.764409E-09 -50.0 -50.0 
16328 | 0 | 0.1200
7.6500 +8.922997E-09 +6.596728E-09 -50.0 -50.0 
TI0.0 | 0 | 0.1300
7.9400 +9.928584E-09 +4.626560E-09 -50.0 -50.0 
16328 | 0 | 0.2900
8.0600 +9.635297E-09 +4.081605E-09 -50.0 -50.0 
16328 | 0 | 0.1200
8.1900 +9.467698E-09 +5.548761E-09 -50.0 -50.0 
16328 | 0 | 0.1300
8.3100 +8.629689E-09 +5.255330E-09 -50.0 -50.0 
16328 | 0 | 0.1200
8.4400 +8.839194E-09 +4.752311E-09 -50.0 -50.0 
TI0.0 | 0 | 0.1300
8.7400 +9.216302E-09 +4.878059E-09 -50.0 -50.0 
16328 | 0 | 0.3000
8.8700 +9.341980E-09 +5.087661E-09 -50.0 -50.0 
16328 | 0 | 0.1300
8.9900 +8.839182E-09 +7.393183E-09 -50.0 -50.0 
16328 | 0 | 0.1200
9.1500 +9.300097E-09 +5.381093E-09 -50.0 -50.0 
16328 | 0 | 0.1600
9.2800 +1.013810E-08 +3.704342E-09 -50.0 -50.0 
16328 | 0 | 0.1300
9.5500 +1.026379E-08 +6.303291E-09 -50.0 -50.0 
16328 | 0 | 0.2700
9.6700 +9.174416E-09 +5.339179E-09 -50.0 -50.0 
16328 | 0 | 0.1200
9.8000 +6.660397E-09 +4.626549E-09 -50.0 -50.0 
16328 | 0 | 0.1300
9.9200 +8.964912E-09 +2.404863E-09 -50.0 -50.0 
TI0.0 | 0 | 0.1200
10.3600 +9.132487E-09 +4.249290E-09 -50.0 -50.0 
16328 | 0 | 0.4400
10.4800 +9.006790E-09 +4.165441E-09 -50.0 -50.0 
16328 | 0 | 0.1200
10.6100 +8.964900E-09 +7.560866E-09 -50.0 -50.0 
16328 | 0 | 0.1300
10.7300 +6.702290E-09 +4.752313E-09 -50.0 -50.0 
16328 | 0 | 0.1200
10.8600 +9.677192E-09 +4.752311E-09 -50.0 -50.0 
TI0.0 | 0 | 0.1300
11.1700 +8.629689E-09 +4.794223E-09 -50.0 -50.0 
16328 | 0 | 0.3100
11.2900 +9.216290E-09 +5.087661E-09 -50.0 -50.0 
16328 | 0 | 0.1200
11.4100 +9.551504E-09 +4.626554E-09 -50.0 -50.0 
16328 | 0 | 0.1200
11.5400 +9.425797E-09 +7.099754E-09 -50.0 -50.0 
16328 | 0 | 0.1300
11.6600 +9.216302E-09 +3.494756E-09 -50.0 -50.0 
TI0.0 | 0 | 0.1200
11.9700 +9.342015E-09 +4.207362E-09 -50.0 -50.0 
16328 | 0 | 0.3100
12.0900 +9.132497E-09 +5.422999E-09 -50.0 -50.0 
16328 | 0 | 0.1200
12.2200 +1.013810E-08 +5.087655E-09 -50.0 -50.0 
16328 | 0 | 0.1300
12.3500 +8.797290E-09 +4.668472E-09 -50.0 -50.0 
16328 | 0 | 0.1300
12.4700 +9.090606E-09 +5.045741E-09 -50.0 -50.0 
TI0.0 | 0 | 0.1200
12.7800 +9.886692E-09 +7.141677E-09 -50.0 -50.0 
16328 | 0 | 0.3100
12.9000 +8.462111E-09 +2.782139E-09 -50.0 -50.0 
16328 | 0 | 0.1200
13.0300 +8.126898E-09 +4.500799E-09 -50.0 -50.0 
16328 | 0 | 0.1300
13.1500 +1.017999E-08 +5.213415E-09 -50.0 -50.0 
16328 | 0 | 0.1200
13.2800 +8.797290E-09 +4.836150E-09 -50.0 -50.0 
16328 | 0 | 0.1300
13.5800 +8.881111E-09 +5.045744E-09 -50.0 -50.0 
16328 | 0 | 0.3000
13.7100 +9.216295E-09 +5.213415E-09 -50.0 -50.0 
16328 | 0 | 0.1300
13.8300 +6.828017E-09 +4.961902E-09 -50.0 -50.0 
16328 | 0 | 0.1200
13.9600 +7.330801E-09 +4.961900E-09 -50.0 -50.0 
TI0.0 | 0 | 0.1300
14.3800 +9.006801E-09 +4.375045E-09 -50.0 -50.0 
16328 | 0 | 0.4200
14.5000 +9.467698E-09 +5.548761E-09 -50.0 -50.0 
16328 | 0 | 0.1200
14.6300 +9.174407E-09 +5.800279E-09 -50.0 -50.0 
16328 | 0 | 0.1300
14.7500 +9.677212E-09 +3.830100E-09 -50.0 -50.0 
16328 | 0 | 0.1200
14.8800 +9.509602E-09 +4.416965E-09 -50.0 -50.0 
TI0.0 | 0 | 0.1300
15.1900 +9.761022E-09 +5.339169E-09 -50.0 -50.0 
16328 | 0 | 0.3100
15.3000 +8.964882E-09 +5.842203E-09 -50.0 -50.0 
16328 | 0 | 0.1100
15.4300 +8.629693E-09 +4.500794E-09 -50.0 -50.0 
16328 | 0 | 0.1300
15.5500 +8.964887E-09 +4.500799E-09 -50.0 -50.0 
16328 | 0 | 0.1200
15.6800 +7.833600E-09 +5.884115E-09 -50.0 -50.0 
TI0.0 | 0 | 0.1300
15.9900 +8.923017E-09 +5.423005E-09 -50.0 -50.0 
16328 | 0 | 0.3100
16.1100 +7.833600E-09 +5.129581E-09 -50.0 -50.0 
16328 | 0 | 0.1200
16.2400 +8.922999E-09 +5.255332E-09 -50.0 -50.0 
16328 | 0 | 0.1300
16.3600 +9.509602E-09 +4.836148E-09 -50.0 -50.0 
16328 | 0 | 0.1200
16.4900 +9.719100E-09 +4.919981E-09 -50.0 -50.0 
TI0.0 | 0 | 0.1300
16.8000 +9.216308E-09 +5.506840E-09 -50.0 -50.0 
16328 | 0 | 0.3100
16.9200 +9.132490E-09 +4.542715E-09 -50.0 -50.0 
16328 | 0 | 0.1200
17.0400 +9.342008E-09 +6.932083E-09 -50.0 -50.0 
16328 | 0 | 0.1200
17.1700 +9.635304E-09 +4.794232E-09 -50.0 -50.0 
16328 | 0 | 0.1300
17.3000 +8.168806E-09 +4.710391E-09 -50.0 -50.0 
TI0.0 | 0 | 0.1300
17.6000 +8.587790E-09 +5.003825E-09 -50.0 -50.0 
16328 | 0 | 0.3000
17.7200 +1.168839E-08 +4.123535E-09 -50.0 -50.0 
16328 | 0 | 0.1200
17.8500 +6.911790E-09 +4.416969E-09 -50.0 -50.0 
16328 | 0 | 0.1300
17.9700 +7.665989E-09 +4.039697E-09 -50.0 -50.0 
16328 | 0 | 0.1200
18.1000 +8.713490E-09 +7.435103E-09 -50.0 -50.0 
16328 | 0 | 0.1300
18.4100 +9.886696E-09 +3.201325E-09 -50.0 -50.0 
16328 | 0 | 0.3100
18.5300 +9.635297E-09 +5.967951E-09 -50.0 -50.0 
16328 | 0 | 0.1200
18.6500 +8.923005E-09 +4.668472E-09 -50.0 -50.0 
16328 | 0 | 0.1200
18.7800 +6.408994E-09 +4.710391E-09 -50.0 -50.0 
TI0.0 | 0 | 0.1300
19.2100 +9.216290E-09 +5.255335E-09 -50.0 -50.0 
16328 | 0 | 0.4300
19.3500 +9.509595E-09 +4.836146E-09 -50.0 -50.0 
16328 | 0 | 0.1400
19.4800 +8.671584E-09 +4.878067E-09 -50.0 -50.0 
16328 | 0 | 0.1300
19.6000 +9.174400E-09 +6.093712E-09 -50.0 -50.0 
16328 | 0 | 0.1200
19.7300 +1.059899E-08 +6.135627E-09 -50.0 -50.0 
TI0.0 | 0 | 0.1300
20.0100 +8.503992E-09 +4.626554E-09 -50.0 -50.0 
16328 | 0 | 0.2800
20.1400 +9.467700E-09 +7.099759E-09 -50.0 -50.0 
16328 | 0 | 0.1300
20.2900 +1.018000E-08 +5.129579E-09 -50.0 -50.0 TI0.0 | 0 | 0.1500
20.8600 +7.330790E-09 +4.249291E-09 -50.0 -50.0 16328 | 0 | 0.5700
21.0300 +7.163202E-09 +5.548768E-09 -50.0 -50.0 
TI0.0 | 0 | 0.1700
21.6700 +9.300106E-09 +4.668474E-09 -50.0 -50.0 
16328 | 0 | 0.6400
21.8200 +9.216297E-09 +6.973997E-09 -50.0 -50.0 
16328 | 0 | 0.1500
21.9900 +9.090595E-09 +2.237192E-09 -50.0 -50.0 
16328 | 0 | 0.1700
22.4800 +9.383887E-09 +4.584638E-09 -50.0 -50.0 
16328 | 0 | 0.4900
22.6300 +1.017999E-08 +4.752313E-09 -50.0 -50.0 
16328 | 0 | 0.1500
22.8000 +8.629712E-09 +4.291210E-09 -50.0 -50.0 
TI0.0 | 0 | 0.1700
23.2800 +8.168806E-09 +3.872020E-09 -50.0 -50.0 
16328 | 0 | 0.4800
23.4500 +6.869909E-09 +4.794228E-09 -50.0 -50.0 
16328 | 0 | 0.1700
23.6000 +1.018001E-08 +5.087664E-09 -50.0 -50.0 
16328 | 0 | 0.1500
23.7600 +8.503998E-09 +5.003820E-09 -50.0 -50.0 
TI0.0 | 0 | 0.1600
24.0800 +8.252600E-09 +4.458881E-09 -50.0 -50.0 
16328 | 0 | 0.3200
24.2300 +9.132505E-09 +2.111439E-09 -50.0 -50.0 
16328 | 0 | 0.1500
24.3800 +9.258198E-09 +5.967956E-09 -50.0 -50.0 
16328 | 0 | 0.1500
24.5300 +9.090602E-09 +4.794226E-09 -50.0 -50.0 
TI0.0 | 0 | 0.1500
24.8800 +9.300095E-09 +4.375050E-09 -50.0 -50.0 
16328 | 0 | 0.3500
25.0400 +9.928597E-09 +4.291203E-09 -50.0 -50.0 
16328 | 0 | 0.1600
25.1900 +1.013811E-08 +2.740214E-09 -50.0 -50.0 
16328 | 0 | 0.1500
25.3000 +9.886710E-09 +6.303297E-09 -50.0 -50.0 
TI0.0 | 0 | 0.1100
25.6700 +9.719097E-09 +4.836152E-09 -50.0 -50.0 
16328 | 0 | 0.3700
25.7800 +7.414600E-09 +4.710394E-09 -50.0 -50.0 
16328 | 0 | 0.1100
25.9000 +9.048703E-09 +5.129590E-09 -50.0 -50.0 
16328 | 0 | 0.1200
26.0300 +1.005430E-08 +4.207375E-09 -50.0 -50.0 
16328 | 0 | 0.1300
26.1600 +6.953696E-09 +5.171505E-09 -50.0 -50.0 
16328 | 0 | 0.1300
26.4700 +9.174400E-09 +5.381088E-09 -50.0 -50.0 
16328 | 0 | 0.3100
26.5900 +9.551485E-09 +5.800288E-09 -50.0 -50.0 
16328 | 0 | 0.1200
26.7100 +9.048700E-09 +4.794231E-09 -50.0 -50.0 
16328 | 0 | 0.1200
26.8400 +9.844793E-09 +5.423011E-09 -50.0 -50.0 
TI0.0 | 0 | 0.1300
27.2800 +9.970483E-09 +3.997779E-09 -50.0 -50.0 
16328 | 0 | 0.4400
27.4100 +9.509606E-09 +4.961906E-09 -50.0 -50.0 
16328 | 0 | 0.1300
27.5400 +8.126882E-09 +4.416962E-09 -50.0 -50.0 
16328 | 0 | 0.1300
27.6600 +9.258207E-09 +7.770456E-09 -50.0 -50.0 
16328 | 0 | 0.1200
27.7900 +8.755400E-09 +7.728547E-09 -50.0 -50.0 
TI0.0 | 0 | 0.1300
28.0900 +9.383911E-09 +4.333122E-09 -50.0 -50.0 
16328 | 0 | 0.3000
28.2200 +9.383905E-09 +5.423018E-09 -50.0 -50.0 
16328 | 0 | 0.1300
28.3400 +8.713481E-09 +4.752317E-09 -50.0 -50.0 
16328 | 0 | 0.1200
28.4700 +9.844786E-09 +6.135635E-09 -50.0 -50.0 
16328 | 0 | 0.1300
28.6000 +9.635299E-09 +5.800279E-09 -50.0 -50.0 
TI0.0 | 0 | 0.1300
28.8900 +9.593407E-09 +2.321025E-09 -50.0 -50.0 
16328 | 0 | 0.2900
29.0200 +8.671590E-09 +5.339174E-09 -50.0 -50.0 
16328 | 0 | 0.1300
29.1500 +9.132494E-09 +5.171499E-09 -50.0 -50.0 
16328 | 0 | 0.1300
29.2800 +9.802905E-09 +2.153350E-09 -50.0 -50.0 
16328 | 0 | 0.1300
29.4000 +8.043111E-09 +4.626556E-09 -50.0 -50.0 
TI0.0 | 0 | 0.1200
29.6900 +9.300084E-09 +5.758368E-09 -50.0 -50.0 
16328 | 0 | 0.2900
29.8100 +9.928590E-09 +5.926043E-09 -50.0 -50.0 
16328 | 0 | 0.1200
29.9400 +8.629694E-09 +5.129582E-09 -50.0 -50.0 
16328 | 0 | 0.1300
30.0600 +8.336393E-09 +7.183597E-09 -50.0 -50.0 
16328 | 0 | 0.1200
30.1900 +9.509597E-09 +2.991729E-09 -50.0 -50.0 
TI0.0 | 0 | 0.1300
30.4900 +8.629694E-09 +1.147307E-09 -50.0 -50.0 
16328 | 0 | 0.3000
30.6200 +8.923005E-09 +5.674528E-09 -50.0 -50.0 
16328 | 0 | 0.1300
30.7400 +9.342003E-09 +4.333128E-09 -50.0 -50.0 
16328 | 0 | 0.1200
30.8700 +9.551504E-09 +4.878070E-09 -50.0 -50.0 
16328 | 0 | 0.1300
31.0300 +9.551494E-09 +5.045747E-09 -50.0 -50.0 
16328 | 0 | 0.1600
31.3000 +9.593389E-09 +3.620509E-09 -50.0 -50.0 
16328 | 0 | 0.2700
31.4200 +9.802910E-09 +4.794233E-09 -50.0 -50.0 
16328 | 0 | 0.1200
31.5500 +9.719095E-09 +4.416966E-09 -50.0 -50.0 
16328 | 0 | 0.1300
31.6800 +1.013809E-08 +5.129582E-09 -50.0 -50.0 
TI0.0 | 0 | 0.1300
32.1100 +9.509595E-09 +5.129581E-09 -50.0 -50.0 
16328 | 0 | 0.4300
32.2300 +9.844799E-09 +5.716442E-09 -50.0 -50.0 
16328 | 0 | 0.1200
32.3600 +9.048680E-09 +4.500806E-09 -50.0 -50.0 
16328 | 0 | 0.1300
32.4900 +8.504005E-09 +5.842206E-09 -50.0 -50.0 
16328 | 0 | 0.1300
32.6100 +9.216290E-09 +6.764412E-09 -50.0 -50.0 
TI0.0 | 0 | 0.1200
32.9100 +1.026381E-08 +7.393197E-09 -50.0 -50.0 
16328 | 0 | 0.3000
33.0400 +9.719072E-09 +6.177544E-09 -50.0 -50.0 
16328 | 0 | 0.1300
33.1700 +9.802889E-09 +4.836150E-09 -50.0 -50.0 
16328 | 0 | 0.1300
33.2900 +8.629685E-09 +5.171502E-09 -50.0 -50.0 
16328 | 0 | 0.1200
33.4200 +9.048698E-09 +4.878073E-09 -50.0 -50.0 
TI0.0 | 0 | 0.1300
33.7200 +8.462084E-09 +6.051805E-09 -50.0 -50.0 
16328 | 0 | 0.3000
33.8500 +9.719090E-09 +2.111436E-09 -50.0 -50.0 
16328 | 0 | 0.1300
33.9700 +9.383893E-09 +5.087661E-09 -50.0 -50.0 
16328 | 0 | 0.1200
34.1000 +1.068280E-08 +4.123528E-09 -50.0 -50.0 
16328 | 0 | 0.1300
34.2200 +9.048712E-09 +4.878065E-09 -50.0 -50.0 
TI0.0 | 0 | 0.1200
34.5300 +1.001239E-08 +4.794235E-09 -50.0 -50.0 
16328 | 0 | 0.3100
34.6500 +9.677194E-09 +4.458884E-09 -50.0 -50.0 
16328 | 0 | 0.1200
34.7800 +1.076659E-08 +6.261388E-09 -50.0 -50.0 
16328 | 0 | 0.1300
34.9000 +1.009620E-08 +4.919988E-09 -50.0 -50.0 
16328 | 0 | 0.1200
35.0300 +8.462095E-09 +6.848255E-09 -50.0 -50.0 
16328 | 0 | 0.1300
35.3300 +9.425795E-09 +5.590685E-09 -50.0 -50.0 
16328 | 0 | 0.3000
35.4600 +8.839200E-09 +3.410909E-09 -50.0 -50.0 
16328 | 0 | 0.1300
35.5800 +9.802900E-09 +4.961903E-09 -50.0 -50.0 
16328 | 0 | 0.1200
35.7100 +8.378290E-09 +4.668467E-09 -50.0 -50.0 
TI0.0 | 0 | 0.1300
36.1300 +1.013809E-08 +4.333129E-09 -50.0 -50.0 
16328 | 0 | 0.4200
36.2500 +9.761010E-09 +2.740214E-09 -50.0 -50.0 
16328 | 0 | 0.1200
36.3800 +8.755400E-09 +5.464933E-09 -50.0 -50.0 
16328 | 0 | 0.1300
36.5100 +1.202361E-08 +4.794224E-09 -50.0 -50.0 
16328 | 0 | 0.1300
36.6300 +9.551503E-09 +4.961906E-09 -50.0 -50.0 
TI0.0 | 0 | 0.1200
36.9400 +6.702287E-09 +5.045743E-09 -50.0 -50.0 
16328 | 0 | 0.3100
37.0600 +1.152079E-08 +5.590687E-09 -50.0 -50.0 
16328 | 0 | 0.1200
37.1900 +9.677187E-09 +2.907886E-09 -50.0 -50.0 
16328 | 0 | 0.1300
37.3100 +9.090584E-09 +2.069513E-09 -50.0 -50.0 
16328 | 0 | 0.1200
37.4400 +1.005430E-08 +4.500799E-09 -50.0 -50.0 
TI0.0 | 0 | 0.1300
37.7400 +1.135320E-08 +4.961905E-09 -50.0 -50.0 
16328 | 0 | 0.3000
37.8700 +9.509600E-09 +5.632603E-09 -50.0 -50.0 
16328 | 0 | 0.1300
37.9900 +7.372693E-09 +4.500802E-09 -50.0 -50.0 
16328 | 0 | 0.1200
38.1200 +9.928600E-09 +4.668478E-09 -50.0 -50.0 
16328 | 0 | 0.1300
38.2400 +9.677199E-09 +4.961905E-09 -50.0 -50.0 
TI0.0 | 0 | 0.1200
38.5500 +8.336389E-09 +4.836153E-09 -50.0 -50.0 
16328 | 0 | 0.3100
38.6700 +9.886701E-09 +4.626556E-09 -50.0 -50.0 
16328 | 0 | 0.1200
38.8000 +9.006808E-09 +3.578593E-09 -50.0 -50.0 
16328 | 0 | 0.1300
38.9200 +8.881107E-09 +5.213414E-09 -50.0 -50.0 
16328 | 0 | 0.1200
39.0500 +9.258207E-09 +4.752311E-09 -50.0 -50.0 
16328 | 0 | 0.1300
39.3500 +8.545888E-09 +4.710387E-09 -50.0 -50.0 
16328 | 0 | 0.3000
39.4800 +9.677198E-09 +4.081613E-09 -50.0 -50.0 
16328 | 0 | 0.1300
39.6000 +9.593396E-09 +4.836150E-09 -50.0 -50.0 
16328 | 0 | 0.1200
39.7300 +9.844793E-09 +5.632602E-09 -50.0 -50.0 
TI0.0 | 0 | 0.1300
40.1600 +9.635293E-09 +5.381097E-09 -50.0 -50.0 
16328 | 0 | 0.4300
40.2900 +6.325198E-09 +4.542720E-09 -50.0 -50.0 
16328 | 0 | 0.1300
40.4100 +1.022191E-08 +5.800278E-09 -50.0 -50.0 
16328 | 0 | 0.1200
40.5400 +8.462095E-09 +5.548773E-09 -50.0 -50.0 
16328 | 0 | 0.1300
40.6700 +9.677199E-09 +4.375045E-09 -50.0 -50.0 
TI0.0 | 0 | 0.1300
40.9600 +8.126895E-09 +5.129576E-09 -50.0 -50.0 
16328 | 0 | 0.2900
41.0800 +8.755382E-09 +3.955859E-09 -50.0 -50.0 
16328 | 0 | 0.1200
41.2400 +8.797301E-09 +4.668481E-09 -50.0 -50.0 
16328 | 0 | 0.1600
41.3600 +9.300106E-09 +3.159401E-09 -50.0 -50.0 
16328 | 0 | 0.1200
41.4900 +9.006790E-09 +4.710399E-09 -50.0 -50.0 
TI0.0 | 0 | 0.1300
41.7600 +9.174395E-09 +5.339179E-09 -50.0 -50.0 
16328 | 0 | 0.2700
41.8800 +9.216301E-09 +5.003823E-09 -50.0 -50.0 
16328 | 0 | 0.1200
42.0100 +1.013810E-08 +6.806323E-09 -50.0 -50.0 
16328 | 0 | 0.1300
42.1400 +8.420210E-09 +5.297250E-09 -50.0 -50.0 
16328 | 0 | 0.1300
42.2600 +9.551494E-09 +4.961907E-09 -50.0 -50.0 
TI0.0 | 0 | 0.1200
42.5700 +8.587795E-09 +4.919984E-09 -50.0 -50.0 
16328 | 0 | 0.3100
42.6900 +8.378295E-09 +4.500796E-09 -50.0 -50.0 
16328 | 0 | 0.1200
42.8200 +8.797279E-09 +6.429068E-09 -50.0 -50.0 
16328 | 0 | 0.1300
42.9400 +1.013811E-08 +4.710396E-09 -50.0 -50.0 
16328 | 0 | 0.1200
43.0700 +9.802896E-09 +2.614455E-09 -50.0 -50.0 
TI0.0 | 0 | 0.1300
43.3700 +9.425802E-09 +4.919988E-09 -50.0 -50.0 
16328 | 0 | 0.3000
43.5000 +9.216302E-09 +5.590680E-09 -50.0 -50.0 
16328 | 0 | 0.1300
43.6200 +8.881091E-09 +5.003826E-09 -50.0 -50.0 
16328 | 0 | 0.1200
43.7500 +8.964902E-09 +3.243244E-09 -50.0 -50.0 
16328 | 0 | 0.1300
43.8800 +9.216309E-09 +5.758359E-09 -50.0 -50.0 
16328 | 0 | 0.1300
44.1800 +9.258200E-09 +5.423009E-09 -50.0 -50.0 
16328 | 0 | 0.3000
44.3000 +8.671593E-09 +4.794225E-09 -50.0 -50.0 
16328 | 0 | 0.1200
44.4300 +8.797290E-09 +6.806329E-09 -50.0 -50.0 
16328 | 0 | 0.1300
44.5600 +9.342008E-09 +5.297255E-09 -50.0 -50.0 
TI0.0 | 0 | 0.1300
44.9900 +9.425785E-09 +6.429058E-09 -50.0 -50.0 
16328 | 0 | 0.4300
45.1100 +9.383907E-09 +5.171496E-09 -50.0 -50.0 
16328 | 0 | 0.1200
45.2400 +8.294482E-09 +4.375041E-09 -50.0 -50.0 
16328 | 0 | 0.1300
45.3700 +1.173030E-08 +5.087662E-09 -50.0 -50.0 
16328 | 0 | 0.1300
45.4900 +8.797308E-09 +5.506841E-09 -50.0 -50.0 
TI0.0 | 0 | 0.1200
45.7900 +8.839187E-09 +5.213423E-09 -50.0 -50.0 
16328 | 0 | 0.3000
45.9200 +5.906191E-09 +5.590691E-09 -50.0 -50.0 
16328 | 0 | 0.1300
46.0400 +9.677201E-09 +4.207369E-09 -50.0 -50.0 
16328 | 0 | 0.1200
46.1700 +9.341997E-09 +4.878065E-09 -50.0 -50.0 
16328 | 0 | 0.1300
46.2900 +1.051520E-08 +4.878062E-09 -50.0 -50.0 
TI0.0 | 0 | 0.1200
46.6000 +9.216295E-09 +5.255332E-09 -50.0 -50.0 
16328 | 0 | 0.3100
46.7200 +9.551492E-09 +4.710384E-09 -50.0 -50.0 
16328 | 0 | 0.1200
46.8500 +9.886694E-09 +4.752311E-09 -50.0 -50.0 
16328 | 0 | 0.1300
46.9700 +8.881091E-09 +3.997778E-09 -50.0 -50.0 
16328 | 0 | 0.1200
47.1000 +9.802884E-09 +5.506847E-09 -50.0 -50.0 
TI0.0 | 0 | 0.1300
47.3900 +9.300100E-09 +2.404868E-09 -50.0 -50.0 
16328 | 0 | 0.2900
47.5100 +9.509584E-09 +5.045746E-09 -50.0 -50.0 
16328 | 0 | 0.1200
47.6400 +8.964893E-09 +5.171496E-09 -50.0 -50.0 
16328 | 0 | 0.1300
47.7700 +6.953684E-09 +6.261388E-09 -50.0 -50.0 
16328 | 0 | 0.1300
47.8900 +8.922997E-09 +5.758353E-09 -50.0 -50.0 
16328 | 0 | 0.1200
48.2100 +9.802894E-09 +4.836146E-09 -50.0 -50.0 
16328 | 0 | 0.3200
48.3400 +7.665996E-09 +5.548767E-09 -50.0 -50.0 
16328 | 0 | 0.1300
48.4600 +8.126898E-09 +5.171499E-09 -50.0 -50.0 
16328 | 0 | 0.1200
48.5900 +9.216285E-09 +5.213415E-09 -50.0 -50.0 
TI0.0 | 0 | 0.1300
49.0100 +8.923008E-09 +5.381088E-09 -50.0 -50.0 
16328 | 0 | 0.4200
49.1300 +9.802894E-09 +4.961912E-09 -50.0 -50.0 
16328 | 0 | 0.1200
49.2600 +8.964898E-09 +5.087653E-09 -50.0 -50.0 
16328 | 0 | 0.1300
49.3800 +9.132499E-09 +5.213419E-09 -50.0 -50.0 
16328 | 0 | 0.1200
49.5100 +8.713499E-09 +4.919984E-09 -50.0 -50.0 
TI0.0 | 0 | 0.1300
49.8100 +9.300102E-09 +7.728531E-09 -50.0 -50.0 
16328 | 0 | 0.3000
49.9400 +7.246973E-09 +5.506847E-09 -50.0 -50.0 
16328 | 0 | 0.1300
50.0600 +8.252599E-09 +5.926037E-09 -50.0 -50.0 
16328 | 0 | 0.1200
50.1900 +8.504010E-09 +3.620504E-09 -50.0 -50.0 
16328 | 0 | 0.1300
50.3100 +8.587792E-09 +5.716447E-09 -50.0 -50.0 
TI0.0 | 0 | 0.1200
50.6200 +9.467716E-09 +5.297252E-09 -50.0 -50.0 
16328 | 0 | 0.3100
50.7400 +8.168792E-09 +5.381085E-09 -50.0 -50.0 
16328 | 0 | 0.1200
50.8700 +8.922999E-09 +4.291205E-09 -50.0 -50.0 
16328 | 0 | 0.1300
50.9900 +9.006808E-09 +2.824049E-09 -50.0 -50.0 
16328 | 0 | 0.1200
51.1200 +9.593407E-09 +3.620510E-09 -50.0 -50.0 
TI0.0 | 0 | 0.1300
51.4500 +9.300084E-09 +5.632597E-09 -50.0 -50.0 
16328 | 0 | 0.3300
51.5800 +9.090595E-09 +4.710394E-09 -50.0 -50.0 
16328 | 0 | 0.1300
51.7100 +8.839194E-09 +5.045738E-09 -50.0 -50.0 
16328 | 0 | 0.1300
51.8300 +9.425795E-09 +5.171493E-09 -50.0 -50.0 
TI0.0 | 0 | 0.1200
52.2400 +8.420200E-09 +5.632597E-09 -50.0 -50.0 
16328 | 0 | 0.4100
52.3500 +9.593395E-09 +5.632599E-09 -50.0 -50.0 
16328 | 0 | 0.1100
52.4800 +8.168811E-09 +5.674520E-09 -50.0 -50.0 
16328 | 0 | 0.1300
52.6100 +8.294482E-09 +7.560857E-09 -50.0 -50.0 
16328 | 0 | 0.1300
52.7300 +1.022191E-08 +3.536672E-09 -50.0 -50.0 
16328 | 0 | 0.1200
53.0400 +9.342003E-09 +7.435102E-09 -50.0 -50.0 
16328 | 0 | 0.3100
53.1600 +8.671588E-09 +4.626559E-09 -50.0 -50.0 
16328 | 0 | 0.1200
53.2900 +9.677205E-09 +5.339175E-09 -50.0 -50.0 
16328 | 0 | 0.1300
53.4300 +9.760992E-09 +5.506843E-09 -50.0 -50.0 
TI0.0 | 0 | 0.1400
53.8300 +8.587792E-09 +5.967955E-09 -50.0 -50.0 
16328 | 0 | 0.4000
53.9500 +9.509602E-09 +3.536671E-09 -50.0 -50.0 
16328 | 0 | 0.1200
54.0800 +9.341997E-09 +4.961907E-09 -50.0 -50.0 
16328 | 0 | 0.1300
54.2100 +8.671593E-09 +4.836143E-09 -50.0 -50.0 
16328 | 0 | 0.1300
54.3300 +8.964902E-09 +5.255331E-09 -50.0 -50.0 
TI0.0 | 0 | 0.1200
54.6400 +8.503996E-09 +5.297252E-09 -50.0 -50.0 
16328 | 0 | 0.3100
54.7600 +9.635309E-09 +6.093708E-09 -50.0 -50.0 
16328 | 0 | 0.1200
54.8800 +9.551504E-09 +3.368995E-09 -50.0 -50.0 
16328 | 0 | 0.1200
55.0100 +8.126889E-09 +5.171494E-09 -50.0 -50.0 
16328 | 0 | 0.1300
55.1400 +1.248450E-08 +4.752311E-09 -50.0 -50.0 
TI0.0 | 0 | 0.1300
55.4500 +9.886712E-09 +5.003820E-09 -50.0 -50.0 
16328 | 0 | 0.3100
55.5600 +8.336400E-09 +5.003823E-09 -50.0 -50.0 
16328 | 0 | 0.1100
55.6900 +1.013810E-08 +5.003823E-09 -50.0 -50.0 
16328 | 0 | 0.1300
55.8200 +9.174402E-09 +4.542708E-09 -50.0 -50.0 
16328 | 0 | 0.1300
55.9400 +9.383919E-09 +5.129581E-09 -50.0 -50.0 
TI0.0 | 0 | 0.1200
56.2600 +7.624113E-09 +6.009871E-09 -50.0 -50.0 
16328 | 0 | 0.3200
56.3700 +9.174395E-09 +5.884118E-09 -50.0 -50.0 
16328 | 0 | 0.1100
56.5000 +8.294473E-09 +5.590685E-09 -50.0 -50.0 
16328 | 0 | 0.1300
56.6200 +8.755407E-09 +4.919985E-09 -50.0 -50.0 
16328 | 0 | 0.1200
56.7500 +9.006808E-09 +5.590679E-09 -50.0 -50.0 
16328 | 0 | 0.1300
57.0600 +8.629689E-09 +4.249291E-09 -50.0 -50.0 
16328 | 0 | 0.3100
57.1800 +9.006801E-09 +4.878062E-09 -50.0 -50.0 
16328 | 0 | 0.1200
57.3100 +9.886694E-09 +4.416960E-09 -50.0 -50.0 
16328 | 0 | 0.1300
57.4300 +9.928607E-09 +5.632597E-09 -50.0 -50.0 
TI0.0 | 0 | 0.1200
57.8700 +8.671593E-09 +5.171492E-09 -50.0 -50.0 
16328 | 0 | 0.4400
57.9900 +9.509579E-09 +6.135623E-09 -50.0 -50.0 
16328 | 0 | 0.1200
58.1200 +8.462113E-09 +5.381096E-09 -50.0 -50.0 
16328 | 0 | 0.1300
58.2400 +8.545907E-09 +4.500794E-09 -50.0 -50.0 
16328 | 0 | 0.1200
58.3700 +8.839205E-09 +4.752304E-09 -50.0 -50.0 
TI0.0 | 0 | 0.1300
58.6800 +8.964912E-09 +5.339171E-09 -50.0 -50.0 
16328 | 0 | 0.3100
58.8000 +9.006790E-09 +6.345217E-09 -50.0 -50.0 
16328 | 0 | 0.1200
58.9200 +5.696682E-09 +5.590683E-09 -50.0 -50.0 
16328 | 0 | 0.1200
59.0500 +9.635297E-09 +6.680571E-09 -50.0 -50.0 
16328 | 0 | 0.1300
59.1700 +9.342010E-09 +4.752316E-09 -50.0 -50.0 
TI0.0 | 0 | 0.1200
59.4700 +8.713496E-09 +2.279105E-09 -50.0 -50.0 
16328 | 0 | 0.3000
59.5900 +9.006804E-09 +4.752311E-09 -50.0 -50.0 
16328 | 0 | 0.1200
59.7100 +1.047330E-08 +5.297258E-09 -50.0 -50.0 
16328 | 0 | 0.1200
59.8400 +7.288893E-09 +5.758356E-09 -50.0 -50.0 
16328 | 0 | 0.1300
59.9700 +9.425790E-09 +5.464928E-09 -50.0 -50.0 
TI0.0 | 0 | 0.1300
60.2800 +6.367094E-09 +3.997765E-09 -50.0 -50.0 
16328 | 0 | 0.3100
60.4000 +6.744203E-09 +4.542716E-09 -50.0 -50.0 
16328 | 0 | 0.1200
60.5200 +9.341997E-09 +3.494749E-09 -50.0 -50.0 
16328 | 0 | 0.1200
60.6500 +1.009620E-08 +7.854295E-09 -50.0 -50.0 
16328 | 0 | 0.1300
60.7700 +9.132503E-09 +5.464924E-09 -50.0 -50.0 
16328 | 0 | 0.1200
61.0800 +9.551481E-09 +5.758359E-09 -50.0 -50.0 
16328 | 0 | 0.3100
61.2000 +1.005429E-08 +5.548764E-09 -50.0 -50.0 
16328 | 0 | 0.1200
61.3300 +9.467682E-09 +3.830102E-09 -50.0 -50.0 
16328 | 0 | 0.1300
61.4800 +9.635293E-09 +4.668473E-09 -50.0 -50.0 
TI0.0 | 0 | 0.1500
61.8900 +9.467700E-09 +4.626552E-09 -50.0 -50.0 
16328 | 0 | 0.4100
62.0100 +9.258198E-09 +4.919982E-09 -50.0 -50.0 
16328 | 0 | 0.1200
62.1300 +1.168840E-08 +4.416964E-09 -50.0 -50.0 
16328 | 0 | 0.1200
62.2600 +7.959297E-09 +5.464926E-09 -50.0 -50.0 
16328 | 0 | 0.1300
62.3800 +9.300095E-09 +5.632605E-09 -50.0 -50.0 
TI0.0 | 0 | 0.1200
62.7000 +9.551499E-09 +5.213407E-09 -50.0 -50.0 
16328 | 0 | 0.3200
62.8100 +8.713503E-09 +5.842196E-09 -50.0 -50.0 
16328 | 0 | 0.1100
62.9400 +9.174389E-09 +5.255338E-09 -50.0 -50.0 
16328 | 0 | 0.1300
63.0600 +8.336400E-09 +5.590683E-09 -50.0 -50.0 
16328 | 0 | 0.1200
63.1900 +8.043093E-09 +5.087659E-09 -50.0 -50.0 
TI0.0 | 0 | 0.1300
63.5100 +9.006804E-09 +3.327076E-09 -50.0 -50.0 
16328 | 0 | 0.3200
63.6200 +1.093419E-08 +6.345223E-09 -50.0 -50.0 
16328 | 0 | 0.1100
63.7500 +1.026379E-08 +4.961900E-09 -50.0 -50.0 
16328 | 0 | 0.1300
63.8800 +8.001219E-09 +4.710393E-09 -50.0 -50.0 
16328 | 0 | 0.1300
64.0000 +9.258192E-09 +5.632602E-09 -50.0 -50.0 
TI0.0 | 0 | 0.1200
64.3100 +9.006802E-09 +4.878064E-09 -50.0 -50.0 
16328 | 0 | 0.3100
64.4300 +9.258203E-09 +5.506840E-09 -50.0 -50.0 
16328 | 0 | 0.1200
64.5500 +6.283289E-09 +5.129575E-09 -50.0 -50.0 
16328 | 0 | 0.1200
64.6800 +9.635302E-09 +6.890162E-09 -50.0 -50.0 
16328 | 0 | 0.1300
64.8100 +9.258198E-09 +6.303297E-09 -50.0 -50.0 
TI0.0 | 0 | 0.1300
65.1200 +8.755393E-09 +3.955850E-09 -50.0 -50.0 
16328 | 0 | 0.3100
65.2300 +9.342010E-09 +2.237189E-09 -50.0 -50.0 
16328 | 0 | 0.1100
65.3600 +8.294496E-09 +6.554821E-09 -50.0 -50.0 
16328 | 0 | 0.1300
65.4900 +8.671613E-09 +6.512884E-09 -50.0 -50.0 
16328 | 0 | 0.1300
65.6100 +9.719102E-09 +4.416964E-09 -50.0 -50.0 
16328 | 0 | 0.1200
65.9300 +1.005430E-08 +5.464924E-09 -50.0 -50.0 
16328 | 0 | 0.3200
66.0400 +9.174405E-09 +6.093708E-09 -50.0 -50.0 
16328 | 0 | 0.1100
66.1700 +9.551512E-09 +3.830098E-09 -50.0 -50.0 
16328 | 0 | 0.1300
66.3000 +8.797295E-09 +4.752304E-09 -50.0 -50.0 
TI0.0 | 0 | 0.1300
66.7200 +8.671613E-09 +5.003826E-09 -50.0 -50.0 
16328 | 0 | 0.4200
66.8300 +9.383896E-09 +6.554812E-09 -50.0 -50.0 
16328 | 0 | 0.1100
66.9600 +9.467700E-09 +5.129576E-09 -50.0 -50.0 
16328 | 0 | 0.1300
67.0900 +9.341987E-09 +6.051788E-09 -50.0 -50.0 
16328 | 0 | 0.1300
67.2100 +9.174407E-09 +5.213414E-09 -50.0 -50.0 
TI0.0 | 0 | 0.1200
67.5300 +8.210698E-09 +4.626552E-09 -50.0 -50.0 
16328 | 0 | 0.3200
67.6400 +8.168811E-09 +7.435114E-09 -50.0 -50.0 
16328 | 0 | 0.1100
67.7700 +6.618484E-09 +5.884117E-09 -50.0 -50.0 
16328 | 0 | 0.1300
67.8900 +8.294508E-09 +7.812365E-09 -50.0 -50.0 
16328 | 0 | 0.1200
68.0200 +1.030570E-08 +2.446783E-09 -50.0 -50.0 
TI0.0 | 0 | 0.1300
68.3300 +9.760983E-09 +4.961906E-09 -50.0 -50.0 
16328 | 0 | 0.3100
68.4500 +9.635279E-09 +4.249284E-09 -50.0 -50.0 
16328 | 0 | 0.1200
68.5700 +9.551499E-09 +5.171494E-09 -50.0 -50.0 
16328 | 0 | 0.1200
68.7000 +9.090597E-09 +4.039687E-09 -50.0 -50.0 
16328 | 0 | 0.1300
68.8200 +9.383900E-09 +5.842193E-09 -50.0 -50.0 
TI0.0 | 0 | 0.1200
69.1400 +8.629698E-09 +1.650320E-09 -50.0 -50.0 
16328 | 0 | 0.3200
69.2500 +9.174405E-09 +4.878062E-09 -50.0 -50.0 
16328 | 0 | 0.1100
69.3800 +8.629705E-09 +2.865974E-09 -50.0 -50.0 
16328 | 0 | 0.1300
69.5100 +1.013809E-08 +4.794221E-09 -50.0 -50.0 
16328 | 0 | 0.1300
69.6300 +9.551499E-09 +5.423002E-09 -50.0 -50.0 
16328 | 0 | 0.1200
69.9500 +9.216295E-09 +4.165438E-09 -50.0 -50.0 
16328 | 0 | 0.3200
70.0600 +1.101801E-08 +5.297252E-09 -50.0 -50.0 
16328 | 0 | 0.1100
70.1900 +1.118562E-08 +4.961900E-09 -50.0 -50.0 
16328 | 0 | 0.1300
70.3100 +5.529099E-09 +5.255338E-09 -50.0 -50.0 
TI0.0 | 0 | 0.1200
70.7400 +9.886710E-09 +7.351263E-09 -50.0 -50.0 
16328 | 0 | 0.4300
70.8500 +8.755411E-09 +2.237187E-09 -50.0 -50.0 
16328 | 0 | 0.1100
70.9800 +9.132515E-09 +6.177545E-09 -50.0 -50.0 
16328 | 0 | 0.1300
71.1000 +8.755402E-09 +5.423011E-09 -50.0 -50.0 
16328 | 0 | 0.1200
71.2300 +9.761015E-09 +4.584632E-09 -50.0 -50.0 
TI0.0 | 0 | 0.1300
71.5400 +8.420209E-09 +5.758359E-09 -50.0 -50.0 
16328 | 0 | 0.3100
71.6900 +8.545905E-09 +6.806323E-09 -50.0 -50.0 
16328 | 0 | 0.1500
71.8200 +9.425813E-09 +6.345221E-09 -50.0 -50.0 
16328 | 0 | 0.1300
71.9400 +8.755411E-09 +4.794226E-09 -50.0 -50.0 
16328 | 0 | 0.1200
72.0700 +9.761015E-09 +5.632605E-09 -50.0 -50.0 
TI0.0 | 0 | 0.1300
72.3500 +9.425818E-09 +5.129584E-09 -50.0 -50.0 
16328 | 0 | 0.2800
72.4800 +9.383896E-09 +5.423010E-09 -50.0 -50.0 
16328 | 0 | 0.1300
72.6100 +8.294492E-09 +5.590687E-09 -50.0 -50.0 
16328 | 0 | 0.1300
72.7300 +8.964889E-09 +7.267430E-09 -50.0 -50.0 
16328 | 0 | 0.1200
72.8600 +8.504013E-09 +5.884107E-09 -50.0 -50.0 
TI0.0 | 0 | 0.1300
73.1600 +8.043099E-09 +3.075566E-09 -50.0 -50.0 
16328 | 0 | 0.3000
73.2900 +9.551503E-09 +2.949804E-09 -50.0 -50.0 
16328 | 0 | 0.1300
73.4200 +1.017999E-08 +5.381088E-09 -50.0 -50.0 
16328 | 0 | 0.1300
73.5400 +9.551499E-09 +5.213411E-09 -50.0 -50.0 
16328 | 0 | 0.1200
73.6700 +8.964900E-09 +3.997773E-09 -50.0 -50.0 
TI0.0 | 0 | 0.1300
73.9700 +9.551517E-09 +3.452834E-09 -50.0 -50.0 
16328 | 0 | 0.3000
74.0900 +9.970506E-09 +5.129579E-09 -50.0 -50.0 
16328 | 0 | 0.1200
74.2200 +9.342003E-09 +4.752311E-09 -50.0 -50.0 
16328 | 0 | 0.1300
74.3500 +9.174402E-09 +5.255334E-09 -50.0 -50.0 
16328 | 0 | 0.1300
74.4700 +8.545907E-09 +4.836146E-09 -50.0 -50.0 
16328 | 0 | 0.1200
74.7700 +9.006802E-09 +4.710381E-09 -50.0 -50.0 
16328 | 0 | 0.3000
74.9000 +9.425804E-09 +6.512908E-09 -50.0 -50.0 
16328 | 0 | 0.1300
75.0300 +8.420205E-09 +6.219467E-09 -50.0 -50.0 
16328 | 0 | 0.1300
75.1500 +9.509597E-09 +3.620501E-09 -50.0 -50.0 
TI0.0 | 0 | 0.1200
75.5800 +9.719097E-09 +4.584634E-09 -50.0 -50.0 
16328 | 0 | 0.4300
75.7100 +9.928609E-09 +5.758358E-09 -50.0 -50.0 
16328 | 0 | 0.1300
75.8300 +9.342015E-09 +5.297252E-09 -50.0 -50.0 
16328 | 0 | 0.1200
75.9600 +9.635302E-09 +5.674522E-09 -50.0 -50.0 
16328 | 0 | 0.1300
76.0900 +8.797290E-09 +8.147726E-09 -50.0 -50.0 
TI0.0 | 0 | 0.1300
76.3900 +9.928591E-09 +2.404861E-09 -50.0 -50.0 
16328 | 0 | 0.3000
76.5100 +8.587792E-09 +4.752308E-09 -50.0 -50.0 
16328 | 0 | 0.1200
76.6400 +9.677198E-09 +4.710394E-09 -50.0 -50.0 
16328 | 0 | 0.1300
76.7700 +8.881106E-09 +5.590688E-09 -50.0 -50.0 
16328 | 0 | 0.1300
76.8900 +1.227501E-08 +5.255329E-09 -50.0 -50.0 
TI0.0 | 0 | 0.1200
77.1800 +8.839208E-09 +6.890159E-09 -50.0 -50.0 
16328 | 0 | 0.2900
77.3000 +8.755412E-09 +8.063880E-09 -50.0 -50.0 
16328 | 0 | 0.1200
77.4300 +9.090607E-09 +5.548764E-09 -50.0 -50.0 
16328 | 0 | 0.1300
77.5600 +8.336407E-09 +5.087658E-09 -50.0 -50.0 
16328 | 0 | 0.1300
77.6800 +1.034758E-08 +4.752313E-09 -50.0 -50.0 
TI0.0 | 0 | 0.1200
77.9900 +8.126916E-09 +5.129579E-09 -50.0 -50.0 
16328 | 0 | 0.3100
78.1100 +9.593412E-09 +6.554809E-09 -50.0 -50.0 
16328 | 0 | 0.1200
78.2400 +8.545934E-09 +6.429050E-09 -50.0 -50.0 
16328 | 0 | 0.1300
78.3700 +9.467712E-09 +5.800285E-09 -50.0 -50.0 
16328 | 0 | 0.1300
78.4900 +9.216318E-09 +4.375043E-09 -50.0 -50.0 
16328 | 0 | 0.1200
78.7900 +1.022190E-08 +5.758372E-09 -50.0 -50.0 
16328 | 0 | 0.3000
78.9200 +7.582205E-09 +5.171500E-09 -50.0 -50.0 
16328 | 0 | 0.1300
79.0400 +9.844792E-09 +4.291207E-09 -50.0 -50.0 
16328 | 0 | 0.1200
79.1700 +8.755416E-09 +7.015919E-09 -50.0 -50.0 
TI0.0 | 0 | 0.1300
79.6000 +9.635309E-09 +5.129572E-09 -50.0 -50.0 
16328 | 0 | 0.4300
79.7300 +9.300100E-09 +4.961898E-09 -50.0 -50.0 
16328 | 0 | 0.1300
79.8500 +8.252600E-09 +5.716442E-09 -50.0 -50.0 
16328 | 0 | 0.1200
79.9800 +9.593412E-09 +6.512900E-09 -50.0 -50.0 
16328 | 0 | 0.1300
80.1100 +8.713487E-09 +6.596735E-09 -50.0 -50.0 
TI0.0 | 0 | 0.1300
80.4100 +1.126940E-08 +6.051790E-09 -50.0 -50.0 
16328 | 0 | 0.3000
80.5400 +7.498391E-09 +5.297252E-09 -50.0 -50.0 
16328 | 0 | 0.1300
80.6600 +8.587810E-09 +6.009870E-09 -50.0 -50.0 
16328 | 0 | 0.1200
80.7900 +9.761003E-09 +4.249290E-09 -50.0 -50.0 
16328 | 0 | 0.1300
80.9100 +9.593400E-09 +6.554804E-09 -50.0 -50.0 
TI0.0 | 0 | 0.1200
81.2100 +8.168813E-09 +2.991722E-09 -50.0 -50.0 
16328 | 0 | 0.3000
81.3400 +8.294510E-09 +5.758361E-09 -50.0 -50.0 
16328 | 0 | 0.1300
81.4700 +9.258192E-09 +4.961896E-09 -50.0 -50.0 
16328 | 0 | 0.1300
81.6200 +8.126912E-09 +5.590683E-09 -50.0 -50.0 
16328 | 0 | 0.1500
81.7400 +9.719100E-09 +4.919987E-09 -50.0 -50.0 
TI0.0 | 0 | 0.1200
82.0200 +9.383905E-09 +4.500796E-09 -50.0 -50.0 
16328 | 0 | 0.2800
82.1500 +9.425804E-09 +5.423005E-09 -50.0 -50.0 
16328 | 0 | 0.1300
82.2800 +9.593418E-09 +3.913931E-09 -50.0 -50.0 
16328 | 0 | 0.1300
82.4000 +8.252599E-09 +4.458884E-09 -50.0 -50.0 
16328 | 0 | 0.1200
82.5300 +8.964898E-09 +5.423010E-09 -50.0 -50.0 
16328 | 0 | 0.1300
82.8300 +9.006804E-09 +6.470976E-09 -50.0 -50.0 
16328 | 0 | 0.3000
82.9600 +8.126911E-09 +3.075553E-09 -50.0 -50.0 
16328 | 0 | 0.1300
83.0800 +9.467712E-09 +4.333121E-09 -50.0 -50.0 
16328 | 0 | 0.1200
83.2100 +9.090607E-09 +5.548762E-09 -50.0 -50.0 
TI0.0 | 0 | 0.1300
83.6200 +7.288893E-09 +5.171494E-09 -50.0 -50.0 
16328 | 0 | 0.4100
83.7400 +8.839205E-09 +2.656377E-09 -50.0 -50.0 
16328 | 0 | 0.1200
83.8700 +9.635302E-09 +4.291201E-09 -50.0 -50.0 
16328 | 0 | 0.1300
84.0000 +9.132505E-09 +4.458875E-09 -50.0 -50.0 
16328 | 0 | 0.1300
84.1200 +8.964918E-09 +7.141673E-09 -50.0 -50.0 
TI0.0 | 0 | 0.1200
84.4300 +9.342010E-09 +6.303305E-09 -50.0 -50.0 
16328 | 0 | 0.3100
84.5500 +9.551499E-09 +5.297255E-09 -50.0 -50.0 
16328 | 0 | 0.1200
84.6800 +8.587820E-09 +5.297252E-09 -50.0 -50.0 
16328 | 0 | 0.1300
84.8000 +8.336389E-09 +4.794228E-09 -50.0 -50.0 
16328 | 0 | 0.1200
84.9300 +9.216290E-09 +5.423008E-09 -50.0 -50.0 
TI0.0 | 0 | 0.1300
85.2300 +9.677205E-09 +7.854294E-09 -50.0 -50.0 
16328 | 0 | 0.3000
85.3600 +9.719100E-09 +4.836146E-09 -50.0 -50.0 
16328 | 0 | 0.1300
85.4800 +1.001241E-08 +4.710384E-09 -50.0 -50.0 
16328 | 0 | 0.1200
85.6100 +8.587802E-09 +5.506841E-09 -50.0 -50.0 
16328 | 0 | 0.1300
85.7400 +9.383895E-09 +5.045741E-09 -50.0 -50.0 
TI0.0 | 0 | 0.1300
86.0400 +9.593423E-09 +5.255332E-09 -50.0 -50.0 
16328 | 0 | 0.3000
86.1700 +9.258207E-09 +5.003820E-09 -50.0 -50.0 
16328 | 0 | 0.1300
86.2900 +9.802896E-09 +5.800277E-09 -50.0 -50.0 
16328 | 0 | 0.1200
86.4200 +8.923017E-09 +4.794225E-09 -50.0 -50.0 
16328 | 0 | 0.1300
86.5500 +7.666003E-09 +4.500791E-09 -50.0 -50.0 
TI0.0 | 0 | 0.1300
86.8500 +9.551517E-09 +5.129572E-09 -50.0 -50.0 
16328 | 0 | 0.3000
86.9700 +9.425797E-09 +5.548769E-09 -50.0 -50.0 
16328 | 0 | 0.1200
87.1000 +8.671611E-09 +5.087655E-09 -50.0 -50.0 
16328 | 0 | 0.1300
87.2200 +9.593412E-09 +3.243239E-09 -50.0 -50.0 
16328 | 0 | 0.1200
87.3500 +9.132508E-09 +4.878065E-09 -50.0 -50.0 
16328 | 0 | 0.1300
87.6500 +8.671606E-09 +4.836144E-09 -50.0 -50.0 
16328 | 0 | 0.3000
87.7800 +9.216295E-09 +5.967953E-09 -50.0 -50.0 
16328 | 0 | 0.1300
87.9000 +8.043111E-09 +1.985672E-09 -50.0 -50.0 
16328 | 0 | 0.1200
88.0300 +1.068283E-08 +4.794220E-09 -50.0 -50.0 
TI0.0 | 0 | 0.1300
88.4700 +9.970510E-09 +5.674523E-09 -50.0 -50.0 
16328 | 0 | 0.4400
88.6000 +7.121306E-09 +5.800276E-09 -50.0 -50.0 
16328 | 0 | 0.1300
88.7300 +9.551515E-09 +6.093706E-09 -50.0 -50.0 
16328 | 0 | 0.1300
88.8500 +9.509606E-09 +2.321029E-09 -50.0 -50.0 
16328 | 0 | 0.1200
88.9800 +9.760997E-09 +5.842189E-09 -50.0 -50.0 
TI0.0 | 0 | 0.1300
89.2600 +8.503998E-09 +4.626555E-09 -50.0 -50.0 
16328 | 0 | 0.2800
89.3800 +9.635304E-09 +4.081611E-09 -50.0 -50.0 
16328 | 0 | 0.1200
89.5000 +1.026380E-08 +5.464923E-09 -50.0 -50.0 
16328 | 0 | 0.1200
89.6300 +9.886724E-09 +4.919981E-09 -50.0 -50.0 
16328 | 0 | 0.1300
89.7600 +9.760999E-09 +4.794225E-09 -50.0 -50.0 
TI0.0 | 0 | 0.1300
90.0600 +9.425804E-09 +4.416956E-09 -50.0 -50.0 
16328 | 0 | 0.3000
90.1800 +8.713505E-09 +5.003823E-09 -50.0 -50.0 
16328 | 0 | 0.1200
90.3100 +8.839189E-09 +5.045732E-09 -50.0 -50.0 
16328 | 0 | 0.1300
90.4400 +9.006808E-09 +4.794223E-09 -50.0 -50.0 
16328 | 0 | 0.1300
90.5600 +8.629710E-09 +4.794225E-09 -50.0 -50.0 
TI0.0 | 0 | 0.1200
90.8700 +8.043100E-09 +4.668470E-09 -50.0 -50.0 
16328 | 0 | 0.3100
90.9900 +8.755393E-09 +6.764400E-09 -50.0 -50.0 
16328 | 0 | 0.1200
91.1200 +8.252595E-09 +4.878063E-09 -50.0 -50.0 
16328 | 0 | 0.1300
91.2400 +9.174411E-09 +2.698291E-09 -50.0 -50.0 
16328 | 0 | 0.1200
91.3700 +8.629693E-09 +2.488701E-09 -50.0 -50.0 
16328 | 0 | 0.1300
91.6700 +9.425795E-09 +3.494754E-09 -50.0 -50.0 
16328 | 0 | 0.3000
91.8400 +9.425790E-09 +4.836147E-09 -50.0 -50.0 
16328 | 0 | 0.1700
91.9600 +9.341999E-09 +6.554814E-09 -50.0 -50.0 
TI0.0 | 0 | 0.1200
92.4900 +1.018001E-08 +5.255334E-09 -50.0 -50.0 
16328 | 0 | 0.5300
92.6000 +8.964898E-09 +5.423010E-09 -50.0 -50.0 
16328 | 0 | 0.1100
92.7300 +9.635293E-09 +5.716438E-09 -50.0 -50.0 
16328 | 0 | 0.1300
92.8600 +7.959308E-09 +5.381088E-09 -50.0 -50.0 
16328 | 0 | 0.1300
92.9800 +1.164651E-08 +4.668473E-09 -50.0 -50.0 
TI0.0 | 0 | 0.1200
93.2900 +9.593395E-09 +7.057829E-09 -50.0 -50.0 
16328 | 0 | 0.3100
93.4100 +8.043102E-09 +4.416957E-09 -50.0 -50.0 
16328 | 0 | 0.1200
93.5400 +8.923010E-09 +5.674522E-09 -50.0 -50.0 
16328 | 0 | 0.1300
93.6600 +9.174395E-09 +4.752304E-09 -50.0 -50.0 
16328 | 0 | 0.1200
93.8000 +8.294508E-09 +5.548767E-09 -50.0 -50.0 
TI0.0 | 0 | 0.1400
94.1000 +8.755405E-09 +5.632600E-09 -50.0 -50.0 
16328 | 0 | 0.3000
94.2200 +9.383900E-09 +4.961905E-09 -50.0 -50.0 
16328 | 0 | 0.1200
94.3500 +8.839203E-09 +7.644705E-09 -50.0 -50.0 
16328 | 0 | 0.1300
94.4700 +1.064089E-08 +5.716442E-09 -50.0 -50.0 
16328 | 0 | 0.1200
94.6000 +9.970494E-09 +4.291206E-09 -50.0 -50.0 
TI0.0 | 0 | 0.1300
94.8900 +8.964900E-09 +5.884115E-09 -50.0 -50.0 
16328 | 0 | 0.2900
95.0100 +1.001241E-08 +6.973996E-09 -50.0 -50.0 
16328 | 0 | 0.1200
95.1300 +1.022191E-08 +3.075561E-09 -50.0 -50.0 
16328 | 0 | 0.1200
95.2600 +9.300107E-09 +5.297247E-09 -50.0 -50.0 
16328 | 0 | 0.1300
95.3800 +9.760999E-09 +3.746260E-09 -50.0 -50.0 
16328 | 0 | 0.1200
95.7100 +1.064092E-08 +5.506847E-09 -50.0 -50.0 
16328 | 0 | 0.3300
95.8300 +8.964921E-09 +3.913934E-09 -50.0 -50.0 
16328 | 0 | 0.1200
95.9600 +7.372714E-09 +5.590679E-09 -50.0 -50.0 
16328 | 0 | 0.1300
96.0800 +9.761004E-09 +3.578585E-09 -50.0 -50.0 
TI0.0 | 0 | 0.1200
96.5000 +9.719100E-09 +5.339174E-09 -50.0 -50.0 
16328 | 0 | 0.4200
96.6200 +9.258216E-09 +4.500797E-09 -50.0 -50.0 
16328 | 0 | 0.1200
96.7500 +1.005430E-08 +5.381091E-09 -50.0 -50.0 
16328 | 0 | 0.1300
96.8800 +9.174411E-09 +5.045743E-09 -50.0 -50.0 
16328 | 0 | 0.1300
97.0000 +8.839221E-09 +5.213419E-09 -50.0 -50.0 
TI0.0 | 0 | 0.1200
97.3100 +9.132505E-09 +3.327075E-09 -50.0 -50.0 
16328 | 0 | 0.3100
97.4300 +9.174430E-09 +5.758361E-09 -50.0 -50.0 
16328 | 0 | 0.1200
97.5600 +9.258210E-09 +5.213416E-09 -50.0 -50.0 
16328 | 0 | 0.1300
97.6800 +9.300107E-09 +5.297252E-09 -50.0 -50.0 
16328 | 0 | 0.1200
97.8100 +5.529110E-09 +6.009868E-09 -50.0 -50.0 
TI0.0 | 0 | 0.1300
98.1200 +8.420191E-09 +8.357324E-09 -50.0 -50.0 
16328 | 0 | 0.3100
98.2400 +8.881120E-09 +7.644695E-09 -50.0 -50.0 
16328 | 0 | 0.1200
98.3600 +8.504021E-09 +6.093699E-09 -50.0 -50.0 
16328 | 0 | 0.1200
98.4900 +9.886694E-09 +5.255331E-09 -50.0 -50.0 
16328 | 0 | 0.1300
98.6200 +9.006801E-09 +4.123523E-09 -50.0 -50.0 
TI0.0 | 0 | 0.1300
98.9200 +8.713510E-09 +5.548762E-09 -50.0 -50.0 
16328 | 0 | 0.3000
99.0400 +8.671607E-09 +6.387136E-09 -50.0 -50.0 
16328 | 0 | 0.1200
99.1700 +1.076661E-08 +4.919976E-09 -50.0 -50.0 
16328 | 0 | 0.1300
99.2900 +9.006808E-09 +4.710384E-09 -50.0 -50.0 
16328 | 0 | 0.1200
99.4200 +8.881091E-09 +5.464918E-09 -50.0 -50.0 
TI0.0 | 0 | 0.1300
99.7300 +7.791716E-09 +6.345223E-09 -50.0 -50.0 
16328 | 0 | 0.3100
99.8500 +9.425804E-09 +5.758361E-09 -50.0 -50.0 
16328 | 0 | 0.1200
99.9700 +9.006804E-09 +5.213420E-09 -50.0 -50.0 
16328 | 0 | 0.1200
100.1000 +8.420194E-09 +7.770453E-09 -50.0 -50.0 
16328 | 0 | 0.1300
100.2300 +9.719104E-09 +6.932083E-09 -50.0 -50.0 
16328 | 0 | 0.1300
100.5400 +1.064090E-08 +2.153349E-09 -50.0 -50.0 
16328 | 0 | 0.3100
100.6600 +6.911796E-09 +5.632599E-09 -50.0 -50.0 
16328 | 0 | 0.1200
100.7800 +8.713508E-09 +6.009868E-09 -50.0 -50.0 
16328 | 0 | 0.1200
100.9100 +1.080850E-08 +6.638658E-09 -50.0 -50.0 
TI0.0 | 0 | 0.1300
101.3300 +8.923005E-09 +4.500797E-09 -50.0 -50.0 
16328 | 0 | 0.4200
101.4500 +9.216318E-09 +6.932083E-09 -50.0 -50.0 
16328 | 0 | 0.1200
101.5700 +9.467707E-09 +3.704342E-09 -50.0 -50.0 
16328 | 0 | 0.1200
101.7000 +9.174400E-09 +5.129571E-09 -50.0 -50.0 
16328 | 0 | 0.1300
101.8300 +9.593391E-09 +4.836140E-09 -50.0 -50.0 
TI0.0 | 0 | 0.1300
102.1500 +9.551515E-09 +5.255331E-09 -50.0 -50.0 
16328 | 0 | 0.3200
102.2700 +9.425813E-09 +4.919984E-09 -50.0 -50.0 
16328 | 0 | 0.1200
102.4000 +1.013812E-08 +6.177535E-09 -50.0 -50.0 
16328 | 0 | 0.1300
102.5200 +9.258203E-09 +5.758356E-09 -50.0 -50.0 
16328 | 0 | 0.1200
102.6500 +8.713496E-09 +4.878061E-09 -50.0 -50.0 
TI0.0 | 0 | 0.1300
102.9400 +1.009622E-08 +3.997769E-09 -50.0 -50.0 
16328 | 0 | 0.2900
103.0600 +9.635302E-09 +5.926032E-09 -50.0 -50.0 
16328 | 0 | 0.1200
103.1900 +9.593396E-09 +5.003818E-09 -50.0 -50.0 
16328 | 0 | 0.1300
103.3100 +8.797306E-09 +5.464928E-09 -50.0 -50.0 
16328 | 0 | 0.1200
103.4400 +9.719114E-09 +4.584638E-09 -50.0 -50.0 
TI0.0 | 0 | 0.1300
103.7500 +7.833595E-09 +5.045741E-09 -50.0 -50.0 
16328 | 0 | 0.3100
103.8700 +9.383893E-09 +6.009865E-09 -50.0 -50.0 
16328 | 0 | 0.1200
103.9900 +8.881106E-09 +5.842196E-09 -50.0 -50.0 
16328 | 0 | 0.1200
104.1400 +7.205109E-09 +5.087656E-09 -50.0 -50.0 
16328 | 0 | 0.1500
104.2600 +7.707914E-09 +5.423009E-09 -50.0 -50.0 
16328 | 0 | 0.1200
104.5600 +8.881095E-09 +2.865971E-09 -50.0 -50.0 
16328 | 0 | 0.3000
104.6700 +9.760994E-09 +5.590683E-09 -50.0 -50.0 
16328 | 0 | 0.1100
104.8000 +8.755405E-09 +4.542717E-09 -50.0 -50.0 
16328 | 0 | 0.1300
104.9300 +7.498398E-09 +4.961899E-09 -50.0 -50.0 
TI0.0 | 0 | 0.1300
105.3700 +9.300100E-09 +6.009870E-09 -50.0 -50.0 
16328 | 0 | 0.4400
105.4800 +7.917400E-09 +5.674523E-09 -50.0 -50.0 
16328 | 0 | 0.1100
105.6100 +8.504013E-09 +5.548764E-09 -50.0 -50.0 
16328 | 0 | 0.1300
105.7400 +1.114372E-08 +4.416960E-09 -50.0 -50.0 
16328 | 0 | 0.1300
105.8600 +5.906196E-09 +5.716438E-09 -50.0 -50.0 
TI0.0 | 0 | 0.1200
106.1600 +9.425815E-09 +4.961908E-09 -50.0 -50.0 
16328 | 0 | 0.3000
106.2800 +9.551492E-09 +5.003820E-09 -50.0 -50.0 
16328 | 0 | 0.1200
106.4000 +9.090613E-09 +2.656381E-09 -50.0 -50.0 
16328 | 0 | 0.1200
106.5300 +9.132510E-09 +5.381090E-09 -50.0 -50.0 
16328 | 0 | 0.1300
106.6500 +9.677205E-09 +5.003814E-09 -50.0 -50.0 
TI0.0 | 0 | 0.1200
106.9600 +7.540303E-09 +5.255334E-09 -50.0 -50.0 
16328 | 0 | 0.3100
107.0800 +9.635313E-09 +5.255343E-09 -50.0 -50.0 
16328 | 0 | 0.1200
107.2100 +8.043102E-09 +5.758358E-09 -50.0 -50.0 
16328 | 0 | 0.1300
107.3300 +9.886710E-09 +5.129581E-09 -50.0 -50.0 
16328 | 0 | 0.1200
107.4600 +8.964912E-09 +4.919984E-09 -50.0 -50.0 
TI0.0 | 0 | 0.1300
107.7700 +1.252641E-08 +4.500794E-09 -50.0 -50.0 
16328 | 0 | 0.3100
107.8900 +9.132517E-09 +3.410914E-09 -50.0 -50.0 
16328 | 0 | 0.1200
108.0100 +1.085040E-08 +5.674520E-09 -50.0 -50.0 
16328 | 0 | 0.1200
108.1400 +8.587806E-09 +5.800270E-09 -50.0 -50.0 
16328 | 0 | 0.1300
108.2600 +9.048723E-09 +5.590687E-09 -50.0 -50.0 
TI0.0 | 0 | 0.1200
108.5800 +9.342015E-09 +4.710397E-09 -50.0 -50.0 
16328 | 0 | 0.3200
108.6900 +9.216309E-09 +3.243244E-09 -50.0 -50.0 
16328 | 0 | 0.1100
108.8200 +8.797313E-09 +7.393183E-09 -50.0 -50.0 
16328 | 0 | 0.1300
108.9500 +1.105991E-08 +5.003814E-09 -50.0 -50.0 
16328 | 0 | 0.1300
109.0700 +9.216302E-09 +7.393180E-09 -50.0 -50.0 
16328 | 0 | 0.1200
109.3800 +9.090607E-09 +6.345228E-09 -50.0 -50.0 
16328 | 0 | 0.3100
109.5000 +9.300095E-09 +5.255343E-09 -50.0 -50.0 
16328 | 0 | 0.1200
109.6300 +8.839217E-09 +5.842206E-09 -50.0 -50.0 
16328 | 0 | 0.1300
109.7500 +1.009620E-08 +6.093712E-09 -50.0 -50.0 
TI0.0 | 0 | 0.1200
110.1900 +8.168806E-09 +6.512897E-09 -50.0 -50.0 
16328 | 0 | 0.4400
110.3100 +9.719104E-09 +4.836152E-09 -50.0 -50.0 
16328 | 0 | 0.1200
110.4400 +9.258207E-09 +5.632597E-09 -50.0 -50.0 
16328 | 0 | 0.1300
110.5600 +9.635309E-09 +5.842192E-09 -50.0 -50.0 
16328 | 0 | 0.1200
110.6900 +7.624118E-09 +5.255335E-09 -50.0 -50.0 
TI0.0 | 0 | 0.1300
111.0000 +8.839208E-09 +5.129575E-09 -50.0 -50.0 
16328 | 0 | 0.3100
111.1200 +9.467716E-09 +5.548762E-09 -50.0 -50.0 
16328 | 0 | 0.1200
111.2400 +9.635309E-09 +4.542722E-09 -50.0 -50.0 
16328 | 0 | 0.1200
111.3700 +8.923008E-09 +4.836139E-09 -50.0 -50.0 
16328 | 0 | 0.1300
111.4900 +9.006818E-09 +5.590685E-09 -50.0 -50.0 
TI0.0 | 0 | 0.1200
111.8100 +9.635313E-09 +6.429064E-09 -50.0 -50.0 
16328 | 0 | 0.3200
111.9600 +8.336398E-09 +5.255338E-09 -50.0 -50.0 
16328 | 0 | 0.1500
112.0800 +9.132494E-09 +3.955850E-09 -50.0 -50.0 
16328 | 0 | 0.1200
112.2100 +9.300114E-09 +5.339173E-09 -50.0 -50.0 
TI0.0 | 0 | 0.1300
112.6000 +9.342005E-09 +4.081604E-09 -50.0 -50.0 
16328 | 0 | 0.3900
112.7100 +8.420214E-09 +6.596732E-09 -50.0 -50.0 
16328 | 0 | 0.1100
112.8400 +8.545895E-09 +5.590690E-09 -50.0 -50.0 
16328 | 0 | 0.1300
112.9700 +9.048703E-09 +6.974008E-09 -50.0 -50.0 
16328 | 0 | 0.1300
113.0900 +8.085015E-09 +7.267429E-09 -50.0 -50.0 
16328 | 0 | 0.1200
113.4200 +1.118561E-08 +4.710384E-09 -50.0 -50.0 
16328 | 0 | 0.3300
113.5400 +8.713503E-09 +4.333122E-09 -50.0 -50.0 
16328 | 0 | 0.1200
113.6600 +9.802902E-09 +4.626554E-09 -50.0 -50.0 
16328 | 0 | 0.1200
113.7900 +8.881090E-09 +5.590683E-09 -50.0 -50.0 
TI0.0 | 0 | 0.1300
114.2200 +8.797302E-09 +5.884118E-09 -50.0 -50.0 
16328 | 0 | 0.4300
114.3300 +9.509614E-09 +4.919993E-09 -50.0 -50.0 
16328 | 0 | 0.1100
114.4600 +8.964905E-09 +5.087653E-09 -50.0 -50.0 
16328 | 0 | 0.1300
114.5800 +7.959288E-09 +4.081603E-09 -50.0 -50.0 
16328 | 0 | 0.1200
114.7100 +8.755421E-09 +6.387135E-09 -50.0 -50.0 
TI0.0 | 0 | 0.1300
115.0200 +9.048692E-09 +2.572531E-09 -50.0 -50.0 
16328 | 0 | 0.3100
115.1300 +9.006797E-09 +3.410911E-09 -50.0 -50.0 
16328 | 0 | 0.1100
115.2600 +9.635304E-09 +2.279108E-09 -50.0 -50.0 
16328 | 0 | 0.1300
115.3900 +9.635309E-09 +5.045744E-09 -50.0 -50.0 
16328 | 0 | 0.1300
115.5100 +9.467701E-09 +4.836140E-09 -50.0 -50.0 
TI0.0 | 0 | 0.1200
115.8300 +9.677217E-09 +4.919984E-09 -50.0 -50.0 
16328 | 0 | 0.3200
115.9600 +9.258205E-09 +2.530627E-09 -50.0 -50.0 
16328 | 0 | 0.1300
116.0800 +9.593407E-09 +4.836143E-09 -50.0 -50.0 
16328 | 0 | 0.1200
116.2100 +9.258221E-09 +5.464928E-09 -50.0 -50.0 
16328 | 0 | 0.1300
116.3400 +9.006792E-09 +5.087653E-09 -50.0 -50.0 
TI0.0 | 0 | 0.1300
116.6300 +8.881111E-09 +5.842188E-09 -50.0 -50.0 
16328 | 0 | 0.2900
116.7600 +9.719100E-09 +5.045741E-09 -50.0 -50.0 
16328 | 0 | 0.1300
116.8900 +1.118561E-08 +4.668469E-09 -50.0 -50.0 
16328 | 0 | 0.1300
117.0200 +9.425799E-09 +7.728541E-09 -50.0 -50.0 
16328 | 0 | 0.1300
117.1400 +9.342003E-09 +5.297253E-09 -50.0 -50.0 
16328 | 0 | 0.1200
117.4400 +8.336427E-09 +1.776081E-09 -50.0 -50.0 
16328 | 0 | 0.3000
117.5700 +8.210710E-09 +4.626552E-09 -50.0 -50.0 
16328 | 0 | 0.1300
117.7000 +9.048698E-09 +5.632602E-09 -50.0 -50.0 
16328 | 0 | 0.1300
117.8300 +9.886699E-09 +5.003820E-09 -50.0 -50.0 
TI0.0 | 0 | 0.1300
118.2400 +8.504013E-09 +4.458884E-09 -50.0 -50.0 
16328 | 0 | 0.4100
118.3700 +8.378329E-09 +7.057836E-09 -50.0 -50.0 
16328 | 0 | 0.1300
118.4900 +9.677205E-09 +4.794228E-09 -50.0 -50.0 
16328 | 0 | 0.1200
118.6200 +9.174389E-09 +5.003823E-09 -50.0 -50.0 
16328 | 0 | 0.1300
118.7400 +9.258205E-09 +5.590680E-09 -50.0 -50.0 
TI0.0 | 0 | 0.1200
119.0400 +9.090600E-09 +4.710389E-09 -50.0 -50.0 
16328 | 0 | 0.3000
119.1700 +9.425804E-09 +5.297253E-09 -50.0 -50.0 
16328 | 0 | 0.1300
119.3000 +9.048707E-09 +5.884107E-09 -50.0 -50.0 
16328 | 0 | 0.1300
119.4200 +9.174428E-09 +5.255331E-09 -50.0 -50.0 
16328 | 0 | 0.1200
119.5500 +1.105991E-08 +6.051786E-09 -50.0 -50.0 
TI0.0 | 0 | 0.1300
119.8500 +8.168813E-09 +5.339178E-09 -50.0 -50.0 
16328 | 0 | 0.3000
119.9700 +8.797302E-09 +4.878065E-09 -50.0 -50.0 
16328 | 0 | 0.1200
120.1000 +7.875508E-09 +5.255331E-09 -50.0 -50.0 
16328 | 0 | 0.1300
120.2300 +8.587797E-09 +6.219460E-09 -50.0 -50.0 
16328 | 0 | 0.1300
120.3500 +8.545907E-09 +2.949806E-09 -50.0 -50.0 
TI0.0 | 0 | 0.1200
120.6500 +6.744221E-09 +5.381082E-09 -50.0 -50.0 
16328 | 0 | 0.3000
120.7800 +8.378311E-09 +3.452826E-09 -50.0 -50.0 
16328 | 0 | 0.1300
120.9100 +1.202361E-08 +5.758359E-09 -50.0 -50.0 
16328 | 0 | 0.1300
121.0300 +9.006808E-09 +6.051788E-09 -50.0 -50.0 
16328 | 0 | 0.1200
121.1600 +9.467700E-09 +4.752303E-09 -50.0 -50.0 
TI0.0 | 0 | 0.1300
121.4600 +9.006808E-09 +5.632602E-09 -50.0 -50.0 
16328 | 0 | 0.3000
121.5900 +9.300084E-09 +4.542715E-09 -50.0 -50.0 
16328 | 0 | 0.1300
121.7200 +9.970499E-09 +5.506841E-09 -50.0 -50.0 
16328 | 0 | 0.1300
121.8400 +8.881111E-09 +5.800285E-09 -50.0 -50.0 
16328 | 0 | 0.1200
121.9700 +8.336411E-09 +5.003828E-09 -50.0 -50.0 
16328 | 0 | 0.1300
122.2700 +8.504013E-09 +6.764397E-09 -50.0 -50.0 
16328 | 0 | 0.3000
122.4000 +9.090629E-09 +4.584637E-09 -50.0 -50.0 
16328 | 0 | 0.1300
122.5200 +9.509600E-09 +7.309350E-09 -50.0 -50.0 
16328 | 0 | 0.1200
122.6500 +9.719113E-09 +5.674522E-09 -50.0 -50.0 
TI0.0 | 0 | 0.1300
123.0800 +8.671602E-09 +6.219464E-09 -50.0 -50.0 
16328 | 0 | 0.4300
123.2100 +9.593414E-09 +4.836146E-09 -50.0 -50.0 
16328 | 0 | 0.1300
123.3300 +8.839210E-09 +5.171494E-09 -50.0 -50.0 
16328 | 0 | 0.1200
123.4600 +8.713503E-09 +6.638652E-09 -50.0 -50.0 
16328 | 0 | 0.1300
123.5800 +8.881111E-09 +7.854289E-09 -50.0 -50.0 
TI0.0 | 0 | 0.1200
123.8800 +6.827999E-09 +4.584630E-09 -50.0 -50.0 
16328 | 0 | 0.3000
124.0100 +9.132505E-09 +4.500793E-09 -50.0 -50.0 
16328 | 0 | 0.1300
124.1300 +9.342005E-09 +5.171501E-09 -50.0 -50.0 
16328 | 0 | 0.1200
124.2600 +9.090607E-09 +4.878063E-09 -50.0 -50.0 
16328 | 0 | 0.1300
124.3900 +9.509602E-09 +5.003822E-09 -50.0 -50.0 
TI0.0 | 0 | 0.1300
124.6700 +7.917409E-09 +4.710389E-09 -50.0 -50.0 
16328 | 0 | 0.2800
124.8000 +1.076661E-08 +4.626550E-09 -50.0 -50.0 
16328 | 0 | 0.1300
124.9300 +7.540311E-09 +5.464920E-09 -50.0 -50.0 
16328 | 0 | 0.1300
125.0500 +7.791710E-09 +6.093694E-09 -50.0 -50.0 
16328 | 0 | 0.1200
125.1800 +9.928613E-09 +5.548767E-09 -50.0 -50.0 
TI0.0 | 0 | 0.1300
125.4800 +9.970517E-09 +4.333116E-09 -50.0 -50.0 
16328 | 0 | 0.3000
125.6100 +9.383896E-09 +3.410909E-09 -50.0 -50.0 
16328 | 0 | 0.1300
125.7300 +9.551508E-09 +5.800279E-09 -50.0 -50.0 
16328 | 0 | 0.1200
125.8600 +9.132494E-09 +4.333118E-09 -50.0 -50.0 
16328 | 0 | 0.1300
125.9900 +9.006808E-09 +6.554814E-09 -50.0 -50.0 
16328 | 0 | 0.1300
126.2900 +8.336416E-09 +5.129579E-09 -50.0 -50.0 
16328 | 0 | 0.3000
126.4100 +8.713499E-09 +7.477029E-09 -50.0 -50.0 
16328 | 0 | 0.1200
126.5400 +9.132517E-09 +4.710380E-09 -50.0 -50.0 
16328 | 0 | 0.1300
126.6700 +9.509602E-09 +5.632605E-09 -50.0 -50.0 
TI0.0 | 0 | 0.1300
127.1000 +8.964921E-09 +4.710393E-09 -50.0 -50.0 
16328 | 0 | 0.4300
127.2200 +9.677212E-09 +3.662421E-09 -50.0 -50.0 
16328 | 0 | 0.1200
127.3500 +9.090584E-09 +5.381088E-09 -50.0 -50.0 
16328 | 0 | 0.1300
127.4700 +5.487214E-09 +5.045742E-09 -50.0 -50.0 
16328 | 0 | 0.1200
127.6000 +9.132526E-09 +5.339175E-09 -50.0 -50.0 
TI0.0 | 0 | 0.1300
127.9000 +9.886694E-09 +2.824050E-09 -50.0 -50.0 
16328 | 0 | 0.3000
128.0300 +8.839205E-09 +2.949806E-09 -50.0 -50.0 
16328 | 0 | 0.1300
128.1500 +8.043116E-09 +7.141669E-09 -50.0 -50.0 
16328 | 0 | 0.1200
128.2800 +8.755411E-09 +6.512894E-09 -50.0 -50.0 
16328 | 0 | 0.1300
128.4000 +9.677212E-09 +5.926023E-09 -50.0 -50.0 
TI0.0 | 0 | 0.1200
128.7100 +9.593405E-09 +4.458879E-09 -50.0 -50.0 
16328 | 0 | 0.3100
128.8300 +8.964907E-09 +4.961905E-09 -50.0 -50.0 
16328 | 0 | 0.1200
128.9600 +1.198172E-08 +5.087656E-09 -50.0 -50.0 
16328 | 0 | 0.1300
129.0900 +6.031909E-09 +4.752303E-09 -50.0 -50.0 
16328 | 0 | 0.1300
129.2100 +9.802894E-09 +5.758352E-09 -50.0 -50.0 
TI0.0 | 0 | 0.1200
129.5100 +9.006801E-09 +6.806331E-09 -50.0 -50.0 
16328 | 0 | 0.3000
129.6400 +9.174423E-09 +5.716433E-09 -50.0 -50.0 
16328 | 0 | 0.1300
129.7700 +9.467705E-09 +5.297247E-09 -50.0 -50.0 
16328 | 0 | 0.1300
129.8900 +8.462120E-09 +5.129576E-09 -50.0 -50.0 
16328 | 0 | 0.1200
130.0200 +8.797301E-09 +5.464926E-09 -50.0 -50.0 
16328 | 0 | 0.1300
130.3200 +9.090607E-09 +5.716442E-09 -50.0 -50.0 
16328 | 0 | 0.3000
130.4500 +7.247030E-09 +5.716441E-09 -50.0 -50.0 
16328 | 0 | 0.1300
130.5700 +9.342010E-09 +4.123526E-09 -50.0 -50.0 
16328 | 0 | 0.1200
130.7000 +9.635322E-09 +5.800281E-09 -50.0 -50.0 
TI0.0 | 0 | 0.1300
131.1200 +9.048700E-09 +5.129576E-09 -50.0 -50.0 
16328 | 0 | 0.4200
131.2400 +8.797320E-09 +4.752314E-09 -50.0 -50.0 
16328 | 0 | 0.1200
131.3700 +9.425822E-09 +6.848242E-09 -50.0 -50.0 
16328 | 0 | 0.1300
131.4900 +8.839217E-09 +5.255329E-09 -50.0 -50.0 
16328 | 0 | 0.1200
131.6200 +8.964902E-09 +3.872011E-09 -50.0 -50.0 
TI0.0 | 0 | 0.1300
131.9200 +9.006820E-09 +5.464932E-09 -50.0 -50.0 
16328 | 0 | 0.3000
132.0800 +9.090600E-09 +5.381093E-09 -50.0 -50.0 
16328 | 0 | 0.1600
132.2100 +1.005430E-08 +5.213411E-09 -50.0 -50.0 
16328 | 0 | 0.1300
132.3300 +9.509613E-09 +4.919987E-09 -50.0 -50.0 
16328 | 0 | 0.1200
132.4600 +9.761003E-09 +4.668464E-09 -50.0 -50.0 
TI0.0 | 0 | 0.1300
132.7300 +7.749811E-09 +5.423003E-09 -50.0 -50.0 
16328 | 0 | 0.2700
132.8500 +8.629710E-09 +3.830095E-09 -50.0 -50.0 
16328 | 0 | 0.1200
132.9800 +1.110181E-08 +4.626550E-09 -50.0 -50.0 
16328 | 0 | 0.1300
133.1000 +7.624111E-09 +5.003815E-09 -50.0 -50.0 
16328 | 0 | 0.1200
133.2300 +1.001241E-08 +5.842192E-09 -50.0 -50.0 
TI0.0 | 0 | 0.1300
133.5400 +9.970510E-09 +5.003820E-09 -50.0 -50.0 
16328 | 0 | 0.3100
133.6600 +9.132510E-09 +5.674520E-09 -50.0 -50.0 
16328 | 0 | 0.1200
133.7900 +9.132515E-09 +4.919979E-09 -50.0 -50.0 
16328 | 0 | 0.1300
133.9100 +9.174411E-09 +5.045735E-09 -50.0 -50.0 
16328 | 0 | 0.1200
134.0500 +9.509597E-09 +4.542717E-09 -50.0 -50.0 
TI0.0 | 0 | 0.1400
134.3500 +9.174407E-09 +5.171492E-09 -50.0 -50.0 
16328 | 0 | 0.3000
134.4700 +9.719109E-09 +5.339167E-09 -50.0 -50.0 
16328 | 0 | 0.1200
134.5900 +9.593405E-09 +1.985677E-09 -50.0 -50.0 
16328 | 0 | 0.1200
134.7200 +8.881113E-09 +6.764411E-09 -50.0 -50.0 
16328 | 0 | 0.1300
134.8400 +8.503998E-09 +2.446787E-09 -50.0 -50.0 
16328 | 0 | 0.1200
135.1500 +1.076660E-08 +6.093710E-09 -50.0 -50.0 
16328 | 0 | 0.3100
135.2700 +8.755405E-09 +4.794231E-09 -50.0 -50.0 
16328 | 0 | 0.1200
135.4000 +1.022191E-08 +4.249284E-09 -50.0 -50.0 
16328 | 0 | 0.1300
135.5300 +8.587806E-09 +5.800265E-09 -50.0 -50.0 
TI0.0 | 0 | 0.1300
135.9400 +8.839205E-09 +4.794221E-09 -50.0 -50.0 
16328 | 0 | 0.4100
136.0600 +9.928620E-09 +5.506844E-09 -50.0 -50.0 
16328 | 0 | 0.1200
136.1900 +8.629693E-09 +2.991726E-09 -50.0 -50.0 
16328 | 0 | 0.1300
136.3100 +8.713505E-09 +5.423009E-09 -50.0 -50.0 
16328 | 0 | 0.1200
136.4400 +8.964918E-09 +5.255337E-09 -50.0 -50.0 
TI0.0 | 0 | 0.1300
136.7500 +9.383896E-09 +4.836147E-09 -50.0 -50.0 
16328 | 0 | 0.3100
136.8700 +9.593396E-09 +5.213409E-09 -50.0 -50.0 
16328 | 0 | 0.1200
137.0000 +9.677205E-09 +4.961900E-09 -50.0 -50.0 
16328 | 0 | 0.1300
137.1200 +8.126923E-09 +6.429062E-09 -50.0 -50.0 
16328 | 0 | 0.1200
137.2500 +8.923017E-09 +5.255334E-09 -50.0 -50.0 
TI0.0 | 0 | 0.1300
137.5600 +9.886707E-09 +6.512888E-09 -50.0 -50.0 
16328 | 0 | 0.3100
137.6800 +8.168824E-09 +5.171493E-09 -50.0 -50.0 
16328 | 0 | 0.1200
137.8200 +9.970512E-09 +5.716430E-09 -50.0 -50.0 
16328 | 0 | 0.1400
137.9500 +5.152005E-09 +5.758358E-09 -50.0 -50.0 
16328 | 0 | 0.1300
138.0700 +9.383919E-09 +5.926032E-09 -50.0 -50.0 
TI0.0 | 0 | 0.1200
138.3600 +9.090632E-09 +4.668469E-09 -50.0 -50.0 
16328 | 0 | 0.2900
138.4800 +8.420205E-09 +5.339171E-09 -50.0 -50.0 
16328 | 0 | 0.1200
138.6100 +9.342008E-09 +7.728541E-09 -50.0 -50.0 
16328 | 0 | 0.1300
138.7400 +9.425802E-09 +6.219460E-09 -50.0 -50.0 
16328 | 0 | 0.1300
138.8600 +8.881095E-09 +2.111431E-09 -50.0 -50.0 
TI0.0 | 0 | 0.1200
139.9900 +1.022191E-08 +4.500794E-09 -50.0 -50.0 
16328 | 0 | 1.1300
140.1300 +8.085010E-09 +4.668473E-09 -50.0 -50.0 
16328 | 0 | 0.1400
140.2700 +8.964912E-09 +5.339170E-09 -50.0 -50.0 
TI0.0 | 0 | 0.1400
140.7800 +1.022191E-08 +6.177544E-09 -50.0 -50.0 
16328 | 0 | 0.5100
140.9000 +8.587806E-09 +5.716442E-09 -50.0 -50.0 
16328 | 0 | 0.1200
141.0300 +8.629710E-09 +5.003820E-09 -50.0 -50.0 
16328 | 0 | 0.1300
141.1500 +9.300114E-09 +5.087661E-09 -50.0 -50.0 
TI0.0 | 0 | 0.1200
141.5900 +1.059899E-08 +4.836141E-09 -50.0 -50.0 
16328 | 0 | 0.4400
141.7100 +8.378297E-09 +5.381091E-09 -50.0 -50.0 
16328 | 0 | 0.1200
141.8300 +1.051521E-08 +5.464928E-09 -50.0 -50.0 
16328 | 0 | 0.1200
141.9600 +9.383907E-09 +5.967950E-09 -50.0 -50.0 
16328 | 0 | 0.1300
142.0800 +8.378315E-09 +3.159402E-09 -50.0 -50.0 
TI0.0 | 0 | 0.1200
142.4000 +8.001209E-09 +4.752314E-09 -50.0 -50.0 
16328 | 0 | 0.3200
142.5200 +1.013811E-08 +4.961902E-09 -50.0 -50.0 
16328 | 0 | 0.1200
142.6400 +8.839192E-09 +4.961900E-09 -50.0 -50.0 
16328 | 0 | 0.1200
142.7700 +9.383911E-09 +5.381090E-09 -