#-------------- Creating on pcbutt163 @ 2019-02-04 18:04:21.563562
# INIT TIME STEP TEST ..................................................  
# VDS       : -60.0 	 Current compliance 0.001
# VGS       : -60.0 	 Current compliance 0.001
# NPLC      : 1.0
# DELETE    : 0.0
# pozycja poczatkowa szhuttera: 0 keep open 0 before measurmeents
# :: ----------------------------------- TIME --------------------------------------
# ::     Time 	 IDS 	 IGS 	 VDS 	 VGS 	 XPIN 	 | Shutter | 	 Delta Time	     
# :: -------------------------------------------------------------------------------
#------ comments: init_log
0.2608 -1.238192E-06 -5.990669E-07 -60.0 -60.0 TI0.0 | 0 | 0.2608
0.3868 -1.688868E-06 -3.097964E-07 -60.0 -60.0 
16328 | 0 | 0.1260
0.5127 -1.994824E-06 -1.865423E-07 -60.0 -60.0 
16328 | 0 | 0.1259
0.6377 -2.221628E-06 -1.361085E-07 -60.0 -60.0 
16328 | 0 | 0.1250
0.7637 -2.403098E-06 -1.059657E-07 -60.0 -60.0 
TI0.0 | 0 | 0.1260
1.0831 -2.766499E-06 -7.473285E-08 -60.0 -60.0 
16328 | 0 | 0.3194
1.2081 -2.894001E-06 -6.919898E-08 -60.0 -60.0 
16328 | 0 | 0.1250
1.3340 -3.018611E-06 -6.597094E-08 -60.0 -60.0 
16328 | 0 | 0.1259
1.4600 -3.137019E-06 -6.198820E-08 -60.0 -60.0 
16328 | 0 | 0.1260
1.5860 -3.253253E-06 -5.746053E-08 -60.0 -60.0 
16328 | 0 | 0.1260
1.8897 -3.512947E-06 -4.806969E-08 -60.0 -60.0 
16328 | 0 | 0.3037
2.0137 -3.609946E-06 -4.576390E-08 -60.0 -60.0 
16328 | 0 | 0.1240
2.1397 -3.700243E-06 -3.947545E-08 -60.0 -60.0 
16328 | 0 | 0.1260
2.2657 -3.782786E-06 -3.348040E-08 -60.0 -60.0 
TI0.0 | 0 | 0.1260
2.6983 -3.833275E-06 +3.536628E-09 -60.0 -60.0 
16328 | 0 | 0.4326
2.8213 -3.828626E-06 +3.285116E-09 -60.0 -60.0 
16328 | 0 | 0.1230
2.9483 -3.823431E-06 +4.836108E-09 -60.0 -60.0 
16328 | 0 | 0.1270
3.0743 -3.819826E-06 +4.961859E-09 -60.0 -60.0 
16328 | 0 | 0.1260
3.2002 -3.815427E-06 +5.129539E-09 -60.0 -60.0 
TI0.0 | 0 | 0.1259
3.5040 -3.806083E-06 +4.165405E-09 -60.0 -60.0 
16328 | 0 | 0.3038
3.6270 -3.801808E-06 +4.542671E-09 -60.0 -60.0 
16328 | 0 | 0.1230
3.7540 -3.798163E-06 +5.297210E-09 -60.0 -60.0 
16328 | 0 | 0.1270
3.8790 -3.796487E-06 +3.578547E-09 -60.0 -60.0 
16328 | 0 | 0.1250
4.0049 -3.793471E-06 +3.830061E-09 -60.0 -60.0 
TI0.0 | 0 | 0.1259
4.2950 -3.785216E-06 +3.913894E-09 -60.0 -60.0 
16328 | 0 | 0.2901
4.4170 -3.783877E-06 +4.752267E-09 -60.0 -60.0 
16328 | 0 | 0.1220
4.5420 -3.780897E-06 +3.620462E-09 -60.0 -60.0 
16328 | 0 | 0.1250
4.6680 -3.778344E-06 +4.375001E-09 -60.0 -60.0 
16328 | 0 | 0.1260
4.7930 -3.775580E-06 +5.548723E-09 -60.0 -60.0 
TI0.0 | 0 | 0.1250
5.0977 -3.769464E-06 +5.213380E-09 -60.0 -60.0 
16328 | 0 | 0.3047
5.2208 -3.767283E-06 +3.662380E-09 -60.0 -60.0 
16328 | 0 | 0.1231
5.3467 -3.764811E-06 +5.171450E-09 -60.0 -60.0 
16328 | 0 | 0.1259
5.4727 -3.763176E-06 +5.129530E-09 -60.0 -60.0 
16328 | 0 | 0.1260
5.5987 -3.760622E-06 +4.794187E-09 -60.0 -60.0 
16328 | 0 | 0.1260
5.9043 -3.754502E-06 +5.129530E-09 -60.0 -60.0 
16328 | 0 | 0.3056
6.0274 -3.752577E-06 +5.800231E-09 -60.0 -60.0 
16328 | 0 | 0.1231
6.1534 -3.750649E-06 +3.997735E-09 -60.0 -60.0 
16328 | 0 | 0.1260
6.2793 -3.748513E-06 +4.039641E-09 -60.0 -60.0 
TI0.0 | 0 | 0.1259
6.7129 -3.743736E-06 +5.255292E-09 -60.0 -60.0 
16328 | 0 | 0.4336
6.8350 -3.741767E-06 +5.548724E-09 -60.0 -60.0 
16328 | 0 | 0.1221
6.9610 -3.738582E-06 +5.087607E-09 -60.0 -60.0 
16328 | 0 | 0.1260
7.0870 -3.737532E-06 +3.368951E-09 -60.0 -60.0 
16328 | 0 | 0.1260
7.2139 -3.735691E-06 +5.381050E-09 -60.0 -60.0 
TI0.0 | 0 | 0.1269
7.5196 -3.731709E-06 +4.710348E-09 -60.0 -60.0 
16328 | 0 | 0.3057
7.6416 -3.730242E-06 +5.087617E-09 -60.0 -60.0 
16328 | 0 | 0.1220
7.7676 -3.728316E-06 +4.878023E-09 -60.0 -60.0 
16328 | 0 | 0.1260
7.8936 -3.727017E-06 +5.422962E-09 -60.0 -60.0 
16328 | 0 | 0.1260
8.0196 -3.724418E-06 +4.836100E-09 -60.0 -60.0 
TI0.0 | 0 | 0.1260
8.3262 -3.720774E-06 +4.207327E-09 -60.0 -60.0 
16328 | 0 | 0.3066
8.4473 -3.719599E-06 +5.674471E-09 -60.0 -60.0 
16328 | 0 | 0.1211
8.5723 -3.718889E-06 +5.129538E-09 -60.0 -60.0 
16328 | 0 | 0.1250
8.6973 -3.718678E-06 +5.422965E-09 -60.0 -60.0 
16328 | 0 | 0.1250
8.8223 -3.716208E-06 +4.123487E-09 -60.0 -60.0 
TI0.0 | 0 | 0.1250
9.1290 -3.712394E-06 +4.878029E-09 -60.0 -60.0 
16328 | 0 | 0.3067
9.2530 -3.711179E-06 +3.997733E-09 -60.0 -60.0 
16328 | 0 | 0.1240
9.3760 -3.709753E-06 +4.542671E-09 -60.0 -60.0 
16328 | 0 | 0.1230
9.5020 -3.708289E-06 +4.794185E-09 -60.0 -60.0 
16328 | 0 | 0.1260
9.6280 -3.707408E-06 +4.626508E-09 -60.0 -60.0 
16328 | 0 | 0.1260
9.9356 -3.704265E-06 +4.333080E-09 -60.0 -60.0 
16328 | 0 | 0.3076
10.0567 -3.702592E-06 +4.374997E-09 -60.0 -60.0 
16328 | 0 | 0.1211
10.1827 -3.700829E-06 +3.662387E-09 -60.0 -60.0 
16328 | 0 | 0.1260
10.3086 -3.699739E-06 +5.716386E-09 -60.0 -60.0 
TI0.0 | 0 | 0.1259
10.7276 -3.696097E-06 +4.836103E-09 -60.0 -60.0 
16328 | 0 | 0.4190
10.8487 -3.694920E-06 +5.842154E-09 -60.0 -60.0 
16328 | 0 | 0.1211
10.9747 -3.694250E-06 +3.536627E-09 -60.0 -60.0 
16328 | 0 | 0.1260
11.1006 -3.693118E-06 +6.177498E-09 -60.0 -60.0 
16328 | 0 | 0.1259
11.2266 -3.692324E-06 +5.716386E-09 -60.0 -60.0 
TI0.0 | 0 | 0.1260
11.5342 -3.688510E-06 +6.093656E-09 -60.0 -60.0 
16328 | 0 | 0.3076
11.6553 -3.687628E-06 +5.213371E-09 -60.0 -60.0 
16328 | 0 | 0.1211
11.7793 -3.686502E-06 +4.291174E-09 -60.0 -60.0 
16328 | 0 | 0.1240
11.9053 -3.685073E-06 +4.123482E-09 -60.0 -60.0 
16328 | 0 | 0.1260
12.0323 -3.682979E-06 +6.051748E-09 -60.0 -60.0 
TI0.0 | 0 | 0.1270
12.3399 -3.682601E-06 +4.626505E-09 -60.0 -60.0 
16328 | 0 | 0.3076
12.4600 -3.681721E-06 +4.626508E-09 -60.0 -60.0 
16328 | 0 | 0.1201
12.5860 -3.679711E-06 +4.165405E-09 -60.0 -60.0 
16328 | 0 | 0.1260
12.7120 -3.678539E-06 +4.752265E-09 -60.0 -60.0 
16328 | 0 | 0.1260
12.8379 -3.677782E-06 +3.662387E-09 -60.0 -60.0 
TI0.0 | 0 | 0.1259
13.1456 -3.675477E-06 +3.285116E-09 -60.0 -60.0 
16328 | 0 | 0.3077
13.2647 -3.674264E-06 +3.871982E-09 -60.0 -60.0 
16328 | 0 | 0.1191
13.3897 -3.673677E-06 +6.051739E-09 -60.0 -60.0 
16328 | 0 | 0.1250
13.5157 -3.672505E-06 +5.255295E-09 -60.0 -60.0 
16328 | 0 | 0.1260
13.6417 -3.671248E-06 +3.955811E-09 -60.0 -60.0 
TI0.0 | 0 | 0.1260
13.9493 -3.668189E-06 +5.213363E-09 -60.0 -60.0 
16328 | 0 | 0.3076
14.0684 -3.667770E-06 +4.626505E-09 -60.0 -60.0 
16328 | 0 | 0.1191
14.1954 -3.667226E-06 +4.165395E-09 -60.0 -60.0 
16328 | 0 | 0.1270
14.3204 -3.666178E-06 +5.003773E-09 -60.0 -60.0 
16328 | 0 | 0.1250
14.4463 -3.665549E-06 +5.129535E-09 -60.0 -60.0 
16328 | 0 | 0.1259
14.7549 -3.662490E-06 +5.632563E-09 -60.0 -60.0 
16328 | 0 | 0.3086
14.8741 -3.662071E-06 +5.590630E-09 -60.0 -60.0 
16328 | 0 | 0.1192
15.0010 -3.661781E-06 +4.416921E-09 -60.0 -60.0 
16328 | 0 | 0.1269
15.1260 -3.659475E-06 +4.249244E-09 -60.0 -60.0 
TI0.0 | 0 | 0.1250
15.5479 -3.657335E-06 +5.590638E-09 -60.0 -60.0 
16328 | 0 | 0.4219
15.6670 -3.655955E-06 +5.464880E-09 -60.0 -60.0 
16328 | 0 | 0.1191
15.7930 -3.655075E-06 +5.716391E-09 -60.0 -60.0 
16328 | 0 | 0.1260
15.9190 -3.654196E-06 +4.794187E-09 -60.0 -60.0 
16328 | 0 | 0.1260
16.0450 -3.653190E-06 +4.836102E-09 -60.0 -60.0 
TI0.0 | 0 | 0.1260
16.3545 -3.651223E-06 +5.506804E-09 -60.0 -60.0 
16328 | 0 | 0.3095
16.4727 -3.650425E-06 +5.255288E-09 -60.0 -60.0 
16328 | 0 | 0.1182
16.5987 -3.649293E-06 +4.668426E-09 -60.0 -60.0 
16328 | 0 | 0.1260
16.7247 -3.648287E-06 +5.297206E-09 -60.0 -60.0 
16328 | 0 | 0.1260
16.8506 -3.647948E-06 +3.913896E-09 -60.0 -60.0 
TI0.0 | 0 | 0.1259
17.1602 -3.645941E-06 +5.255281E-09 -60.0 -60.0 
16328 | 0 | 0.3096
17.2793 -3.645521E-06 +5.087611E-09 -60.0 -60.0 
16328 | 0 | 0.1191
17.4043 -3.644181E-06 +5.590636E-09 -60.0 -60.0 
16328 | 0 | 0.1250
17.5303 -3.642672E-06 +5.758301E-09 -60.0 -60.0 
16328 | 0 | 0.1260
17.6563 -3.642126E-06 +4.961852E-09 -60.0 -60.0 
TI0.0 | 0 | 0.1260
17.9659 -3.640491E-06 +5.548724E-09 -60.0 -60.0 
16328 | 0 | 0.3096
18.0840 -3.639488E-06 +5.381041E-09 -60.0 -60.0 
16328 | 0 | 0.1181
18.2100 -3.639154E-06 +4.123490E-09 -60.0 -60.0 
16328 | 0 | 0.1260
18.3360 -3.638484E-06 +3.913891E-09 -60.0 -60.0 
16328 | 0 | 0.1260
18.4620 -3.636805E-06 +4.710344E-09 -60.0 -60.0 
16328 | 0 | 0.1260
18.7725 -3.635341E-06 +5.339124E-09 -60.0 -60.0 
16328 | 0 | 0.3105
18.8907 -3.634334E-06 +5.422965E-09 -60.0 -60.0 
16328 | 0 | 0.1182
19.0157 -3.634163E-06 +5.297205E-09 -60.0 -60.0 
16328 | 0 | 0.1250
19.1417 -3.633413E-06 +4.123486E-09 -60.0 -60.0 
TI0.0 | 0 | 0.1260
19.5801 -3.630855E-06 +5.381051E-09 -60.0 -60.0 
16328 | 0 | 0.4384
19.6973 -3.628802E-06 +5.967906E-09 -60.0 -60.0 
16328 | 0 | 0.1172
19.8233 -3.629473E-06 +5.884063E-09 -60.0 -60.0 
16328 | 0 | 0.1260
19.9493 -3.626793E-06 +5.506797E-09 -60.0 -60.0 
16328 | 0 | 0.1260
20.0762 -3.627922E-06 +5.590636E-09 -60.0 -60.0 
TI0.0 | 0 | 0.1269
20.3868 -3.624861E-06 +5.506798E-09 -60.0 -60.0 
16328 | 0 | 0.3106
20.5040 -3.624908E-06 +4.668427E-09 -60.0 -60.0 
16328 | 0 | 0.1172
20.6329 -3.624403E-06 +4.500746E-09 -60.0 -60.0 
16328 | 0 | 0.1289
20.7559 -3.623479E-06 +4.878006E-09 -60.0 -60.0 
16328 | 0 | 0.1230
20.8819 -3.622560E-06 +3.830059E-09 -60.0 -60.0 
TI0.0 | 0 | 0.1260
21.1934 -3.621471E-06 +4.710341E-09 -60.0 -60.0 
16328 | 0 | 0.3115
21.3096 -3.620169E-06 +5.297212E-09 -60.0 -60.0 
16328 | 0 | 0.1162
21.4366 -3.619209E-06 +4.836094E-09 -60.0 -60.0 
16328 | 0 | 0.1270
21.5625 -3.618747E-06 +3.997735E-09 -60.0 -60.0 
16328 | 0 | 0.1259
21.6885 -3.617283E-06 +5.129527E-09 -60.0 -60.0 
TI0.0 | 0 | 0.1260
21.9834 -3.616442E-06 +5.884063E-09 -60.0 -60.0 
16328 | 0 | 0.2949
22.1006 -3.615772E-06 +5.464880E-09 -60.0 -60.0 
16328 | 0 | 0.1172
22.2266 -3.614974E-06 +4.375001E-09 -60.0 -60.0 
16328 | 0 | 0.1260
22.3526 -3.615184E-06 +5.381038E-09 -60.0 -60.0 
16328 | 0 | 0.1260
22.4903 -3.612211E-06 +4.249255E-09 -60.0 -60.0 
TI0.0 | 0 | 0.1377
22.7901 -3.612129E-06 +3.788130E-09 -60.0 -60.0 
16328 | 0 | 0.2998
22.9063 -3.611288E-06 +5.674469E-09 -60.0 -60.0 
16328 | 0 | 0.1162
23.0313 -3.610073E-06 +4.123490E-09 -60.0 -60.0 
16328 | 0 | 0.1250
23.1573 -3.610284E-06 +4.207329E-09 -60.0 -60.0 
16328 | 0 | 0.1260
23.2833 -3.609990E-06 +4.878024E-09 -60.0 -60.0 
16328 | 0 | 0.1260
23.5958 -3.607266E-06 +5.129526E-09 -60.0 -60.0 
16328 | 0 | 0.3125
23.7120 -3.607476E-06 +5.422962E-09 -60.0 -60.0 
16328 | 0 | 0.1162
23.8379 -3.606555E-06 +4.961858E-09 -60.0 -60.0 
16328 | 0 | 0.1259
23.9639 -3.605467E-06 +5.339124E-09 -60.0 -60.0 
TI0.0 | 0 | 0.1260
24.4043 -3.604122E-06 +6.303242E-09 -60.0 -60.0 
16328 | 0 | 0.4404
24.5196 -3.603116E-06 +5.632556E-09 -60.0 -60.0 
16328 | 0 | 0.1153
24.6456 -3.602489E-06 +3.788134E-09 -60.0 -60.0 
16328 | 0 | 0.1260
24.7715 -3.602196E-06 +3.536631E-09 -60.0 -60.0 
16328 | 0 | 0.1259
24.8985 -3.601818E-06 +6.009825E-09 -60.0 -60.0 
TI0.0 | 0 | 0.1270
25.2110 -3.599391E-06 +5.045703E-09 -60.0 -60.0 
16328 | 0 | 0.3125
25.3262 -3.598677E-06 +5.045703E-09 -60.0 -60.0 
16328 | 0 | 0.1152
25.4522 -3.598133E-06 +4.500754E-09 -60.0 -60.0 
16328 | 0 | 0.1260
25.5782 -3.598136E-06 +5.003780E-09 -60.0 -60.0 
16328 | 0 | 0.1260
25.7042 -3.597963E-06 +4.458832E-09 -60.0 -60.0 
TI0.0 | 0 | 0.1260
26.0176 -3.595537E-06 +4.039650E-09 -60.0 -60.0 
16328 | 0 | 0.3134
26.1309 -3.594360E-06 +5.381039E-09 -60.0 -60.0 
16328 | 0 | 0.1133
26.2579 -3.593816E-06 +4.291165E-09 -60.0 -60.0 
16328 | 0 | 0.1270
26.3838 -3.594110E-06 +6.303245E-09 -60.0 -60.0 
16328 | 0 | 0.1259
26.5088 -3.593860E-06 +4.207327E-09 -60.0 -60.0 
TI0.0 | 0 | 0.1250
26.8204 -3.591930E-06 +5.464883E-09 -60.0 -60.0 
16328 | 0 | 0.3116
26.9366 -3.591007E-06 +5.674474E-09 -60.0 -60.0 
16328 | 0 | 0.1162
27.0606 -3.590634E-06 +4.836100E-09 -60.0 -60.0 
16328 | 0 | 0.1240
27.1875 -3.589586E-06 +5.884067E-09 -60.0 -60.0 
16328 | 0 | 0.1269
27.3125 -3.589252E-06 +5.464879E-09 -60.0 -60.0 
16328 | 0 | 0.1250
27.6260 -3.588163E-06 +5.171455E-09 -60.0 -60.0 
16328 | 0 | 0.3135
27.7413 -3.587490E-06 +5.213368E-09 -60.0 -60.0 
16328 | 0 | 0.1153
27.8672 -3.586693E-06 +5.255288E-09 -60.0 -60.0 
16328 | 0 | 0.1259
27.9932 -3.585102E-06 +4.626508E-09 -60.0 -60.0 
TI0.0 | 0 | 0.1260
28.4190 -3.583594E-06 +3.955815E-09 -60.0 -60.0 
16328 | 0 | 0.4258
28.5333 -3.583676E-06 +4.291161E-09 -60.0 -60.0 
16328 | 0 | 0.1143
28.6592 -3.583970E-06 +3.368953E-09 -60.0 -60.0 
16328 | 0 | 0.1259
28.7852 -3.581373E-06 +5.381045E-09 -60.0 -60.0 
16328 | 0 | 0.1260
28.9112 -3.581622E-06 +4.542674E-09 -60.0 -60.0 
TI0.0 | 0 | 0.1260
29.2256 -3.580282E-06 +5.171451E-09 -60.0 -60.0 
16328 | 0 | 0.3144
29.3389 -3.580031E-06 +5.842150E-09 -60.0 -60.0 
16328 | 0 | 0.1133
29.4649 -3.579528E-06 +6.429019E-09 -60.0 -60.0 
16328 | 0 | 0.1260
29.5909 -3.579065E-06 +5.381039E-09 -60.0 -60.0 
16328 | 0 | 0.1260
29.7178 -3.578061E-06 +5.297201E-09 -60.0 -60.0 
TI0.0 | 0 | 0.1269
30.0313 -3.576387E-06 +5.716391E-09 -60.0 -60.0 
16328 | 0 | 0.3135
30.1456 -3.576344E-06 +4.416917E-09 -60.0 -60.0 
16328 | 0 | 0.1143
30.2715 -3.576008E-06 +4.416912E-09 -60.0 -60.0 
16328 | 0 | 0.1259
30.3985 -3.574585E-06 +4.333080E-09 -60.0 -60.0 
16328 | 0 | 0.1270
30.5245 -3.574415E-06 +4.123491E-09 -60.0 -60.0 
TI0.0 | 0 | 0.1260
30.8389 -3.573036E-06 +6.219415E-09 -60.0 -60.0 
16328 | 0 | 0.3144
30.9522 -3.573578E-06 +3.913891E-09 -60.0 -60.0 
16328 | 0 | 0.1133
31.0782 -3.571483E-06 +3.830062E-09 -60.0 -60.0 
16328 | 0 | 0.1260
31.2041 -3.572197E-06 +4.919930E-09 -60.0 -60.0 
16328 | 0 | 0.1259
31.3301 -3.570017E-06 +5.255292E-09 -60.0 -60.0 
16328 | 0 | 0.1260
31.6436 -3.570141E-06 +4.710348E-09 -60.0 -60.0 
16328 | 0 | 0.3135
31.7569 -3.568678E-06 +5.967906E-09 -60.0 -60.0 
16328 | 0 | 0.1133
31.8829 -3.569219E-06 +5.506791E-09 -60.0 -60.0 
16328 | 0 | 0.1260
32.0088 -3.567670E-06 +4.794185E-09 -60.0 -60.0 
TI0.0 | 0 | 0.1259
32.4522 -3.566037E-06 +6.219415E-09 -60.0 -60.0 
16328 | 0 | 0.4434
32.5645 -3.566246E-06 +4.291165E-09 -60.0 -60.0 
16328 | 0 | 0.1123
32.6915 -3.565703E-06 +5.842147E-09 -60.0 -60.0 
16328 | 0 | 0.1270
32.8174 -3.564277E-06 +5.171460E-09 -60.0 -60.0 
16328 | 0 | 0.1259
32.9424 -3.564276E-06 +5.506803E-09 -60.0 -60.0 
TI0.0 | 0 | 0.1250
33.2422 -3.562812E-06 +5.758312E-09 -60.0 -60.0 
16328 | 0 | 0.2998
33.3702 -3.562938E-06 +4.081570E-09 -60.0 -60.0 
16328 | 0 | 0.1280
33.4971 -3.561677E-06 +3.327036E-09 -60.0 -60.0 
16328 | 0 | 0.1269
33.6231 -3.561553E-06 +5.884070E-09 -60.0 -60.0 
16328 | 0 | 0.1260
33.7491 -3.561260E-06 +4.458838E-09 -60.0 -60.0 
TI0.0 | 0 | 0.1260
34.0489 -3.559794E-06 +4.333079E-09 -60.0 -60.0 
16328 | 0 | 0.2998
34.1768 -3.559079E-06 +5.506795E-09 -60.0 -60.0 
16328 | 0 | 0.1279
34.3038 -3.558494E-06 +3.704297E-09 -60.0 -60.0 
16328 | 0 | 0.1270
34.4297 -3.558369E-06 +5.716389E-09 -60.0 -60.0 
16328 | 0 | 0.1259
34.5557 -3.557027E-06 +5.381041E-09 -60.0 -60.0 
TI0.0 | 0 | 0.1260
34.8545 -3.556861E-06 +4.249244E-09 -60.0 -60.0 
16328 | 0 | 0.2988
34.9825 -3.554935E-06 +5.674473E-09 -60.0 -60.0 
16328 | 0 | 0.1280
35.1094 -3.555269E-06 +4.458838E-09 -60.0 -60.0 
16328 | 0 | 0.1269
35.2364 -3.554054E-06 +6.512850E-09 -60.0 -60.0 
16328 | 0 | 0.1270
35.3614 -3.554055E-06 +3.494712E-09 -60.0 -60.0 
TI0.0 | 0 | 0.1250
35.6612 -3.552795E-06 +5.003781E-09 -60.0 -60.0 
16328 | 0 | 0.2998
35.7891 -3.551917E-06 +5.632559E-09 -60.0 -60.0 
16328 | 0 | 0.1279
35.9151 -3.551288E-06 +3.955815E-09 -60.0 -60.0 
16328 | 0 | 0.1260
36.0420 -3.551956E-06 +4.919936E-09 -60.0 -60.0 
16328 | 0 | 0.1269
36.1670 -3.551244E-06 +4.836107E-09 -60.0 -60.0 
16328 | 0 | 0.1250
36.4678 -3.549822E-06 +4.919939E-09 -60.0 -60.0 
16328 | 0 | 0.3008
36.5948 -3.549278E-06 +4.919942E-09 -60.0 -60.0 
16328 | 0 | 0.1270
36.7208 -3.547810E-06 +4.710350E-09 -60.0 -60.0 
16328 | 0 | 0.1260
36.8477 -3.548227E-06 +4.249244E-09 -60.0 -60.0 
TI0.0 | 0 | 0.1269
37.2764 -3.545673E-06 +4.919939E-09 -60.0 -60.0 
16328 | 0 | 0.4287
37.4034 -3.545590E-06 +6.596689E-09 -60.0 -60.0 
16328 | 0 | 0.1270
37.5293 -3.545003E-06 +3.788139E-09 -60.0 -60.0 
16328 | 0 | 0.1259
37.6553 -3.543995E-06 +4.039656E-09 -60.0 -60.0 
16328 | 0 | 0.1260
37.7803 -3.545003E-06 +3.117437E-09 -60.0 -60.0 
TI0.0 | 0 | 0.1250
38.0821 -3.543831E-06 +5.422960E-09 -60.0 -60.0 
16328 | 0 | 0.3018
38.2081 -3.543243E-06 +5.213374E-09 -60.0 -60.0 
16328 | 0 | 0.1260
38.3340 -3.543119E-06 +5.213370E-09 -60.0 -60.0 
16328 | 0 | 0.1259
38.4610 -3.541734E-06 +5.925989E-09 -60.0 -60.0 
16328 | 0 | 0.1270
38.5860 -3.541734E-06 +5.171456E-09 -60.0 -60.0 
TI0.0 | 0 | 0.1250
38.8887 -3.540771E-06 +5.548723E-09 -60.0 -60.0 
16328 | 0 | 0.3027
39.0147 -3.540101E-06 +4.878018E-09 -60.0 -60.0 
16328 | 0 | 0.1260
39.1407 -3.538885E-06 +4.081564E-09 -60.0 -60.0 
16328 | 0 | 0.1260
39.2901 -3.539262E-06 +4.878020E-09 -60.0 -60.0 
16328 | 0 | 0.1494
39.4444 -3.538424E-06 +3.997732E-09 -60.0 -60.0 
TI0.0 | 0 | 0.1543
39.7266 -3.537211E-06 +4.626509E-09 -60.0 -60.0 
16328 | 0 | 0.2822
39.8799 -3.537670E-06 +5.842151E-09 -60.0 -60.0 
16328 | 0 | 0.1533
40.0264 -3.536038E-06 +4.584595E-09 -60.0 -60.0 
16328 | 0 | 0.1465
40.1915 -3.535617E-06 +3.830062E-09 -60.0 -60.0 
16328 | 0 | 0.1651
40.5333 -3.534986E-06 +6.051739E-09 -60.0 -60.0 
16328 | 0 | 0.3418
40.6993 -3.533985E-06 +4.249242E-09 -60.0 -60.0 
16328 | 0 | 0.1660
40.8536 -3.533312E-06 +5.087611E-09 -60.0 -60.0 
TI0.0 | 0 | 0.1543
41.3399 -3.530422E-06 +5.925986E-09 -60.0 -60.0 
16328 | 0 | 0.4863
41.4854 -3.531679E-06 +4.039650E-09 -60.0 -60.0 
16328 | 0 | 0.1455
41.6446 -3.529962E-06 +6.093665E-09 -60.0 -60.0 
16328 | 0 | 0.1592
41.7969 -3.530380E-06 +4.794179E-09 -60.0 -60.0 
TI0.0 | 0 | 0.1523
42.1387 -3.528955E-06 +4.291165E-09 -60.0 -60.0 
16328 | 0 | 0.3418
42.2999 -3.528622E-06 +6.219424E-09 -60.0 -60.0 
16328 | 0 | 0.1612
42.4581 -3.527445E-06 +5.045701E-09 -60.0 -60.0 
16328 | 0 | 0.1582
42.6114 -3.527234E-06 +4.878020E-09 -60.0 -60.0 
TI0.0 | 0 | 0.1533
42.9473 -3.525979E-06 +4.794189E-09 -60.0 -60.0 
16328 | 0 | 0.3359
43.0977 -3.526524E-06 +5.506800E-09 -60.0 -60.0 
16328 | 0 | 0.1504
43.2422 -3.524596E-06 +5.003770E-09 -60.0 -60.0 
16328 | 0 | 0.1445
43.4063 -3.524389E-06 +6.093666E-09 -60.0 -60.0 
TI0.0 | 0 | 0.1641
43.7500 -3.523299E-06 +4.500753E-09 -60.0 -60.0 
16328 | 0 | 0.3437
43.9200 -3.522963E-06 +5.967904E-09 -60.0 -60.0 
16328 | 0 | 0.1700
44.0342 -3.520657E-06 +5.003774E-09 -60.0 -60.0 
16328 | 0 | 0.1142
44.1602 -3.520952E-06 +5.045692E-09 -60.0 -60.0 
16328 | 0 | 0.1260
44.5284 -3.519819E-06 +5.674477E-09 -60.0 -60.0 
16328 | 0 | 0.3682
44.6534 -3.518900E-06 +3.830055E-09 -60.0 -60.0 
16328 | 0 | 0.1250
44.7784 -3.519107E-06 +4.207329E-09 -60.0 -60.0 
16328 | 0 | 0.1250
44.9053 -3.518061E-06 +4.458835E-09 -60.0 -60.0 
TI0.0 | 0 | 0.1269
45.3204 -3.517139E-06 +4.333086E-09 -60.0 -60.0 
16328 | 0 | 0.4151
45.4454 -3.516513E-06 +5.129540E-09 -60.0 -60.0 
16328 | 0 | 0.1250
45.5713 -3.516134E-06 +4.333080E-09 -60.0 -60.0 
16328 | 0 | 0.1259
45.6973 -3.515172E-06 +5.381049E-09 -60.0 -60.0 
16328 | 0 | 0.1260
45.8233 -3.514836E-06 +4.710348E-09 -60.0 -60.0 
TI0.0 | 0 | 0.1260
46.1260 -3.514413E-06 +5.422956E-09 -60.0 -60.0 
16328 | 0 | 0.3027
46.2500 -3.514288E-06 +4.249244E-09 -60.0 -60.0 
16328 | 0 | 0.1240
46.3760 -3.512741E-06 +4.165403E-09 -60.0 -60.0 
16328 | 0 | 0.1260
46.5020 -3.513283E-06 +5.381041E-09 -60.0 -60.0 
16328 | 0 | 0.1260
46.6280 -3.512697E-06 +4.291165E-09 -60.0 -60.0 
TI0.0 | 0 | 0.1260
46.9327 -3.512739E-06 +4.668427E-09 -60.0 -60.0 
16328 | 0 | 0.3047
47.0577 -3.511651E-06 +3.536631E-09 -60.0 -60.0 
16328 | 0 | 0.1250
47.1827 -3.510980E-06 +3.830059E-09 -60.0 -60.0 
16328 | 0 | 0.1250
47.3096 -3.510978E-06 +5.255291E-09 -60.0 -60.0 
16328 | 0 | 0.1269
47.4346 -3.509600E-06 +5.632562E-09 -60.0 -60.0 
TI0.0 | 0 | 0.1250
47.7393 -3.508631E-06 +5.884065E-09 -60.0 -60.0 
16328 | 0 | 0.3047
47.8633 -3.508593E-06 +4.626505E-09 -60.0 -60.0 
16328 | 0 | 0.1240
47.9883 -3.507962E-06 +5.381045E-09 -60.0 -60.0 
16328 | 0 | 0.1250
48.1143 -3.507920E-06 +4.710347E-09 -60.0 -60.0 
16328 | 0 | 0.1260
48.2403 -3.507083E-06 +4.458835E-09 -60.0 -60.0 
TI0.0 | 0 | 0.1260
48.5459 -3.506913E-06 +4.878020E-09 -60.0 -60.0 
16328 | 0 | 0.3056
48.6690 -3.505155E-06 +4.878021E-09 -60.0 -60.0 
16328 | 0 | 0.1231
48.7950 -3.505451E-06 +5.884062E-09 -60.0 -60.0 
16328 | 0 | 0.1260
48.9209 -3.504694E-06 +4.374992E-09 -60.0 -60.0 
16328 | 0 | 0.1259
49.0469 -3.503604E-06 +3.578545E-09 -60.0 -60.0 
16328 | 0 | 0.1260
49.3526 -3.503437E-06 +3.662387E-09 -60.0 -60.0 
16328 | 0 | 0.3057
49.4747 -3.504065E-06 +5.925982E-09 -60.0 -60.0 
16328 | 0 | 0.1221
49.5997 -3.503101E-06 +4.752265E-09 -60.0 -60.0 
16328 | 0 | 0.1250
49.7256 -3.502011E-06 +4.542671E-09 -60.0 -60.0 
TI0.0 | 0 | 0.1259
50.1602 -3.500713E-06 +5.632556E-09 -60.0 -60.0 
16328 | 0 | 0.4346
50.2813 -3.500757E-06 +5.464889E-09 -60.0 -60.0 
16328 | 0 | 0.1211
50.4073 -3.500588E-06 +4.207321E-09 -60.0 -60.0 
16328 | 0 | 0.1260
50.5333 -3.500254E-06 +4.291167E-09 -60.0 -60.0 
16328 | 0 | 0.1260
50.6592 -3.499999E-06 +4.249240E-09 -60.0 -60.0 
TI0.0 | 0 | 0.1259
50.9493 -3.498244E-06 +5.800231E-09 -60.0 -60.0 
16328 | 0 | 0.2901
51.0713 -3.497320E-06 +5.506797E-09 -60.0 -60.0 
16328 | 0 | 0.1220
51.1983 -3.497864E-06 +6.219413E-09 -60.0 -60.0 
16328 | 0 | 0.1270
51.3233 -3.497028E-06 +5.716398E-09 -60.0 -60.0 
16328 | 0 | 0.1250
51.4502 -3.495939E-06 +3.452786E-09 -60.0 -60.0 
TI0.0 | 0 | 0.1269
51.7559 -3.496357E-06 +6.638606E-09 -60.0 -60.0 
16328 | 0 | 0.3057
51.8770 -3.495601E-06 +5.716394E-09 -60.0 -60.0 
16328 | 0 | 0.1211
52.0030 -3.494723E-06 +4.375003E-09 -60.0 -60.0 
16328 | 0 | 0.1260
52.1299 -3.494805E-06 +5.171450E-09 -60.0 -60.0 
16328 | 0 | 0.1269
52.2559 -3.494554E-06 +5.339124E-09 -60.0 -60.0 
TI0.0 | 0 | 0.1260
52.5625 -3.492881E-06 +5.506801E-09 -60.0 -60.0 
16328 | 0 | 0.3066
52.6836 -3.492587E-06 +4.542673E-09 -60.0 -60.0 
16328 | 0 | 0.1211
52.8106 -3.492753E-06 +5.758312E-09 -60.0 -60.0 
16328 | 0 | 0.1270
52.9356 -3.491788E-06 +5.255288E-09 -60.0 -60.0 
16328 | 0 | 0.1250
53.0616 -3.491955E-06 +5.381040E-09 -60.0 -60.0 
16328 | 0 | 0.1260
53.3692 -3.490280E-06 +6.303251E-09 -60.0 -60.0 
16328 | 0 | 0.3076
53.4903 -3.490617E-06 +3.578552E-09 -60.0 -60.0 
16328 | 0 | 0.1211
53.6163 -3.488856E-06 +5.674478E-09 -60.0 -60.0 
16328 | 0 | 0.1260
53.7413 -3.489905E-06 +6.429008E-09 -60.0 -60.0 
TI0.0 | 0 | 0.1250
54.1768 -3.488102E-06 +4.961856E-09 -60.0 -60.0 
16328 | 0 | 0.4355
54.2969 -3.487265E-06 +5.632548E-09 -60.0 -60.0 
16328 | 0 | 0.1201
54.4239 -3.487937E-06 +5.003776E-09 -60.0 -60.0 
16328 | 0 | 0.1270
54.5489 -3.487683E-06 +5.339120E-09 -60.0 -60.0 
16328 | 0 | 0.1250
54.6739 -3.487138E-06 +4.919939E-09 -60.0 -60.0 
TI0.0 | 0 | 0.1250
54.9815 -3.486593E-06 +5.171453E-09 -60.0 -60.0 
16328 | 0 | 0.3076
55.1016 -3.484918E-06 +4.458833E-09 -60.0 -60.0 
16328 | 0 | 0.1201
55.2276 -3.485128E-06 +6.009818E-09 -60.0 -60.0 
16328 | 0 | 0.1260
55.3536 -3.484959E-06 +4.794177E-09 -60.0 -60.0 
16328 | 0 | 0.1260
55.4795 -3.484205E-06 +4.333082E-09 -60.0 -60.0 
TI0.0 | 0 | 0.1259
55.7881 -3.483954E-06 +6.848192E-09 -60.0 -60.0 
16328 | 0 | 0.3086
55.9073 -3.483116E-06 +4.207326E-09 -60.0 -60.0 
16328 | 0 | 0.1192
56.0333 -3.482782E-06 +6.722446E-09 -60.0 -60.0 
16328 | 0 | 0.1260
56.1592 -3.481777E-06 +4.878020E-09 -60.0 -60.0 
16328 | 0 | 0.1259
56.2833 -3.481734E-06 +4.836100E-09 -60.0 -60.0 
TI0.0 | 0 | 0.1241
56.5918 -3.480478E-06 +4.500758E-09 -60.0 -60.0 
16328 | 0 | 0.3085
56.7110 -3.479975E-06 +4.081572E-09 -60.0 -60.0 
16328 | 0 | 0.1192
56.8379 -3.480520E-06 +5.632557E-09 -60.0 -60.0 
16328 | 0 | 0.1269
56.9639 -3.479301E-06 +4.542676E-09 -60.0 -60.0 
16328 | 0 | 0.1260
57.0899 -3.479010E-06 +4.710347E-09 -60.0 -60.0 
TI0.0 | 0 | 0.1260
57.3819 -3.477669E-06 +4.710348E-09 -60.0 -60.0 
16328 | 0 | 0.2920
57.5010 -3.477418E-06 +5.758317E-09 -60.0 -60.0 
16328 | 0 | 0.1191
57.6270 -3.477711E-06 +5.800231E-09 -60.0 -60.0 
16328 | 0 | 0.1260
57.7540 -3.476997E-06 +5.925989E-09 -60.0 -60.0 
16328 | 0 | 0.1270
57.8790 -3.477041E-06 +5.758315E-09 -60.0 -60.0 
16328 | 0 | 0.1250
58.2042 -3.475782E-06 +3.704304E-09 -60.0 -60.0 
16328 | 0 | 0.3252
58.3233 -3.475617E-06 +5.842150E-09 -60.0 -60.0 
16328 | 0 | 0.1191
58.4493 -3.474860E-06 +5.506806E-09 -60.0 -60.0 
16328 | 0 | 0.1260
58.5752 -3.474820E-06 +4.542670E-09 -60.0 -60.0 
TI0.0 | 0 | 0.1259
#------ comments: init_log
59.0118 -3.473187E-06 +5.464883E-09 -60.0 -60.0 
16328 | 0 | 0.4366
59.1631 -3.472934E-06 +4.374997E-09 -60.0 -60.0 
16328 | 0 | 0.1513
#------ comments: init_log
59.2891 -3.472431E-06 +5.339130E-09 -60.0 -60.0 
16328 | 0 | 0.1260
59.4141 -3.472473E-06 +4.919938E-09 -60.0 -60.0 
TI0.0 | 0 | 0.1250
59.8038 -3.470588E-06 +4.542670E-09 -60.0 -60.0 
16328 | 0 | 0.3897
59.9229 -3.470502E-06 +3.788134E-09 -60.0 -60.0 
16328 | 0 | 0.1191
60.0489 -3.470798E-06 +5.213375E-09 -60.0 -60.0 
16328 | 0 | 0.1260
60.1749 -3.470670E-06 +4.416923E-09 -60.0 -60.0 
16328 | 0 | 0.1260
60.3018 -3.470796E-06 +6.051744E-09 -60.0 -60.0 
TI0.0 | 0 | 0.1269
60.6104 -3.469750E-06 +3.327036E-09 -60.0 -60.0 
16328 | 0 | 0.3086
60.7295 -3.467783E-06 +3.746216E-09 -60.0 -60.0 
16328 | 0 | 0.1191
60.8545 -3.467277E-06 +5.213363E-09 -60.0 -60.0 
16328 | 0 | 0.1250
60.9815 -3.468158E-06 +5.213371E-09 -60.0 -60.0 
16328 | 0 | 0.1270
61.1075 -3.467235E-06 +3.955814E-09 -60.0 -60.0 
TI0.0 | 0 | 0.1260
61.4170 -3.466398E-06 +5.548707E-09 -60.0 -60.0 
16328 | 0 | 0.3095
61.5352 -3.466270E-06 +5.297212E-09 -60.0 -60.0 
16328 | 0 | 0.1182
61.6612 -3.466185E-06 +4.919942E-09 -60.0 -60.0 
16328 | 0 | 0.1260
61.7872 -3.466103E-06 +5.255288E-09 -60.0 -60.0 
16328 | 0 | 0.1260
61.9131 -3.465559E-06 +3.871978E-09 -60.0 -60.0 
16328 | 0 | 0.1259
62.2237 -3.463550E-06 +4.919938E-09 -60.0 -60.0 
16328 | 0 | 0.3106
62.3418 -3.463970E-06 +4.836098E-09 -60.0 -60.0 
16328 | 0 | 0.1181
62.4668 -3.463926E-06 +5.758308E-09 -60.0 -60.0 
16328 | 0 | 0.1250
62.5918 -3.463546E-06 +3.327036E-09 -60.0 -60.0 
TI0.0 | 0 | 0.1250
63.0137 -3.462252E-06 +6.135583E-09 -60.0 -60.0 
16328 | 0 | 0.4219
63.1299 -3.461830E-06 +6.722442E-09 -60.0 -60.0 
16328 | 0 | 0.1162
63.2559 -3.461454E-06 +5.925991E-09 -60.0 -60.0 
16328 | 0 | 0.1260
63.3809 -3.460450E-06 +5.800238E-09 -60.0 -60.0 
16328 | 0 | 0.1250
63.5069 -3.460114E-06 +4.752268E-09 -60.0 -60.0 
TI0.0 | 0 | 0.1260
63.8174 -3.459945E-06 +4.919935E-09 -60.0 -60.0 
16328 | 0 | 0.3105
63.9346 -3.459482E-06 +5.255298E-09 -60.0 -60.0 
16328 | 0 | 0.1172
64.0606 -3.458772E-06 +4.752267E-09 -60.0 -60.0 
16328 | 0 | 0.1260
64.1866 -3.459108E-06 +6.303257E-09 -60.0 -60.0 
16328 | 0 | 0.1260
64.3135 -3.458143E-06 +5.171453E-09 -60.0 -60.0 
TI0.0 | 0 | 0.1269
64.6241 -3.457515E-06 +5.925989E-09 -60.0 -60.0 
16328 | 0 | 0.3106
64.7413 -3.457138E-06 +5.674478E-09 -60.0 -60.0 
16328 | 0 | 0.1172
64.8672 -3.456930E-06 +6.219416E-09 -60.0 -60.0 
16328 | 0 | 0.1259
64.9932 -3.456467E-06 +5.506801E-09 -60.0 -60.0 
16328 | 0 | 0.1260
65.1192 -3.455588E-06 +6.680526E-09 -60.0 -60.0 
TI0.0 | 0 | 0.1260
65.4307 -3.454500E-06 +5.003781E-09 -60.0 -60.0 
16328 | 0 | 0.3115
65.5469 -3.454245E-06 +5.129533E-09 -60.0 -60.0 
16328 | 0 | 0.1162
65.6729 -3.453369E-06 +4.961859E-09 -60.0 -60.0 
16328 | 0 | 0.1260
65.7979 -3.453659E-06 +4.500758E-09 -60.0 -60.0 
16328 | 0 | 0.1250
65.9249 -3.453578E-06 +4.584590E-09 -60.0 -60.0 
16328 | 0 | 0.1270
66.2364 -3.453199E-06 +5.339118E-09 -60.0 -60.0 
16328 | 0 | 0.3115
66.3526 -3.452697E-06 +4.878022E-09 -60.0 -60.0 
16328 | 0 | 0.1162
66.4786 -3.451732E-06 +5.674469E-09 -60.0 -60.0 
16328 | 0 | 0.1260
66.6045 -3.450433E-06 +5.884070E-09 -60.0 -60.0 
TI0.0 | 0 | 0.1259
67.0450 -3.449848E-06 +5.632562E-09 -60.0 -60.0 
16328 | 0 | 0.4405
67.1602 -3.449888E-06 +3.830058E-09 -60.0 -60.0 
16328 | 0 | 0.1152
67.2862 -3.448802E-06 +4.836103E-09 -60.0 -60.0 
16328 | 0 | 0.1260
67.4122 -3.450265E-06 +4.039653E-09 -60.0 -60.0 
16328 | 0 | 0.1260
67.5372 -3.448717E-06 +4.165400E-09 -60.0 -60.0 
TI0.0 | 0 | 0.1250
67.8506 -3.448045E-06 +5.045687E-09 -60.0 -60.0 
16328 | 0 | 0.3134
67.9649 -3.447625E-06 +5.087615E-09 -60.0 -60.0 
16328 | 0 | 0.1143
68.0909 -3.447542E-06 +6.219412E-09 -60.0 -60.0 
16328 | 0 | 0.1260
68.2168 -3.447163E-06 +5.339129E-09 -60.0 -60.0 
16328 | 0 | 0.1259
68.3428 -3.446998E-06 +5.674476E-09 -60.0 -60.0 
TI0.0 | 0 | 0.1260
68.6397 -3.445951E-06 +5.632550E-09 -60.0 -60.0 
16328 | 0 | 0.2969
68.7549 -3.445155E-06 +5.548718E-09 -60.0 -60.0 
16328 | 0 | 0.1152
68.8819 -3.444735E-06 +4.123488E-09 -60.0 -60.0 
16328 | 0 | 0.1270
69.0059 -3.445783E-06 +3.368947E-09 -60.0 -60.0 
16328 | 0 | 0.1240
69.1319 -3.444612E-06 +4.836098E-09 -60.0 -60.0 
TI0.0 | 0 | 0.1260
69.4454 -3.444359E-06 +4.542671E-09 -60.0 -60.0 
16328 | 0 | 0.3135
69.5606 -3.444148E-06 +5.716391E-09 -60.0 -60.0 
16328 | 0 | 0.1152
69.6866 -3.443771E-06 +4.416917E-09 -60.0 -60.0 
16328 | 0 | 0.1260
69.8125 -3.442849E-06 +5.171453E-09 -60.0 -60.0 
16328 | 0 | 0.1259
69.9375 -3.443058E-06 +5.087616E-09 -60.0 -60.0 
TI0.0 | 0 | 0.1250
70.2510 -3.442472E-06 +5.129535E-09 -60.0 -60.0 
16328 | 0 | 0.3135
70.3663 -3.442138E-06 +4.626514E-09 -60.0 -60.0 
16328 | 0 | 0.1153
70.4913 -3.441424E-06 +5.213375E-09 -60.0 -60.0 
16328 | 0 | 0.1250
70.6172 -3.440584E-06 +4.878020E-09 -60.0 -60.0 
16328 | 0 | 0.1259
70.7442 -3.440211E-06 +5.129523E-09 -60.0 -60.0 
16328 | 0 | 0.1270
71.0577 -3.438913E-06 +3.746213E-09 -60.0 -60.0 
16328 | 0 | 0.3135
71.1719 -3.438829E-06 +5.087620E-09 -60.0 -60.0 
16328 | 0 | 0.1142
71.2979 -3.438032E-06 +5.381038E-09 -60.0 -60.0 
16328 | 0 | 0.1260
71.4239 -3.439623E-06 +4.836100E-09 -60.0 -60.0 
TI0.0 | 0 | 0.1260
71.8663 -3.436858E-06 +3.830058E-09 -60.0 -60.0 
16328 | 0 | 0.4424
71.9795 -3.436649E-06 +6.345171E-09 -60.0 -60.0 
16328 | 0 | 0.1132
72.1055 -3.436188E-06 +5.925985E-09 -60.0 -60.0 
16328 | 0 | 0.1260
72.2315 -3.436146E-06 +3.913893E-09 -60.0 -60.0 
16328 | 0 | 0.1260
72.3565 -3.436146E-06 +5.674469E-09 -60.0 -60.0 
TI0.0 | 0 | 0.1250
72.6700 -3.435811E-06 +6.177492E-09 -60.0 -60.0 
16328 | 0 | 0.3135
72.7842 -3.435391E-06 +4.794180E-09 -60.0 -60.0 
16328 | 0 | 0.1142
72.9102 -3.434762E-06 +5.464882E-09 -60.0 -60.0 
16328 | 0 | 0.1260
73.0352 -3.433590E-06 +5.213374E-09 -60.0 -60.0 
16328 | 0 | 0.1250
73.1612 -3.434216E-06 +4.794183E-09 -60.0 -60.0 
TI0.0 | 0 | 0.1260
73.4756 -3.434051E-06 +4.584590E-09 -60.0 -60.0 
16328 | 0 | 0.3144
73.5889 -3.433966E-06 +6.722439E-09 -60.0 -60.0 
16328 | 0 | 0.1133
73.7159 -3.433631E-06 +5.045698E-09 -60.0 -60.0 
16328 | 0 | 0.1270
73.8418 -3.433257E-06 +3.871974E-09 -60.0 -60.0 
16328 | 0 | 0.1259
73.9678 -3.431454E-06 +3.243203E-09 -60.0 -60.0 
TI0.0 | 0 | 0.1260
74.2813 -3.431998E-06 +5.213368E-09 -60.0 -60.0 
16328 | 0 | 0.3135
74.3946 -3.431074E-06 +4.165406E-09 -60.0 -60.0 
16328 | 0 | 0.1133
74.5206 -3.430782E-06 +6.009818E-09 -60.0 -60.0 
16328 | 0 | 0.1260
74.6465 -3.430446E-06 +5.464874E-09 -60.0 -60.0 
16328 | 0 | 0.1259
74.7725 -3.429778E-06 +5.213363E-09 -60.0 -60.0 
16328 | 0 | 0.1260
75.0870 -3.429148E-06 +5.213375E-09 -60.0 -60.0 
16328 | 0 | 0.3145
75.2012 -3.428436E-06 +5.339120E-09 -60.0 -60.0 
16328 | 0 | 0.1142
75.3272 -3.427558E-06 +5.171448E-09 -60.0 -60.0 
16328 | 0 | 0.1260
75.4532 -3.427555E-06 +6.051745E-09 -60.0 -60.0 
TI0.0 | 0 | 0.1260
75.8799 -3.427556E-06 +4.542673E-09 -60.0 -60.0 
16328 | 0 | 0.4267
75.9932 -3.426806E-06 +3.871976E-09 -60.0 -60.0 
16328 | 0 | 0.1133
76.1192 -3.426886E-06 +5.129540E-09 -60.0 -60.0 
16328 | 0 | 0.1260
76.2452 -3.426465E-06 +4.836111E-09 -60.0 -60.0 
16328 | 0 | 0.1260
76.3711 -3.426465E-06 +6.512843E-09 -60.0 -60.0 
TI0.0 | 0 | 0.1259
76.6866 -3.425417E-06 +4.710348E-09 -60.0 -60.0 
16328 | 0 | 0.3155
76.8145 -3.424998E-06 +4.794179E-09 -60.0 -60.0 
16328 | 0 | 0.1279
76.9415 -3.424792E-06 +3.871978E-09 -60.0 -60.0 
16328 | 0 | 0.1270
77.0674 -3.423744E-06 +5.213368E-09 -60.0 -60.0 
16328 | 0 | 0.1259
77.1934 -3.423449E-06 +4.500758E-09 -60.0 -60.0 
TI0.0 | 0 | 0.1260
77.4932 -3.423701E-06 +5.129530E-09 -60.0 -60.0 
16328 | 0 | 0.2998
77.6202 -3.423198E-06 +5.255286E-09 -60.0 -60.0 
16328 | 0 | 0.1270
77.7471 -3.421314E-06 +5.884072E-09 -60.0 -60.0 
16328 | 0 | 0.1269
77.8741 -3.421522E-06 +5.800232E-09 -60.0 -60.0 
16328 | 0 | 0.1270
#::::: ABORT ::::::
78.0000 -3.422109E-06 +4.416920E-09 -60.0 -60.0 
TI0.0 | 0 | 0.1259
#
#----------------------- FOOTER ------------------------------------
# DEV_1 VDS:  KEITHLEY INSTRUMENTS INC.,MODEL 2400,1322544,C32   Oct  4 2010 14:20:11/A02  /R/J
# DEV_1 VDS: Serial<id=0xb38ba7ec, open=True>(port='/dev/ttyUSB5', baudrate=9600, bytesize=8, parity='N', stopbits=1, timeout=1, xonxoff=0, rtscts=1, dsrdtr=False)
# DEV_2 VGS:  KEITHLEY INSTRUMENTS INC.,MODEL 2400,4033786,C32   Oct  4 2010 14:20:11/A02  /T/K
# DEV_1 VDS: Serial<id=0xb38c85cc, open=True>(port='/dev/ttyUSB0', baudrate=9600, bytesize=8, parity='N', stopbits=1, timeout=1, xonxoff=0, rtscts=1, dsrdtr=False)
#
# ======= ERROR'S @ VDS
## :STAT:MEAS?   	 64 
## :SYST:ERR:ALL? 	 0,"No error" 
## *ESR?   	 0 
## *OPC?   	 1 
## :STAT:OPER?   	 1088 
## :STAT:MEAS?   	 0 
## :STAT:QUES?   	 0 
#
# ======= ERROR'S @ VGS
## :STAT:MEAS?   	 64 
## :SYST:ERR:ALL? 	 0,"No error" 
## *ESR?   	 0 
## *OPC?   	 1 
## :STAT:OPER?   	 1088 
## :STAT:MEAS?   	 0 
## :STAT:QUES?   	 0 
#
#
# ----* zajaczkowksi@mpip-mainz.mpg.de *-------------------------------
# ----- End of file 2019-02-04 18:05:41.778891 created by:/home/mar345/ele/ele/bin/K2400.pyc
