#-------------- Creating on pcbutt163 @ 2019-02-04 18:01:32.825489
# INIT TIME STEP TEST ..................................................  
# VDS       : -60.0 	 Current compliance 0.001
# VGS       : -60.0 	 Current compliance 0.001
# NPLC      : 1.0
# DELETE    : 0.0
# pozycja poczatkowa szhuttera: 0 keep open 0 before measurmeents
# :: ----------------------------------- TIME --------------------------------------
# ::     Time 	 IDS 	 IGS 	 VDS 	 VGS 	 XPIN 	 | Shutter | 	 Delta Time	     
# :: -------------------------------------------------------------------------------
#------ comments: init_log
0.2608 -2.257749E-06 -5.731586E-07 -60.0 -60.0 TI0.0 | 0 | 0.2608
0.3858 -3.024563E-06 -3.894504E-07 -60.0 -60.0 
16328 | 0 | 0.1250
0.6738 -3.806417E-06 -1.108288E-07 -60.0 -60.0 
16328 | 0 | 0.2880
0.7979 -3.952274E-06 -6.693520E-08 -60.0 -60.0 
16328 | 0 | 0.1241
0.9229 -4.065445E-06 -5.737667E-08 -60.0 -60.0 
16328 | 0 | 0.1250
1.0488 -4.167137E-06 -5.335203E-08 -60.0 -60.0 
TI0.0 | 0 | 0.1259
1.4658 -4.454487E-06 -3.486388E-08 -60.0 -60.0 
16328 | 0 | 0.4170
1.5879 -4.512645E-06 -1.905882E-08 -60.0 -60.0 
16328 | 0 | 0.1221
1.7139 -4.509088E-06 +3.997738E-09 -60.0 -60.0 
16328 | 0 | 0.1260
1.8399 -4.497772E-06 +3.033607E-09 -60.0 -60.0 
16328 | 0 | 0.1260
1.9658 -4.487342E-06 +2.530589E-09 -60.0 -60.0 
TI0.0 | 0 | 0.1259
2.2705 -4.464418E-06 +2.991692E-09 -60.0 -60.0 
16328 | 0 | 0.3047
2.3945 -4.456918E-06 +3.620470E-09 -60.0 -60.0 
16328 | 0 | 0.1240
2.5195 -4.448830E-06 +5.925989E-09 -60.0 -60.0 
16328 | 0 | 0.1250
2.6465 -4.439617E-06 +4.710350E-09 -60.0 -60.0 
16328 | 0 | 0.1270
2.7725 -4.432951E-06 +3.578548E-09 -60.0 -60.0 
TI0.0 | 0 | 0.1260
3.0772 -4.417826E-06 +4.416918E-09 -60.0 -60.0 
16328 | 0 | 0.3047
3.2002 -4.410284E-06 +4.710350E-09 -60.0 -60.0 
16328 | 0 | 0.1230
3.3262 -4.405003E-06 +4.794177E-09 -60.0 -60.0 
16328 | 0 | 0.1260
3.4522 -4.398426E-06 +3.662391E-09 -60.0 -60.0 
16328 | 0 | 0.1260
3.5781 -4.392308E-06 +5.087612E-09 -60.0 -60.0 
TI0.0 | 0 | 0.1259
3.8838 -4.381163E-06 +5.003781E-09 -60.0 -60.0 
16328 | 0 | 0.3057
4.0069 -4.376012E-06 +3.830064E-09 -60.0 -60.0 
16328 | 0 | 0.1231
4.1309 -4.371190E-06 +5.129527E-09 -60.0 -60.0 
16328 | 0 | 0.1240
4.2569 -4.366122E-06 +3.871976E-09 -60.0 -60.0 
16328 | 0 | 0.1260
4.3828 -4.360633E-06 +3.033601E-09 -60.0 -60.0 
16328 | 0 | 0.1259
4.6895 -4.349989E-06 +4.752260E-09 -60.0 -60.0 
16328 | 0 | 0.3067
4.8115 -4.345632E-06 +5.548721E-09 -60.0 -60.0 
16328 | 0 | 0.1220
4.9365 -4.340979E-06 +5.800230E-09 -60.0 -60.0 
16328 | 0 | 0.1250
5.0625 -4.338214E-06 +6.177495E-09 -60.0 -60.0 
TI0.0 | 0 | 0.1260
5.4951 -4.324010E-06 +5.381041E-09 -60.0 -60.0 
16328 | 0 | 0.4326
5.6172 -4.319571E-06 +5.045692E-09 -60.0 -60.0 
16328 | 0 | 0.1221
5.7432 -4.315424E-06 +5.255288E-09 -60.0 -60.0 
16328 | 0 | 0.1260
5.8701 -4.312111E-06 +4.752264E-09 -60.0 -60.0 
16328 | 0 | 0.1269
5.9961 -4.308595E-06 +4.584594E-09 -60.0 -60.0 
TI0.0 | 0 | 0.1260
6.3018 -4.300295E-06 +5.003785E-09 -60.0 -60.0 
16328 | 0 | 0.3057
6.4238 -4.297277E-06 +5.422976E-09 -60.0 -60.0 
16328 | 0 | 0.1220
6.5498 -4.292879E-06 +5.422965E-09 -60.0 -60.0 
16328 | 0 | 0.1260
6.6758 -4.289656E-06 +4.081574E-09 -60.0 -60.0 
16328 | 0 | 0.1260
6.8018 -4.286677E-06 +5.339129E-09 -60.0 -60.0 
TI0.0 | 0 | 0.1260
7.1084 -4.278677E-06 +4.626517E-09 -60.0 -60.0 
16328 | 0 | 0.3066
7.2305 -4.276036E-06 +4.458838E-09 -60.0 -60.0 
16328 | 0 | 0.1221
7.3555 -4.272432E-06 +4.919942E-09 -60.0 -60.0 
16328 | 0 | 0.1250
7.4824 -4.268622E-06 +4.542676E-09 -60.0 -60.0 
16328 | 0 | 0.1269
7.6084 -4.267363E-06 +5.171456E-09 -60.0 -60.0 
TI0.0 | 0 | 0.1260
7.9151 -4.260073E-06 +4.542668E-09 -60.0 -60.0 
16328 | 0 | 0.3067
8.0361 -4.256217E-06 +3.452791E-09 -60.0 -60.0 
16328 | 0 | 0.1210
8.1621 -4.255254E-06 +4.333079E-09 -60.0 -60.0 
16328 | 0 | 0.1260
8.2881 -4.251273E-06 +4.375003E-09 -60.0 -60.0 
16328 | 0 | 0.1260
8.4141 -4.248383E-06 +5.171458E-09 -60.0 -60.0 
TI0.0 | 0 | 0.1260
8.7061 -4.242598E-06 +5.087618E-09 -60.0 -60.0 
16328 | 0 | 0.2920
8.8272 -4.240295E-06 +4.878023E-09 -60.0 -60.0 
16328 | 0 | 0.1211
8.9512 -4.237151E-06 +5.506803E-09 -60.0 -60.0 
16328 | 0 | 0.1240
9.0772 -4.234094E-06 +5.800239E-09 -60.0 -60.0 
16328 | 0 | 0.1260
9.2041 -4.231703E-06 +5.045701E-09 -60.0 -60.0 
16328 | 0 | 0.1269
9.5117 -4.226093E-06 +5.842150E-09 -60.0 -60.0 
16328 | 0 | 0.3076
9.6309 -4.223955E-06 +4.039664E-09 -60.0 -60.0 
16328 | 0 | 0.1192
9.7569 -4.221019E-06 +6.512844E-09 -60.0 -60.0 
16328 | 0 | 0.1260
9.8828 -4.218170E-06 +5.255299E-09 -60.0 -60.0 
TI0.0 | 0 | 0.1259
10.3184 -4.211634E-06 +5.171459E-09 -60.0 -60.0 
16328 | 0 | 0.4356
10.4385 -4.208198E-06 +5.045703E-09 -60.0 -60.0 
16328 | 0 | 0.1201
10.5645 -4.205434E-06 +5.590639E-09 -60.0 -60.0 
16328 | 0 | 0.1260
10.6914 -4.203547E-06 +5.003776E-09 -60.0 -60.0 
16328 | 0 | 0.1269
10.8174 -4.200655E-06 +5.087620E-09 -60.0 -60.0 
TI0.0 | 0 | 0.1260
11.1240 -4.196087E-06 +5.548730E-09 -60.0 -60.0 
16328 | 0 | 0.3066
11.2442 -4.192862E-06 +4.542677E-09 -60.0 -60.0 
16328 | 0 | 0.1202
11.3701 -4.191187E-06 +4.710352E-09 -60.0 -60.0 
16328 | 0 | 0.1259
11.4961 -4.188714E-06 +3.997732E-09 -60.0 -60.0 
16328 | 0 | 0.1260
11.6221 -4.187710E-06 +5.422968E-09 -60.0 -60.0 
TI0.0 | 0 | 0.1260
11.9307 -4.182013E-06 +6.345169E-09 -60.0 -60.0 
16328 | 0 | 0.3086
12.0498 -4.179412E-06 +4.123494E-09 -60.0 -60.0 
16328 | 0 | 0.1191
12.1758 -4.177487E-06 +3.746226E-09 -60.0 -60.0 
16328 | 0 | 0.1260
12.3028 -4.175515E-06 +5.129538E-09 -60.0 -60.0 
16328 | 0 | 0.1270
12.4278 -4.174008E-06 +5.758316E-09 -60.0 -60.0 
TI0.0 | 0 | 0.1250
12.7373 -4.168560E-06 +5.171458E-09 -60.0 -60.0 
16328 | 0 | 0.3095
12.8565 -4.166510E-06 +4.878029E-09 -60.0 -60.0 
16328 | 0 | 0.1192
12.9824 -4.164916E-06 +5.716400E-09 -60.0 -60.0 
16328 | 0 | 0.1259
13.1084 -4.162236E-06 +4.668430E-09 -60.0 -60.0 
16328 | 0 | 0.1260
13.2344 -4.161061E-06 +5.003788E-09 -60.0 -60.0 
16328 | 0 | 0.1260
13.5440 -4.156366E-06 +4.836108E-09 -60.0 -60.0 
16328 | 0 | 0.3096
13.6631 -4.154314E-06 +4.123494E-09 -60.0 -60.0 
16328 | 0 | 0.1191
13.7881 -4.151300E-06 +4.207331E-09 -60.0 -60.0 
16328 | 0 | 0.1250
13.9141 -4.151424E-06 +5.842154E-09 -60.0 -60.0 
TI0.0 | 0 | 0.1260
14.3360 -4.144426E-06 +4.039658E-09 -60.0 -60.0 
16328 | 0 | 0.4219
14.4522 -4.142667E-06 +6.135581E-09 -60.0 -60.0 
16328 | 0 | 0.1162
14.5791 -4.139526E-06 +4.836111E-09 -60.0 -60.0 
16328 | 0 | 0.1269
14.7051 -4.139733E-06 +4.710357E-09 -60.0 -60.0 
16328 | 0 | 0.1260
14.8301 -4.137306E-06 +3.159366E-09 -60.0 -60.0 
TI0.0 | 0 | 0.1250
15.1406 -4.132400E-06 +5.716398E-09 -60.0 -60.0 
16328 | 0 | 0.3105
15.2578 -4.131394E-06 +5.842156E-09 -60.0 -60.0 
16328 | 0 | 0.1172
15.3848 -4.129090E-06 +4.710358E-09 -60.0 -60.0 
16328 | 0 | 0.1270
15.5098 -4.127790E-06 +4.752267E-09 -60.0 -60.0 
16328 | 0 | 0.1250
15.6367 -4.125405E-06 +4.500759E-09 -60.0 -60.0 
TI0.0 | 0 | 0.1269
15.9453 -4.121383E-06 +3.788136E-09 -60.0 -60.0 
16328 | 0 | 0.3086
16.0635 -4.119494E-06 +5.632567E-09 -60.0 -60.0 
16328 | 0 | 0.1182
16.1895 -4.119203E-06 +5.842154E-09 -60.0 -60.0 
16328 | 0 | 0.1260
16.3154 -4.117695E-06 +4.416920E-09 -60.0 -60.0 
16328 | 0 | 0.1259
16.4414 -4.115350E-06 +5.925992E-09 -60.0 -60.0 
TI0.0 | 0 | 0.1260
16.7510 -4.111119E-06 +5.129545E-09 -60.0 -60.0 
16328 | 0 | 0.3096
16.8672 -4.109525E-06 +6.806284E-09 -60.0 -60.0 
16328 | 0 | 0.1162
16.9922 -4.108352E-06 +4.668430E-09 -60.0 -60.0 
16328 | 0 | 0.1250
17.1182 -4.105921E-06 +5.422964E-09 -60.0 -60.0 
16328 | 0 | 0.1260
17.2451 -4.104581E-06 +4.836107E-09 -60.0 -60.0 
16328 | 0 | 0.1269
17.5557 -4.100430E-06 +5.255288E-09 -60.0 -60.0 
16328 | 0 | 0.3106
17.6729 -4.099301E-06 +5.213375E-09 -60.0 -60.0 
16328 | 0 | 0.1172
17.7988 -4.097330E-06 +5.213374E-09 -60.0 -60.0 
16328 | 0 | 0.1259
17.9248 -4.096366E-06 +5.422963E-09 -60.0 -60.0 
TI0.0 | 0 | 0.1260
18.3643 -4.090879E-06 +5.003772E-09 -60.0 -60.0 
16328 | 0 | 0.4395
18.4824 -4.089871E-06 +4.626508E-09 -60.0 -60.0 
16328 | 0 | 0.1181
18.6065 -4.087775E-06 +5.506806E-09 -60.0 -60.0 
16328 | 0 | 0.1241
18.7324 -4.085682E-06 +6.177501E-09 -60.0 -60.0 
16328 | 0 | 0.1259
18.8584 -4.084593E-06 +4.291162E-09 -60.0 -60.0 
TI0.0 | 0 | 0.1260
19.1699 -4.081660E-06 +5.506800E-09 -60.0 -60.0 
16328 | 0 | 0.3115
19.2871 -4.080236E-06 +6.387097E-09 -60.0 -60.0 
16328 | 0 | 0.1172
19.4121 -4.079353E-06 +4.165409E-09 -60.0 -60.0 
16328 | 0 | 0.1250
19.5371 -4.076968E-06 +5.842150E-09 -60.0 -60.0 
16328 | 0 | 0.1250
19.6641 -4.075374E-06 +5.758310E-09 -60.0 -60.0 
TI0.0 | 0 | 0.1270
19.9590 -4.072191E-06 +4.584595E-09 -60.0 -60.0 
16328 | 0 | 0.2949
20.0762 -4.070807E-06 +4.039655E-09 -60.0 -60.0 
16328 | 0 | 0.1172
20.2022 -4.068880E-06 +5.632565E-09 -60.0 -60.0 
16328 | 0 | 0.1260
20.3486 -4.067456E-06 +5.464885E-09 -60.0 -60.0 
16328 | 0 | 0.1464
20.4707 -4.066199E-06 +4.416924E-09 -60.0 -60.0 
TI0.0 | 0 | 0.1221
20.7656 -4.063602E-06 +4.961866E-09 -60.0 -60.0 
16328 | 0 | 0.2949
20.8838 -4.061842E-06 +4.081567E-09 -60.0 -60.0 
16328 | 0 | 0.1182
21.0069 -4.059075E-06 +6.051745E-09 -60.0 -60.0 
16328 | 0 | 0.1231
21.1328 -4.059663E-06 +4.458843E-09 -60.0 -60.0 
16328 | 0 | 0.1259
21.2598 -4.057737E-06 +5.087623E-09 -60.0 -60.0 
TI0.0 | 0 | 0.1270
21.5713 -4.053377E-06 +6.261336E-09 -60.0 -60.0 
16328 | 0 | 0.3115
21.6875 -4.052960E-06 +5.548724E-09 -60.0 -60.0 
16328 | 0 | 0.1162
21.8135 -4.051199E-06 +5.339130E-09 -60.0 -60.0 
16328 | 0 | 0.1260
21.9395 -4.050023E-06 +5.213371E-09 -60.0 -60.0 
16328 | 0 | 0.1260
22.0645 -4.048731E-06 +5.381059E-09 -60.0 -60.0 
16328 | 0 | 0.1250
22.3779 -4.045835E-06 +3.997741E-09 -60.0 -60.0 
16328 | 0 | 0.3134
22.4932 -4.044621E-06 +3.913899E-09 -60.0 -60.0 
16328 | 0 | 0.1153
22.6192 -4.043698E-06 +5.255298E-09 -60.0 -60.0 
16328 | 0 | 0.1260
22.7451 -4.042275E-06 +5.800230E-09 -60.0 -60.0 
TI0.0 | 0 | 0.1259
23.1856 -4.036951E-06 +3.955812E-09 -60.0 -60.0 
16328 | 0 | 0.4405
23.3018 -4.035866E-06 +4.500754E-09 -60.0 -60.0 
16328 | 0 | 0.1162
23.4278 -4.034313E-06 +3.871977E-09 -60.0 -60.0 
16328 | 0 | 0.1260
23.5537 -4.034900E-06 +4.416917E-09 -60.0 -60.0 
16328 | 0 | 0.1259
23.6787 -4.032135E-06 +4.123490E-09 -60.0 -60.0 
TI0.0 | 0 | 0.1250
23.9912 -4.029620E-06 +4.081576E-09 -60.0 -60.0 
16328 | 0 | 0.3125
24.1065 -4.028614E-06 +4.165411E-09 -60.0 -60.0 
16328 | 0 | 0.1153
24.2324 -4.027358E-06 +5.297212E-09 -60.0 -60.0 
16328 | 0 | 0.1259
24.3584 -4.025807E-06 +3.536631E-09 -60.0 -60.0 
16328 | 0 | 0.1260
24.4844 -4.024299E-06 +3.913899E-09 -60.0 -60.0 
TI0.0 | 0 | 0.1260
24.7979 -4.021660E-06 +4.836102E-09 -60.0 -60.0 
16328 | 0 | 0.3135
24.9131 -4.019774E-06 +4.710345E-09 -60.0 -60.0 
16328 | 0 | 0.1152
25.0391 -4.019272E-06 +4.961864E-09 -60.0 -60.0 
16328 | 0 | 0.1260
25.1651 -4.018056E-06 +4.919944E-09 -60.0 -60.0 
16328 | 0 | 0.1260
25.2949 -4.016041E-06 +3.536633E-09 -60.0 -60.0 
TI0.0 | 0 | 0.1298
25.6045 -4.013989E-06 +5.381049E-09 -60.0 -60.0 
16328 | 0 | 0.3096
25.7188 -4.012942E-06 +6.135581E-09 -60.0 -60.0 
16328 | 0 | 0.1143
25.8447 -4.012105E-06 +4.207323E-09 -60.0 -60.0 
16328 | 0 | 0.1259
25.9707 -4.010095E-06 +3.117441E-09 -60.0 -60.0 
16328 | 0 | 0.1260
26.0967 -4.008712E-06 +3.033612E-09 -60.0 -60.0 
16328 | 0 | 0.1260
26.4111 -4.007160E-06 +4.794191E-09 -60.0 -60.0 
16328 | 0 | 0.3144
26.5254 -4.005903E-06 +4.123492E-09 -60.0 -60.0 
16328 | 0 | 0.1143
26.6514 -4.003181E-06 +4.710349E-09 -60.0 -60.0 
16328 | 0 | 0.1260
26.7774 -4.002637E-06 +6.177504E-09 -60.0 -60.0 
TI0.0 | 0 | 0.1260
27.2031 -3.999282E-06 +4.375008E-09 -60.0 -60.0 
16328 | 0 | 0.4257
27.3174 -3.998027E-06 +5.422973E-09 -60.0 -60.0 
16328 | 0 | 0.1143
27.4434 -3.997606E-06 +5.758317E-09 -60.0 -60.0 
16328 | 0 | 0.1260
27.5694 -3.995765E-06 +4.333088E-09 -60.0 -60.0 
16328 | 0 | 0.1260
27.6953 -3.994297E-06 +4.039647E-09 -60.0 -60.0 
TI0.0 | 0 | 0.1259
28.0108 -3.992036E-06 +4.123500E-09 -60.0 -60.0 16328 | 0 | 0.3155
28.1221 -3.990906E-06 +4.333085E-09 -60.0 -60.0 
16328 | 0 | 0.1113
28.2481 -3.991157E-06 +5.255295E-09 -60.0 -60.0 
16328 | 0 | 0.1260
28.3740 -3.988431E-06 +5.800228E-09 -60.0 -60.0 
TI0.0 | 0 | 0.1259
28.8184 -3.985205E-06 +6.764368E-09 -60.0 -60.0 
16328 | 0 | 0.4444
28.9463 -3.983613E-06 +5.381053E-09 -60.0 -60.0 
16328 | 0 | 0.1279
29.0723 -3.983990E-06 +4.207330E-09 -60.0 -60.0 
16328 | 0 | 0.1260
29.1973 -3.981937E-06 +5.297217E-09 -60.0 -60.0 
16328 | 0 | 0.1250
29.3223 -3.980219E-06 +4.919944E-09 -60.0 -60.0 
TI0.0 | 0 | 0.1250
29.6221 -3.978123E-06 +6.345179E-09 -60.0 -60.0 
16328 | 0 | 0.2998
29.7500 -3.977037E-06 +4.961865E-09 -60.0 -60.0 
16328 | 0 | 0.1279
29.8760 -3.976199E-06 +4.207326E-09 -60.0 -60.0 
16328 | 0 | 0.1260
30.0020 -3.974604E-06 +4.584602E-09 -60.0 -60.0 
16328 | 0 | 0.1260
30.1279 -3.974477E-06 +4.333081E-09 -60.0 -60.0 
16328 | 0 | 0.1259
30.4287 -3.971125E-06 +4.123491E-09 -60.0 -60.0 
16328 | 0 | 0.3008
30.5567 -3.971209E-06 +5.674477E-09 -60.0 -60.0 
16328 | 0 | 0.1280
30.6817 -3.968906E-06 +5.255292E-09 -60.0 -60.0 
16328 | 0 | 0.1250
30.8067 -3.969074E-06 +4.416928E-09 -60.0 -60.0 
TI0.0 | 0 | 0.1250
31.2197 -3.965305E-06 +5.129547E-09 -60.0 -60.0 
16328 | 0 | 0.4130
31.3467 -3.964046E-06 +6.093670E-09 -60.0 -60.0 
16328 | 0 | 0.1270
31.4717 -3.962829E-06 +4.626529E-09 -60.0 -60.0 
16328 | 0 | 0.1250
31.5977 -3.962157E-06 +3.913900E-09 -60.0 -60.0 
16328 | 0 | 0.1260
31.7236 -3.961029E-06 +3.746224E-09 -60.0 -60.0 
TI0.0 | 0 | 0.1259
32.0264 -3.959181E-06 +5.129535E-09 -60.0 -60.0 
16328 | 0 | 0.3028
32.1504 -3.957045E-06 +4.458838E-09 -60.0 -60.0 
16328 | 0 | 0.1240
32.2764 -3.956712E-06 +3.830062E-09 -60.0 -60.0 
16328 | 0 | 0.1260
32.4024 -3.954408E-06 +4.375001E-09 -60.0 -60.0 
16328 | 0 | 0.1260
32.5293 -3.953611E-06 +5.506801E-09 -60.0 -60.0 
TI0.0 | 0 | 0.1269
32.8301 -3.952817E-06 +4.878020E-09 -60.0 -60.0 
16328 | 0 | 0.3008
32.9551 -3.951853E-06 +3.536633E-09 -60.0 -60.0 
16328 | 0 | 0.1250
33.0811 -3.949590E-06 +3.704306E-09 -60.0 -60.0 
16328 | 0 | 0.1260
33.2061 -3.948962E-06 +4.584593E-09 -60.0 -60.0 
16328 | 0 | 0.1250
33.3311 -3.947996E-06 +4.333084E-09 -60.0 -60.0 
TI0.0 | 0 | 0.1250
33.6338 -3.944268E-06 +6.093670E-09 -60.0 -60.0 
16328 | 0 | 0.3027
33.7578 -3.944644E-06 +5.003782E-09 -60.0 -60.0 
16328 | 0 | 0.1240
33.8838 -3.943891E-06 +6.932035E-09 -60.0 -60.0 
16328 | 0 | 0.1260
34.0098 -3.943096E-06 +5.422968E-09 -60.0 -60.0 
16328 | 0 | 0.1260
34.1367 -3.941672E-06 +5.632558E-09 -60.0 -60.0 
TI0.0 | 0 | 0.1269
34.4375 -3.939829E-06 +4.794199E-09 -60.0 -60.0 
16328 | 0 | 0.3008
34.5635 -3.938360E-06 +5.003780E-09 -60.0 -60.0 
16328 | 0 | 0.1260
34.6895 -3.936600E-06 +4.458836E-09 -60.0 -60.0 
16328 | 0 | 0.1260
34.8154 -3.935681E-06 +5.339133E-09 -60.0 -60.0 
16328 | 0 | 0.1259
34.9404 -3.935510E-06 +5.171453E-09 -60.0 -60.0 
16328 | 0 | 0.1250
35.2432 -3.933375E-06 +3.117447E-09 -60.0 -60.0 
16328 | 0 | 0.3028
35.3692 -3.931656E-06 +3.955820E-09 -60.0 -60.0 
16328 | 0 | 0.1260
35.4932 -3.930442E-06 +5.339134E-09 -60.0 -60.0 
16328 | 0 | 0.1240
35.6201 -3.930860E-06 +5.632563E-09 -60.0 -60.0 
TI0.0 | 0 | 0.1269
36.0508 -3.926712E-06 +4.291156E-09 -60.0 -60.0 
16328 | 0 | 0.4307
36.1758 -3.926501E-06 +5.464880E-09 -60.0 -60.0 
16328 | 0 | 0.1250
36.3018 -3.925035E-06 +4.039652E-09 -60.0 -60.0 
16328 | 0 | 0.1260
36.4278 -3.923781E-06 +5.171459E-09 -60.0 -60.0 
16328 | 0 | 0.1260
36.5547 -3.922859E-06 +4.668435E-09 -60.0 -60.0 
TI0.0 | 0 | 0.1269
36.8399 -3.920218E-06 +4.291165E-09 -60.0 -60.0 
16328 | 0 | 0.2852
36.9658 -3.919799E-06 +4.375001E-09 -60.0 -60.0 
16328 | 0 | 0.1259
37.0899 -3.918623E-06 +5.087616E-09 -60.0 -60.0 
16328 | 0 | 0.1241
37.2158 -3.918752E-06 +3.871983E-09 -60.0 -60.0 
16328 | 0 | 0.1259
37.3428 -3.917998E-06 +5.255289E-09 -60.0 -60.0 
TI0.0 | 0 | 0.1270
37.6465 -3.914564E-06 +3.997732E-09 -60.0 -60.0 
16328 | 0 | 0.3037
37.7686 -3.914099E-06 +4.752274E-09 -60.0 -60.0 
16328 | 0 | 0.1221
37.8955 -3.914268E-06 +5.297212E-09 -60.0 -60.0 
16328 | 0 | 0.1269
38.0215 -3.913053E-06 +4.961862E-09 -60.0 -60.0 
16328 | 0 | 0.1260
38.1475 -3.912129E-06 +5.590634E-09 -60.0 -60.0 
TI0.0 | 0 | 0.1260
38.4522 -3.910455E-06 +4.081565E-09 -60.0 -60.0 
16328 | 0 | 0.3047
38.5752 -3.909409E-06 +4.333084E-09 -60.0 -60.0 
16328 | 0 | 0.1230
38.6992 -3.907984E-06 +5.003782E-09 -60.0 -60.0 
16328 | 0 | 0.1240
38.8252 -3.907315E-06 +4.878014E-09 -60.0 -60.0 
16328 | 0 | 0.1260
38.9522 -3.905344E-06 +4.961865E-09 -60.0 -60.0 
16328 | 0 | 0.1270
39.2559 -3.903372E-06 +5.171451E-09 -60.0 -60.0 
16328 | 0 | 0.3037
39.3799 -3.902580E-06 +5.003786E-09 -60.0 -60.0 
16328 | 0 | 0.1240
39.5059 -3.902994E-06 +5.045697E-09 -60.0 -60.0 
16328 | 0 | 0.1260
39.6338 -3.901320E-06 +3.746224E-09 -60.0 -60.0 
TI0.0 | 0 | 0.1279
40.0645 -3.899228E-06 +4.542671E-09 -60.0 -60.0 
16328 | 0 | 0.4307
40.1885 -3.897841E-06 +6.261331E-09 -60.0 -60.0 
16328 | 0 | 0.1240
40.3135 -3.897424E-06 +3.327040E-09 -60.0 -60.0 
16328 | 0 | 0.1250
40.4375 -3.896624E-06 +6.764360E-09 -60.0 -60.0 
16328 | 0 | 0.1240
40.5635 -3.895453E-06 +3.997732E-09 -60.0 -60.0 
TI0.0 | 0 | 0.1260
40.8692 -3.893277E-06 +5.003780E-09 -60.0 -60.0 
16328 | 0 | 0.3057
40.9922 -3.892814E-06 +5.255295E-09 -60.0 -60.0 
16328 | 0 | 0.1230
41.1182 -3.891518E-06 +4.500761E-09 -60.0 -60.0 
16328 | 0 | 0.1260
41.2442 -3.890302E-06 +4.919941E-09 -60.0 -60.0 
16328 | 0 | 0.1260
41.3701 -3.889838E-06 +6.009829E-09 -60.0 -60.0 
TI0.0 | 0 | 0.1259
41.6758 -3.888168E-06 +5.464889E-09 -60.0 -60.0 
16328 | 0 | 0.3057
41.7979 -3.887367E-06 +4.878029E-09 -60.0 -60.0 
16328 | 0 | 0.1221
41.9248 -3.886363E-06 +3.746225E-09 -60.0 -60.0 
16328 | 0 | 0.1269
42.0498 -3.885311E-06 +5.842156E-09 -60.0 -60.0 
16328 | 0 | 0.1250
42.1758 -3.884520E-06 +4.039652E-09 -60.0 -60.0 
TI0.0 | 0 | 0.1260
42.4824 -3.882340E-06 +3.327032E-09 -60.0 -60.0 
16328 | 0 | 0.3066
42.6045 -3.880790E-06 +3.201281E-09 -60.0 -60.0 
16328 | 0 | 0.1221
42.7383 -3.881877E-06 +6.261335E-09 -60.0 -60.0 
16328 | 0 | 0.1338
42.8565 -3.879534E-06 +4.500756E-09 -60.0 -60.0 
16328 | 0 | 0.1182
42.9824 -3.879449E-06 +5.339134E-09 -60.0 -60.0 
TI0.0 | 0 | 0.1259
43.2725 -3.877185E-06 +5.422960E-09 -60.0 -60.0 
16328 | 0 | 0.2901
43.3955 -3.876474E-06 +4.836107E-09 -60.0 -60.0 
16328 | 0 | 0.1230
43.5205 -3.875971E-06 +4.710352E-09 -60.0 -60.0 
16328 | 0 | 0.1250
43.6475 -3.875007E-06 +5.339120E-09 -60.0 -60.0 
16328 | 0 | 0.1270
43.7735 -3.873542E-06 +4.291164E-09 -60.0 -60.0 
16328 | 0 | 0.1260
44.0947 -3.872410E-06 +4.961862E-09 -60.0 -60.0 
16328 | 0 | 0.3212
44.2168 -3.871613E-06 +5.548723E-09 -60.0 -60.0 
16328 | 0 | 0.1221
44.3428 -3.871029E-06 +5.925986E-09 -60.0 -60.0 
16328 | 0 | 0.1260
44.4688 -3.869563E-06 +3.285122E-09 -60.0 -60.0 
TI0.0 | 0 | 0.1260
44.8877 -3.866921E-06 +6.596689E-09 -60.0 -60.0 
16328 | 0 | 0.4189
45.0098 -3.866084E-06 +3.871982E-09 -60.0 -60.0 
16328 | 0 | 0.1221
45.1358 -3.864742E-06 +4.207330E-09 -60.0 -60.0 
16328 | 0 | 0.1260
45.2608 -3.864116E-06 +4.961866E-09 -60.0 -60.0 
16328 | 0 | 0.1250
45.3858 -3.864366E-06 +5.590636E-09 -60.0 -60.0 
TI0.0 | 0 | 0.1250
45.6924 -3.862395E-06 +5.297210E-09 -60.0 -60.0 
16328 | 0 | 0.3066
45.8145 -3.861348E-06 +4.794189E-09 -60.0 -60.0 
16328 | 0 | 0.1221
45.9395 -3.860383E-06 +4.794189E-09 -60.0 -60.0 
16328 | 0 | 0.1250
46.0654 -3.859545E-06 +5.381050E-09 -60.0 -60.0 
16328 | 0 | 0.1259
46.1914 -3.858792E-06 +5.003782E-09 -60.0 -60.0 
TI0.0 | 0 | 0.1260
46.4990 -3.857871E-06 +4.333086E-09 -60.0 -60.0 
16328 | 0 | 0.3076
46.6192 -3.856571E-06 +4.752273E-09 -60.0 -60.0 
16328 | 0 | 0.1202
46.7451 -3.856364E-06 +4.291161E-09 -60.0 -60.0 
16328 | 0 | 0.1259
46.8711 -3.855358E-06 +5.548721E-09 -60.0 -60.0 
16328 | 0 | 0.1260
46.9971 -3.854768E-06 +5.464885E-09 -60.0 -60.0 
TI0.0 | 0 | 0.1260
47.3037 -3.853050E-06 +3.997735E-09 -60.0 -60.0 
16328 | 0 | 0.3066
47.4248 -3.850287E-06 +6.177497E-09 -60.0 -60.0 
16328 | 0 | 0.1211
47.5508 -3.851251E-06 +4.207329E-09 -60.0 -60.0 
16328 | 0 | 0.1260
47.6778 -3.849531E-06 +5.129532E-09 -60.0 -60.0 
16328 | 0 | 0.1270
47.8028 -3.848862E-06 +4.668432E-09 -60.0 -60.0 
16328 | 0 | 0.1250
48.1104 -3.848026E-06 +5.381045E-09 -60.0 -60.0 
16328 | 0 | 0.3076
48.2315 -3.847519E-06 +4.542674E-09 -60.0 -60.0 
16328 | 0 | 0.1211
48.3565 -3.845635E-06 +5.045696E-09 -60.0 -60.0 
16328 | 0 | 0.1250
48.4834 -3.845048E-06 +5.213375E-09 -60.0 -60.0 
TI0.0 | 0 | 0.1269
48.9033 -3.843455E-06 +4.584598E-09 -60.0 -60.0 
16328 | 0 | 0.4199
49.0235 -3.843709E-06 +3.788140E-09 -60.0 -60.0 
16328 | 0 | 0.1202
49.1494 -3.841280E-06 +3.704307E-09 -60.0 -60.0 
16328 | 0 | 0.1259
49.2754 -3.840354E-06 +5.716395E-09 -60.0 -60.0 
16328 | 0 | 0.1260
49.4014 -3.839853E-06 +4.081576E-09 -60.0 -60.0 
TI0.0 | 0 | 0.1260
49.7100 -3.838682E-06 +5.255276E-09 -60.0 -60.0 
16328 | 0 | 0.3086
49.8301 -3.839140E-06 +3.285114E-09 -60.0 -60.0 
16328 | 0 | 0.1201
49.9541 -3.837677E-06 +5.003788E-09 -60.0 -60.0 
16328 | 0 | 0.1240
50.0811 -3.835372E-06 +5.213371E-09 -60.0 -60.0 
16328 | 0 | 0.1270
50.2070 -3.835956E-06 +5.422963E-09 -60.0 -60.0 
TI0.0 | 0 | 0.1259
50.5147 -3.834279E-06 +5.255288E-09 -60.0 -60.0 
16328 | 0 | 0.3077
50.6348 -3.833316E-06 +4.123485E-09 -60.0 -60.0 
16328 | 0 | 0.1201
50.7608 -3.832982E-06 +4.542676E-09 -60.0 -60.0 
16328 | 0 | 0.1260
50.8867 -3.832102E-06 +5.087615E-09 -60.0 -60.0 
16328 | 0 | 0.1259
51.0127 -3.831095E-06 +4.710349E-09 -60.0 -60.0 
TI0.0 | 0 | 0.1260
51.3213 -3.829965E-06 +4.500756E-09 -60.0 -60.0 
16328 | 0 | 0.3086
51.4404 -3.828707E-06 +6.429006E-09 -60.0 -60.0 
16328 | 0 | 0.1191
51.5664 -3.827241E-06 +3.788146E-09 -60.0 -60.0 
16328 | 0 | 0.1260
51.6924 -3.827325E-06 +5.297205E-09 -60.0 -60.0 
16328 | 0 | 0.1260
51.8184 -3.826656E-06 +5.213371E-09 -60.0 -60.0 
16328 | 0 | 0.1260
52.1279 -3.824937E-06 +5.297207E-09 -60.0 -60.0 
16328 | 0 | 0.3095
52.2461 -3.823554E-06 +4.458838E-09 -60.0 -60.0 
16328 | 0 | 0.1182
52.3731 -3.822547E-06 +5.925986E-09 -60.0 -60.0 
16328 | 0 | 0.1270
52.4981 -3.823009E-06 +4.710362E-09 -60.0 -60.0 
TI0.0 | 0 | 0.1250
52.9356 -3.820747E-06 +6.093659E-09 -60.0 -60.0 
16328 | 0 | 0.4375
53.0537 -3.819951E-06 +4.836108E-09 -60.0 -60.0 
16328 | 0 | 0.1181
53.1797 -3.819825E-06 +4.878023E-09 -60.0 -60.0 
16328 | 0 | 0.1260
53.3057 -3.818775E-06 +5.381042E-09 -60.0 -60.0 
16328 | 0 | 0.1260
53.4317 -3.817855E-06 +4.207330E-09 -60.0 -60.0 
TI0.0 | 0 | 0.1260
53.7412 -3.816766E-06 +3.830055E-09 -60.0 -60.0 
16328 | 0 | 0.3095
53.8594 -3.816220E-06 +4.333074E-09 -60.0 -60.0 
16328 | 0 | 0.1182
53.9863 -3.814043E-06 +5.632558E-09 -60.0 -60.0 
16328 | 0 | 0.1269
54.1113 -3.813499E-06 +4.249246E-09 -60.0 -60.0 
16328 | 0 | 0.1250
54.2373 -3.813962E-06 +4.836104E-09 -60.0 -60.0 
TI0.0 | 0 | 0.1260
54.5313 -3.811570E-06 +6.135575E-09 -60.0 -60.0 
16328 | 0 | 0.2940
54.6504 -3.810272E-06 +6.303253E-09 -60.0 -60.0 
16328 | 0 | 0.1191
54.7754 -3.810691E-06 +4.919944E-09 -60.0 -60.0 
16328 | 0 | 0.1250
54.9014 -3.809724E-06 +4.752264E-09 -60.0 -60.0 
16328 | 0 | 0.1260
55.0254 -3.809560E-06 +4.710355E-09 -60.0 -60.0 
TI0.0 | 0 | 0.1240
55.3360 -3.806878E-06 +5.548714E-09 -60.0 -60.0 
16328 | 0 | 0.3106
55.4541 -3.806418E-06 +4.961859E-09 -60.0 -60.0 
16328 | 0 | 0.1181
55.5811 -3.805744E-06 +5.381041E-09 -60.0 -60.0 
16328 | 0 | 0.1270
55.7061 -3.805622E-06 +4.626520E-09 -60.0 -60.0 
16328 | 0 | 0.1250
55.8320 -3.805244E-06 +5.297212E-09 -60.0 -60.0 
TI0.0 | 0 | 0.1259
56.1416 -3.803234E-06 +5.548727E-09 -60.0 -60.0 
16328 | 0 | 0.3096
56.2598 -3.803608E-06 +5.003782E-09 -60.0 -60.0 
16328 | 0 | 0.1182
56.3858 -3.801682E-06 +5.967910E-09 -60.0 -60.0 
16328 | 0 | 0.1260
56.5117 -3.801307E-06 +6.093665E-09 -60.0 -60.0 
16328 | 0 | 0.1259
56.6367 -3.801181E-06 +4.668432E-09 -60.0 -60.0 
16328 | 0 | 0.1250
56.9473 -3.798918E-06 +5.632550E-09 -60.0 -60.0 
16328 | 0 | 0.3106
57.0645 -3.798248E-06 +5.422968E-09 -60.0 -60.0 
16328 | 0 | 0.1172
57.1904 -3.798623E-06 +6.345166E-09 -60.0 -60.0 
16328 | 0 | 0.1259
57.3164 -3.796864E-06 +5.171451E-09 -60.0 -60.0 
TI0.0 | 0 | 0.1260
57.7549 -3.795062E-06 +5.045697E-09 -60.0 -60.0 
16328 | 0 | 0.4385
57.8721 -3.794180E-06 +5.087617E-09 -60.0 -60.0 
16328 | 0 | 0.1172
57.9981 -3.793302E-06 +5.506801E-09 -60.0 -60.0 
16328 | 0 | 0.1260
58.1240 -3.792716E-06 +4.836107E-09 -60.0 -60.0 
16328 | 0 | 0.1259
58.2510 -3.791837E-06 +5.716407E-09 -60.0 -60.0 
TI0.0 | 0 | 0.1270
58.5625 -3.791165E-06 +4.333084E-09 -60.0 -60.0 
16328 | 0 | 0.3115
58.6777 -3.789239E-06 +4.752263E-09 -60.0 -60.0 
16328 | 0 | 0.1152
58.8281 -3.788987E-06 +5.967910E-09 -60.0 -60.0 
16328 | 0 | 0.1504
#------ comments: init_log
58.9736 -3.787518E-06 +5.255291E-09 -60.0 -60.0 
16328 | 0 | 0.1455
#------ comments: init_log
59.0869 -3.786767E-06 +3.494712E-09 -60.0 -60.0 
TI0.0 | 0 | 0.1133
59.3662 -3.786345E-06 +5.590644E-09 -60.0 -60.0 
16328 | 0 | 0.2793
59.4824 -3.786265E-06 +5.255289E-09 -60.0 -60.0 
16328 | 0 | 0.1162
59.6074 -3.785424E-06 +5.297207E-09 -60.0 -60.0 
16328 | 0 | 0.1250
59.7344 -3.784758E-06 +3.955814E-09 -60.0 -60.0 
16328 | 0 | 0.1270
59.8604 -3.784211E-06 +6.345177E-09 -60.0 -60.0 
TI0.0 | 0 | 0.1260
60.1709 -3.782452E-06 +5.255295E-09 -60.0 -60.0 
16328 | 0 | 0.3105
60.2871 -3.782156E-06 +5.297203E-09 -60.0 -60.0 
16328 | 0 | 0.1162
60.4131 -3.781111E-06 +5.171455E-09 -60.0 -60.0 
16328 | 0 | 0.1260
60.5391 -3.780694E-06 +5.590639E-09 -60.0 -60.0 
16328 | 0 | 0.1260
60.6651 -3.779643E-06 +5.800228E-09 -60.0 -60.0 
16328 | 0 | 0.1260
60.9776 -3.777547E-06 +4.123488E-09 -60.0 -60.0 
16328 | 0 | 0.3125
61.0938 -3.778470E-06 +4.668435E-09 -60.0 -60.0 
16328 | 0 | 0.1162
61.2197 -3.777464E-06 +4.081567E-09 -60.0 -60.0 
16328 | 0 | 0.1259
61.3447 -3.776751E-06 +5.590638E-09 -60.0 -60.0 
TI0.0 | 0 | 0.1250
61.7686 -3.774779E-06 +4.123488E-09 -60.0 -60.0 
16328 | 0 | 0.4239
61.8858 -3.774236E-06 +4.291162E-09 -60.0 -60.0 
16328 | 0 | 0.1172
62.0108 -3.772899E-06 +3.620469E-09 -60.0 -60.0 
16328 | 0 | 0.1250
62.1367 -3.772647E-06 +5.129536E-09 -60.0 -60.0 
16328 | 0 | 0.1259
62.2637 -3.771849E-06 +6.093664E-09 -60.0 -60.0 
TI0.0 | 0 | 0.1270
62.5752 -3.771346E-06 +5.632562E-09 -60.0 -60.0 
16328 | 0 | 0.3115
62.6914 -3.770214E-06 +5.422968E-09 -60.0 -60.0 
16328 | 0 | 0.1162
62.8174 -3.769461E-06 +5.003780E-09 -60.0 -60.0 
16328 | 0 | 0.1260
62.9424 -3.768538E-06 +4.961858E-09 -60.0 -60.0 
16328 | 0 | 0.1250
63.0703 -3.767451E-06 +5.297206E-09 -60.0 -60.0 
TI0.0 | 0 | 0.1279
63.3819 -3.766613E-06 +4.333073E-09 -60.0 -60.0 
16328 | 0 | 0.3116
63.4971 -3.766273E-06 +6.219413E-09 -60.0 -60.0 
16328 | 0 | 0.1152
63.6231 -3.766657E-06 +3.620458E-09 -60.0 -60.0 
16328 | 0 | 0.1260
63.7490 -3.765605E-06 +4.416925E-09 -60.0 -60.0 
16328 | 0 | 0.1259
63.8770 -3.763806E-06 +5.339127E-09 -60.0 -60.0 
TI0.0 | 0 | 0.1280
64.1895 -3.763804E-06 +4.207330E-09 -60.0 -60.0 
16328 | 0 | 0.3125
64.3028 -3.762045E-06 +5.884071E-09 -60.0 -60.0 
16328 | 0 | 0.1133
64.4639 -3.761963E-06 +4.081573E-09 -60.0 -60.0 
16328 | 0 | 0.1611
64.5860 -3.761583E-06 +4.584597E-09 -60.0 -60.0 
16328 | 0 | 0.1221
64.7119 -3.760831E-06 +4.710345E-09 -60.0 -60.0 
16328 | 0 | 0.1259
64.9942 -3.759533E-06 +5.339124E-09 -60.0 -60.0 
16328 | 0 | 0.2823
65.1094 -3.758526E-06 +5.590642E-09 -60.0 -60.0 
16328 | 0 | 0.1152
65.2344 -3.758190E-06 +5.506809E-09 -60.0 -60.0 
16328 | 0 | 0.1250
65.3604 -3.757900E-06 +5.842150E-09 -60.0 -60.0 
TI0.0 | 0 | 0.1260
65.7871 -3.755720E-06 +3.788140E-09 -60.0 -60.0 
16328 | 0 | 0.4267
65.9004 -3.755552E-06 +5.800231E-09 -60.0 -60.0 
16328 | 0 | 0.1133
66.0274 -3.754966E-06 +5.716391E-09 -60.0 -60.0 
16328 | 0 | 0.1270
66.1533 -3.753288E-06 +4.836111E-09 -60.0 -60.0 
16328 | 0 | 0.1259
66.2783 -3.752827E-06 +3.955815E-09 -60.0 -60.0 
TI0.0 | 0 | 0.1250
66.5928 -3.751235E-06 +5.925980E-09 -60.0 -60.0 
16328 | 0 | 0.3145
66.7061 -3.751152E-06 +5.590638E-09 -60.0 -60.0 
16328 | 0 | 0.1133
66.8320 -3.750817E-06 +4.039662E-09 -60.0 -60.0 
16328 | 0 | 0.1259
66.9580 -3.750147E-06 +5.255292E-09 -60.0 -60.0 
16328 | 0 | 0.1260
67.0840 -3.749266E-06 +5.464880E-09 -60.0 -60.0 
TI0.0 | 0 | 0.1260
67.3985 -3.748512E-06 +4.668427E-09 -60.0 -60.0 
16328 | 0 | 0.3145
67.5127 -3.747255E-06 +4.333079E-09 -60.0 -60.0 
16328 | 0 | 0.1142
67.6387 -3.747465E-06 +5.464877E-09 -60.0 -60.0 
16328 | 0 | 0.1260
67.7686 -3.746628E-06 +4.165409E-09 -60.0 -60.0 
16328 | 0 | 0.1299
67.8906 -3.746125E-06 +5.422962E-09 -60.0 -60.0 
TI0.0 | 0 | 0.1220
68.2051 -3.744742E-06 +4.039653E-09 -60.0 -60.0 
16328 | 0 | 0.3145
68.3184 -3.743778E-06 +6.009838E-09 -60.0 -60.0 
16328 | 0 | 0.1133
68.4453 -3.743400E-06 +4.626504E-09 -60.0 -60.0 
16328 | 0 | 0.1269
68.5703 -3.742479E-06 +5.129535E-09 -60.0 -60.0 
16328 | 0 | 0.1250
68.6963 -3.741640E-06 +5.758315E-09 -60.0 -60.0 
TI0.0 | 0 | 0.1260
69.0117 -3.740004E-06 +4.333080E-09 -60.0 -60.0 
16328 | 0 | 0.3154
69.1397 -3.739544E-06 +4.542676E-09 -60.0 -60.0 
16328 | 0 | 0.1280
69.2666 -3.739797E-06 +5.171446E-09 -60.0 -60.0 
16328 | 0 | 0.1269
69.3926 -3.738793E-06 +4.794187E-09 -60.0 -60.0 
16328 | 0 | 0.1260
69.5186 -3.738206E-06 +4.794191E-09 -60.0 -60.0 
16328 | 0 | 0.1260
69.8184 -3.737282E-06 +5.422965E-09 -60.0 -60.0 
16328 | 0 | 0.2998
69.9453 -3.736066E-06 +4.165417E-09 -60.0 -60.0 
16328 | 0 | 0.1269
70.0723 -3.736653E-06 +5.674476E-09 -60.0 -60.0 
16328 | 0 | 0.1270
70.1983 -3.735816E-06 +4.542676E-09 -60.0 -60.0 
TI0.0 | 0 | 0.1260
70.6260 -3.732968E-06 +5.800231E-09 -60.0 -60.0 
16328 | 0 | 0.4277
70.7539 -3.732840E-06 +3.871979E-09 -60.0 -60.0 
16328 | 0 | 0.1279
70.8809 -3.732796E-06 +4.626515E-09 -60.0 -60.0 
16328 | 0 | 0.1270
71.0069 -3.732715E-06 +5.674471E-09 -60.0 -60.0 
16328 | 0 | 0.1260
71.1328 -3.730831E-06 +5.422968E-09 -60.0 -60.0 
TI0.0 | 0 | 0.1259
71.4326 -3.730536E-06 +5.506804E-09 -60.0 -60.0 
16328 | 0 | 0.2998
71.5606 -3.728275E-06 +6.009822E-09 -60.0 -60.0 
16328 | 0 | 0.1280
71.6865 -3.728946E-06 +4.081574E-09 -60.0 -60.0 
16328 | 0 | 0.1259
71.8115 -3.728233E-06 +4.626513E-09 -60.0 -60.0 
16328 | 0 | 0.1250
71.9365 -3.727229E-06 +5.339133E-09 -60.0 -60.0 
TI0.0 | 0 | 0.1250
72.2207 -3.726725E-06 +5.506809E-09 -60.0 -60.0 
16328 | 0 | 0.2842
72.3486 -3.726472E-06 +5.506807E-09 -60.0 -60.0 
16328 | 0 | 0.1279
72.4756 -3.725257E-06 +6.345163E-09 -60.0 -60.0 
16328 | 0 | 0.1270
72.6006 -3.724044E-06 +3.830059E-09 -60.0 -60.0 
16328 | 0 | 0.1250
72.7266 -3.723873E-06 +4.878023E-09 -60.0 -60.0 
TI0.0 | 0 | 0.1260
73.0274 -3.723876E-06 +5.800231E-09 -60.0 -60.0 
16328 | 0 | 0.3008
73.1533 -3.723037E-06 +5.213382E-09 -60.0 -60.0 
16328 | 0 | 0.1259
73.2793 -3.722913E-06 +6.135584E-09 -60.0 -60.0 
16328 | 0 | 0.1260
73.4053 -3.721822E-06 +5.632558E-09 -60.0 -60.0 
16328 | 0 | 0.1260
73.5322 -3.720146E-06 +5.967904E-09 -60.0 -60.0 
16328 | 0 | 0.1269
73.8320 -3.719810E-06 +5.590644E-09 -60.0 -60.0 
16328 | 0 | 0.2998
73.9590 -3.718511E-06 +5.339138E-09 -60.0 -60.0 
16328 | 0 | 0.1270
74.0850 -3.718926E-06 +4.458832E-09 -60.0 -60.0 
16328 | 0 | 0.1260
74.2110 -3.718342E-06 +5.632562E-09 -60.0 -60.0 
TI0.0 | 0 | 0.1260
74.6397 -3.716666E-06 +5.758317E-09 -60.0 -60.0 
16328 | 0 | 0.4287
74.7676 -3.715496E-06 +4.836103E-09 -60.0 -60.0 
16328 | 0 | 0.1279
74.8926 -3.715410E-06 +5.129529E-09 -60.0 -60.0 
16328 | 0 | 0.1250
75.0186 -3.714362E-06 +6.638604E-09 -60.0 -60.0 
16328 | 0 | 0.1260
75.1455 -3.712563E-06 +5.381042E-09 -60.0 -60.0 
TI0.0 | 0 | 0.1269
75.4483 -3.712310E-06 +4.584590E-09 -60.0 -60.0 
16328 | 0 | 0.3028
75.5733 -3.712895E-06 +6.596684E-09 -60.0 -60.0 
16328 | 0 | 0.1250
75.6992 -3.711179E-06 +4.291167E-09 -60.0 -60.0 
16328 | 0 | 0.1259
75.8252 -3.710386E-06 +6.093662E-09 -60.0 -60.0 
16328 | 0 | 0.1260
75.9512 -3.711387E-06 +5.087623E-09 -60.0 -60.0 
TI0.0 | 0 | 0.1260
76.2529 -3.709044E-06 +5.213366E-09 -60.0 -60.0 
16328 | 0 | 0.3017
76.3789 -3.708457E-06 +4.500761E-09 -60.0 -60.0 
16328 | 0 | 0.1260
76.5049 -3.707995E-06 +5.213371E-09 -60.0 -60.0 
16328 | 0 | 0.1260
76.6319 -3.707325E-06 +5.674480E-09 -60.0 -60.0 
16328 | 0 | 0.1270
76.7569 -3.706905E-06 +5.758316E-09 -60.0 -60.0 
TI0.0 | 0 | 0.1250
77.0586 -3.706153E-06 +5.758317E-09 -60.0 -60.0 
16328 | 0 | 0.3017
77.1846 -3.704853E-06 +3.620467E-09 -60.0 -60.0 
16328 | 0 | 0.1260
77.3106 -3.705146E-06 +3.955814E-09 -60.0 -60.0 
16328 | 0 | 0.1260
77.4365 -3.705059E-06 +6.177507E-09 -60.0 -60.0 
16328 | 0 | 0.1259
77.5625 -3.703929E-06 +5.171459E-09 -60.0 -60.0 
TI0.0 | 0 | 0.1260
77.8643 -3.702171E-06 +4.165408E-09 -60.0 -60.0 
16328 | 0 | 0.3018
77.9903 -3.702758E-06 +4.584591E-09 -60.0 -60.0 
16328 | 0 | 0.1260
78.1172 -3.702253E-06 +4.039652E-09 -60.0 -60.0 
16328 | 0 | 0.1269
78.2422 -3.701542E-06 +3.955814E-09 -60.0 -60.0 
16328 | 0 | 0.1250
78.3692 -3.700327E-06 +5.045703E-09 -60.0 -60.0 
16328 | 0 | 0.1270
78.6719 -3.699447E-06 +4.919946E-09 -60.0 -60.0 
16328 | 0 | 0.3027
78.7959 -3.698276E-06 +4.626520E-09 -60.0 -60.0 
16328 | 0 | 0.1240
78.9219 -3.698691E-06 +4.878020E-09 -60.0 -60.0 
16328 | 0 | 0.1260
79.0479 -3.698022E-06 +5.716389E-09 -60.0 -60.0 
TI0.0 | 0 | 0.1260
79.4629 -3.695761E-06 +6.554756E-09 -60.0 -60.0 
16328 | 0 | 0.4150
79.5879 -3.696470E-06 +4.626512E-09 -60.0 -60.0 
16328 | 0 | 0.1250
79.7139 -3.694377E-06 +6.764357E-09 -60.0 -60.0 
16328 | 0 | 0.1260
79.8408 -3.694629E-06 +4.039647E-09 -60.0 -60.0 
16328 | 0 | 0.1269
79.9668 -3.694168E-06 +6.848196E-09 -60.0 -60.0 
TI0.0 | 0 | 0.1260
80.2686 -3.693288E-06 +5.339126E-09 -60.0 -60.0 
16328 | 0 | 0.3018
80.3936 -3.692032E-06 +5.045701E-09 -60.0 -60.0 
16328 | 0 | 0.1250
80.5195 -3.692029E-06 +5.129535E-09 -60.0 -60.0 
16328 | 0 | 0.1259
80.6455 -3.691528E-06 +5.422963E-09 -60.0 -60.0 
16328 | 0 | 0.1260
80.7715 -3.690941E-06 +4.584580E-09 -60.0 -60.0 
TI0.0 | 0 | 0.1260
81.0752 -3.690984E-06 +5.967904E-09 -60.0 -60.0 
16328 | 0 | 0.3037
81.2002 -3.689516E-06 +6.512854E-09 -60.0 -60.0 
16328 | 0 | 0.1250
81.3252 -3.687964E-06 +4.165405E-09 -60.0 -60.0 
16328 | 0 | 0.1250
81.4502 -3.688260E-06 +5.674477E-09 -60.0 -60.0 
16328 | 0 | 0.1250
81.5772 -3.687673E-06 +4.878020E-09 -60.0 -60.0 
TI0.0 | 0 | 0.1270
81.8809 -3.686918E-06 +5.255290E-09 -60.0 -60.0 
16328 | 0 | 0.3037
82.0049 -3.686081E-06 +6.470930E-09 -60.0 -60.0 
16328 | 0 | 0.1240
82.1309 -3.684866E-06 +4.375003E-09 -60.0 -60.0 
16328 | 0 | 0.1260
82.2569 -3.684323E-06 +6.303253E-09 -60.0 -60.0 
16328 | 0 | 0.1260
82.3828 -3.684695E-06 +5.464882E-09 -60.0 -60.0 
16328 | 0 | 0.1259
82.6875 -3.683188E-06 +4.878023E-09 -60.0 -60.0 
16328 | 0 | 0.3047
82.8115 -3.682816E-06 +4.836100E-09 -60.0 -60.0 
16328 | 0 | 0.1240
82.9375 -3.682057E-06 +5.003788E-09 -60.0 -60.0 
16328 | 0 | 0.1260
83.0625 -3.682604E-06 +4.207326E-09 -60.0 -60.0 
TI0.0 | 0 | 0.1250
83.4785 -3.679753E-06 +3.830058E-09 -60.0 -60.0 
16328 | 0 | 0.4160
83.6026 -3.679543E-06 +5.884067E-09 -60.0 -60.0 
16328 | 0 | 0.1241
83.7285 -3.679460E-06 +5.381051E-09 -60.0 -60.0 
16328 | 0 | 0.1259
83.8535 -3.678831E-06 +6.219416E-09 -60.0 -60.0 
16328 | 0 | 0.1250
83.9795 -3.679377E-06 +5.967910E-09 -60.0 -60.0 
TI0.0 | 0 | 0.1260
84.2852 -3.677240E-06 +6.177497E-09 -60.0 -60.0 
16328 | 0 | 0.3057
84.4072 -3.676530E-06 +5.632556E-09 -60.0 -60.0 
16328 | 0 | 0.1220
84.5322 -3.676612E-06 +4.249246E-09 -60.0 -60.0 
16328 | 0 | 0.1250
84.6592 -3.675314E-06 +4.374999E-09 -60.0 -60.0 
16328 | 0 | 0.1270
84.7861 -3.675397E-06 +5.464883E-09 -60.0 -60.0 
TI0.0 | 0 | 0.1269
85.0899 -3.673927E-06 +4.584589E-09 -60.0 -60.0 
16328 | 0 | 0.3038
85.2129 -3.673930E-06 +4.207324E-09 -60.0 -60.0 
16328 | 0 | 0.1230
85.3389 -3.673595E-06 +4.249245E-09 -60.0 -60.0 
16328 | 0 | 0.1260
85.4649 -3.673094E-06 +4.626512E-09 -60.0 -60.0 
16328 | 0 | 0.1260
85.5908 -3.671373E-06 +6.470928E-09 -60.0 -60.0 
TI0.0 | 0 | 0.1259
85.8965 -3.671374E-06 +4.081570E-09 -60.0 -60.0 
16328 | 0 | 0.3057
86.0195 -3.672002E-06 +6.387089E-09 -60.0 -60.0 
16328 | 0 | 0.1230
86.1455 -3.669570E-06 +4.626514E-09 -60.0 -60.0 
16328 | 0 | 0.1260
86.2715 -3.668609E-06 +3.955809E-09 -60.0 -60.0 
16328 | 0 | 0.1260
86.3965 -3.669111E-06 +3.410880E-09 -60.0 -60.0 
16328 | 0 | 0.1250
86.7012 -3.667686E-06 +4.584599E-09 -60.0 -60.0 
16328 | 0 | 0.3047
86.8242 -3.667853E-06 +6.219416E-09 -60.0 -60.0 
16328 | 0 | 0.1230
86.9502 -3.667100E-06 +5.464877E-09 -60.0 -60.0 
16328 | 0 | 0.1260
87.0762 -3.665926E-06 +5.129539E-09 -60.0 -60.0 
TI0.0 | 0 | 0.1260
87.5108 -3.664252E-06 +5.422968E-09 -60.0 -60.0 
16328 | 0 | 0.4346
87.6387 -3.665005E-06 +4.458838E-09 -60.0 -60.0 
16328 | 0 | 0.1279
87.7578 -3.663790E-06 +4.081570E-09 -60.0 -60.0 
16328 | 0 | 0.1191
87.8838 -3.663494E-06 +6.051744E-09 -60.0 -60.0 
16328 | 0 | 0.1260
88.0098 -3.663289E-06 +6.261333E-09 -60.0 -60.0 
TI0.0 | 0 | 0.1260
88.3154 -3.662241E-06 +3.662384E-09 -60.0 -60.0 
16328 | 0 | 0.3056
88.4375 -3.660524E-06 +4.542673E-09 -60.0 -60.0 
16328 | 0 | 0.1221
88.5635 -3.660439E-06 +4.458838E-09 -60.0 -60.0 
16328 | 0 | 0.1260
88.6904 -3.660857E-06 +5.464885E-09 -60.0 -60.0 
16328 | 0 | 0.1269
88.8154 -3.659725E-06 +6.135583E-09 -60.0 -60.0 
TI0.0 | 0 | 0.1250
89.1221 -3.659012E-06 +6.177492E-09 -60.0 -60.0 
16328 | 0 | 0.3067
89.2442 -3.658133E-06 +4.500758E-09 -60.0 -60.0 
16328 | 0 | 0.1221
89.3692 -3.658174E-06 +5.842150E-09 -60.0 -60.0 
16328 | 0 | 0.1250
89.4951 -3.657293E-06 +5.255292E-09 -60.0 -60.0 
16328 | 0 | 0.1259
89.6201 -3.656962E-06 +5.297206E-09 -60.0 -60.0 
TI0.0 | 0 | 0.1250
89.9111 -3.656082E-06 +4.919936E-09 -60.0 -60.0 
16328 | 0 | 0.2910
90.0322 -3.654783E-06 +4.207332E-09 -60.0 -60.0 
16328 | 0 | 0.1211
90.1582 -3.655199E-06 +5.548721E-09 -60.0 -60.0 
16328 | 0 | 0.1260
90.2842 -3.655158E-06 +6.093664E-09 -60.0 -60.0 
16328 | 0 | 0.1260
90.4102 -3.654613E-06 +5.087620E-09 -60.0 -60.0 
TI0.0 | 0 | 0.1260
90.7178 -3.653736E-06 +4.291164E-09 -60.0 -60.0 
16328 | 0 | 0.3076
90.8379 -3.653565E-06 +3.788146E-09 -60.0 -60.0 
16328 | 0 | 0.1201
90.9639 -3.651848E-06 +5.842148E-09 -60.0 -60.0 
16328 | 0 | 0.1260
91.0908 -3.652562E-06 +5.925994E-09 -60.0 -60.0 
16328 | 0 | 0.1269
91.2158 -3.651009E-06 +5.590642E-09 -60.0 -60.0 
16328 | 0 | 0.1250
91.5235 -3.650594E-06 +5.213380E-09 -60.0 -60.0 
16328 | 0 | 0.3077
91.6445 -3.649879E-06 +4.416918E-09 -60.0 -60.0 
16328 | 0 | 0.1210
91.7705 -3.649208E-06 +4.291170E-09 -60.0 -60.0 
16328 | 0 | 0.1260
91.8965 -3.648788E-06 +4.584597E-09 -60.0 -60.0 
TI0.0 | 0 | 0.1260
92.3320 -3.647404E-06 +5.087626E-09 -60.0 -60.0 
16328 | 0 | 0.4355
92.4531 -3.646401E-06 +4.961865E-09 -60.0 -60.0 
16328 | 0 | 0.1211
92.5791 -3.646653E-06 +4.039656E-09 -60.0 -60.0 
16328 | 0 | 0.1260
92.7051 -3.646149E-06 +5.842160E-09 -60.0 -60.0 
16328 | 0 | 0.1260
92.8301 -3.645649E-06 +5.967906E-09 -60.0 -60.0 
TI0.0 | 0 | 0.1250
93.1377 -3.644433E-06 +5.045701E-09 -60.0 -60.0 
16328 | 0 | 0.3076
93.2578 -3.643009E-06 +5.590644E-09 -60.0 -60.0 
16328 | 0 | 0.1201
93.3838 -3.642671E-06 +6.596689E-09 -60.0 -60.0 
16328 | 0 | 0.1260
93.5098 -3.643344E-06 +5.087618E-09 -60.0 -60.0 
16328 | 0 | 0.1260
93.6358 -3.643133E-06 +3.159363E-09 -60.0 -60.0 
TI0.0 | 0 | 0.1260
93.9463 -3.642380E-06 +5.339132E-09 -60.0 -60.0 
16328 | 0 | 0.3105
94.0645 -3.640956E-06 +4.752270E-09 -60.0 -60.0 
16328 | 0 | 0.1182
94.1904 -3.640493E-06 +5.800238E-09 -60.0 -60.0 
16328 | 0 | 0.1259
94.3154 -3.640286E-06 +5.716395E-09 -60.0 -60.0 
16328 | 0 | 0.1250
94.4424 -3.639528E-06 +5.297217E-09 -60.0 -60.0 
TI0.0 | 0 | 0.1270
94.7500 -3.639488E-06 +5.506803E-09 -60.0 -60.0 
16328 | 0 | 0.3076
94.8692 -3.638649E-06 +5.129530E-09 -60.0 -60.0 
16328 | 0 | 0.1192
94.9951 -3.637184E-06 +4.458836E-09 -60.0 -60.0 
16328 | 0 | 0.1259
95.1221 -3.637186E-06 +4.081573E-09 -60.0 -60.0 
16328 | 0 | 0.1270
95.2471 -3.636429E-06 +5.381053E-09 -60.0 -60.0 
16328 | 0 | 0.1250
95.5567 -3.636093E-06 +6.680533E-09 -60.0 -60.0 
16328 | 0 | 0.3096
95.6758 -3.636052E-06 +4.249250E-09 -60.0 -60.0 
16328 | 0 | 0.1191
95.8018 -3.634670E-06 +6.261335E-09 -60.0 -60.0 
16328 | 0 | 0.1260
95.9268 -3.634586E-06 +5.967909E-09 -60.0 -60.0 
TI0.0 | 0 | 0.1250
96.3477 -3.633580E-06 +6.387095E-09 -60.0 -60.0 
16328 | 0 | 0.4209
96.4668 -3.632911E-06 +4.249238E-09 -60.0 -60.0 
16328 | 0 | 0.1191
96.5928 -3.631778E-06 +5.464886E-09 -60.0 -60.0 
16328 | 0 | 0.1260
96.7188 -3.631905E-06 +5.045695E-09 -60.0 -60.0 
16328 | 0 | 0.1260
96.8438 -3.631654E-06 +5.297214E-09 -60.0 -60.0 
TI0.0 | 0 | 0.1250
97.1533 -3.631066E-06 +6.261339E-09 -60.0 -60.0 
16328 | 0 | 0.3095
97.2715 -3.629723E-06 +4.249251E-09 -60.0 -60.0 
16328 | 0 | 0.1182
97.3975 -3.630355E-06 +4.961867E-09 -60.0 -60.0 
16328 | 0 | 0.1260
97.5235 -3.628973E-06 +3.494717E-09 -60.0 -60.0 
16328 | 0 | 0.1260
97.6485 -3.628886E-06 +5.297196E-09 -60.0 -60.0 
TI0.0 | 0 | 0.1250
97.9580 -3.628425E-06 +3.997741E-09 -60.0 -60.0 
16328 | 0 | 0.3095
98.0762 -3.626708E-06 +6.051747E-09 -60.0 -60.0 
16328 | 0 | 0.1182
98.2022 -3.626668E-06 +5.716394E-09 -60.0 -60.0 
16328 | 0 | 0.1260
98.3281 -3.626415E-06 +5.297209E-09 -60.0 -60.0 
16328 | 0 | 0.1259
98.4541 -3.625912E-06 +5.045703E-09 -60.0 -60.0 
TI0.0 | 0 | 0.1260
98.7647 -3.624698E-06 +5.632557E-09 -60.0 -60.0 
16328 | 0 | 0.3106
98.8828 -3.624529E-06 +5.087620E-09 -60.0 -60.0 
16328 | 0 | 0.1181
99.0078 -3.624403E-06 +5.590645E-09 -60.0 -60.0 
16328 | 0 | 0.1250
99.1338 -3.623902E-06 +5.003780E-09 -60.0 -60.0 
16328 | 0 | 0.1260
99.2598 -3.623441E-06 +4.416926E-09 -60.0 -60.0 
16328 | 0 | 0.1260
99.5694 -3.621428E-06 +5.381044E-09 -60.0 -60.0 
16328 | 0 | 0.3096
99.6865 -3.621177E-06 +4.249249E-09 -60.0 -60.0 
16328 | 0 | 0.1171
99.8125 -3.622140E-06 +3.201284E-09 -60.0 -60.0 
16328 | 0 | 0.1260
99.9385 -3.620504E-06 +3.913893E-09 -60.0 -60.0 
TI0.0 | 0 | 0.1260
100.3809 -3.619331E-06 +3.997735E-09 -60.0 -60.0 
16328 | 0 | 0.4424
100.4951 -3.618830E-06 +5.422965E-09 -60.0 -60.0 
16328 | 0 | 0.1142
100.6211 -3.618789E-06 +4.794193E-09 -60.0 -60.0 
16328 | 0 | 0.1260
100.7471 -3.618538E-06 +4.919947E-09 -60.0 -60.0 
16328 | 0 | 0.1260
100.8731 -3.616987E-06 +4.123477E-09 -60.0 -60.0 
TI0.0 | 0 | 0.1260
101.1680 -3.617786E-06 +5.129522E-09 -60.0 -60.0 
16328 | 0 | 0.2949
101.2852 -3.616315E-06 +5.003780E-09 -60.0 -60.0 
16328 | 0 | 0.1172
101.4111 -3.616149E-06 +4.542668E-09 -60.0 -60.0 
16328 | 0 | 0.1259
101.5371 -3.615269E-06 +4.878021E-09 -60.0 -60.0 
16328 | 0 | 0.1260
101.6631 -3.615520E-06 +4.039652E-09 -60.0 -60.0 
TI0.0 | 0 | 0.1260
101.9746 -3.613342E-06 +5.884077E-09 -60.0 -60.0 
16328 | 0 | 0.3115
102.0908 -3.613635E-06 +4.375005E-09 -60.0 -60.0 
16328 | 0 | 0.1162
102.2344 -3.614055E-06 +5.884077E-09 -60.0 -60.0 
16328 | 0 | 0.1436
102.3584 -3.612253E-06 +6.261335E-09 -60.0 -60.0 
16328 | 0 | 0.1240
102.4844 -3.611624E-06 +4.836097E-09 -60.0 -60.0 
TI0.0 | 0 | 0.1260
102.7793 -3.611205E-06 +6.303259E-09 -60.0 -60.0 
16328 | 0 | 0.2949
102.8965 -3.610619E-06 +6.009826E-09 -60.0 -60.0 
16328 | 0 | 0.1172
103.0225 -3.610073E-06 +5.339129E-09 -60.0 -60.0 
16328 | 0 | 0.1260
103.1485 -3.609697E-06 +4.081564E-09 -60.0 -60.0 
16328 | 0 | 0.1260
103.2744 -3.609947E-06 +4.458844E-09 -60.0 -60.0 
TI0.0 | 0 | 0.1259
103.5860 -3.609025E-06 +4.961856E-09 -60.0 -60.0 
16328 | 0 | 0.3116
103.7031 -3.607308E-06 +5.045703E-09 -60.0 -60.0 
16328 | 0 | 0.1171
103.8281 -3.607601E-06 +5.842156E-09 -60.0 -60.0 
16328 | 0 | 0.1250
103.9551 -3.606428E-06 +5.800235E-09 -60.0 -60.0 
16328 | 0 | 0.1270
104.0801 -3.606555E-06 +4.207322E-09 -60.0 -60.0 
16328 | 0 | 0.1250
104.3906 -3.606890E-06 +4.207323E-09 -60.0 -60.0 
16328 | 0 | 0.3105
104.5078 -3.605130E-06 +5.674473E-09 -60.0 -60.0 
16328 | 0 | 0.1172
104.6328 -3.603915E-06 +5.422968E-09 -60.0 -60.0 
16328 | 0 | 0.1250
104.7617 -3.605089E-06 +4.207330E-09 -60.0 -60.0 
TI0.0 | 0 | 0.1289
105.2002 -3.603245E-06 +5.003771E-09 -60.0 -60.0 
16328 | 0 | 0.4385
105.3154 -3.602574E-06 +4.878023E-09 -60.0 -60.0 
16328 | 0 | 0.1152
105.4414 -3.602824E-06 +4.794185E-09 -60.0 -60.0 
16328 | 0 | 0.1260
105.5674 -3.601569E-06 +4.836112E-09 -60.0 -60.0 
16328 | 0 | 0.1260
105.6934 -3.600981E-06 +4.836107E-09 -60.0 -60.0 
TI0.0 | 0 | 0.1260
106.0078 -3.600269E-06 +5.339133E-09 -60.0 -60.0 
16328 | 0 | 0.3144
106.1221 -3.600436E-06 +4.584603E-09 -60.0 -60.0 
16328 | 0 | 0.1143
106.2471 -3.598843E-06 +6.387092E-09 -60.0 -60.0 
16328 | 0 | 0.1250
106.3731 -3.599681E-06 +4.458838E-09 -60.0 -60.0 
16328 | 0 | 0.1260
106.5000 -3.598340E-06 +5.171455E-09 -60.0 -60.0 
TI0.0 | 0 | 0.1269
106.8125 -3.596833E-06 +6.177490E-09 -60.0 -60.0 
16328 | 0 | 0.3125
106.9278 -3.596332E-06 +4.752271E-09 -60.0 -60.0 
16328 | 0 | 0.1153
107.0537 -3.595996E-06 +3.494711E-09 -60.0 -60.0 
16328 | 0 | 0.1259
107.1797 -3.596917E-06 +5.381049E-09 -60.0 -60.0 
16328 | 0 | 0.1260
107.3057 -3.595954E-06 +4.039650E-09 -60.0 -60.0 
TI0.0 | 0 | 0.1260
107.6026 -3.595620E-06 +5.381041E-09 -60.0 -60.0 
16328 | 0 | 0.2969
107.7178 -3.594108E-06 +4.333082E-09 -60.0 -60.0 
16328 | 0 | 0.1152
107.8438 -3.594069E-06 +5.339127E-09 -60.0 -60.0 
16328 | 0 | 0.1260
107.9697 -3.593981E-06 +5.045703E-09 -60.0 -60.0 
16328 | 0 | 0.1259
108.0957 -3.593439E-06 +3.788140E-09 -60.0 -60.0 
16328 | 0 | 0.1260
108.4258 -3.592017E-06 +5.758317E-09 -60.0 -60.0 
16328 | 0 | 0.3301
108.5391 -3.593147E-06 +4.961862E-09 -60.0 -60.0 
16328 | 0 | 0.1133
108.6641 -3.592059E-06 +5.967910E-09 -60.0 -60.0 
16328 | 0 | 0.1250
108.7901 -3.591135E-06 +5.422965E-09 -60.0 -60.0 
TI0.0 | 0 | 0.1260
109.2158 -3.589543E-06 +5.422971E-09 -60.0 -60.0 
16328 | 0 | 0.4257
109.3301 -3.590171E-06 +4.794183E-09 -60.0 -60.0 
16328 | 0 | 0.1143
109.4561 -3.589001E-06 +3.494712E-09 -60.0 -60.0 
16328 | 0 | 0.1260
109.5820 -3.589709E-06 +5.422968E-09 -60.0 -60.0 
16328 | 0 | 0.1259
109.7080 -3.587784E-06 +4.878031E-09 -60.0 -60.0 
TI0.0 | 0 | 0.1260
110.0225 -3.587530E-06 +5.129536E-09 -60.0 -60.0 
16328 | 0 | 0.3145
110.1358 -3.586611E-06 +5.171450E-09 -60.0 -60.0 
16328 | 0 | 0.1133
110.2627 -3.586485E-06 +5.255291E-09 -60.0 -60.0 
16328 | 0 | 0.1269
110.3887 -3.585267E-06 +4.123490E-09 -60.0 -60.0 
16328 | 0 | 0.1260
110.5137 -3.585521E-06 +5.758317E-09 -60.0 -60.0 
TI0.0 | 0 | 0.1250
110.8281 -3.585771E-06 +5.003782E-09 -60.0 -60.0 
16328 | 0 | 0.3144
110.9414 -3.585142E-06 +3.955817E-09 -60.0 -60.0 
16328 | 0 | 0.1133
111.0674 -3.583174E-06 +5.758310E-09 -60.0 -60.0 
16328 | 0 | 0.1260
111.1934 -3.583551E-06 +5.213375E-09 -60.0 -60.0 
16328 | 0 | 0.1260
111.3194 -3.583634E-06 +3.327029E-09 -60.0 -60.0 
TI0.0 | 0 | 0.1260
111.6348 -3.582210E-06 +5.925991E-09 -60.0 -60.0 
16328 | 0 | 0.3154
111.7481 -3.582587E-06 +4.039650E-09 -60.0 -60.0 
16328 | 0 | 0.1133
111.8740 -3.581078E-06 +5.087617E-09 -60.0 -60.0 
16328 | 0 | 0.1259
112.0000 -3.581123E-06 +4.165406E-09 -60.0 -60.0 
16328 | 0 | 0.1260
112.1260 -3.580492E-06 +5.171464E-09 -60.0 -60.0 
TI0.0 | 0 | 0.1260
112.4404 -3.579949E-06 +4.500759E-09 -60.0 -60.0 
16328 | 0 | 0.3144
112.5547 -3.579445E-06 +5.003782E-09 -60.0 -60.0 
16328 | 0 | 0.1143
112.6797 -3.578650E-06 +5.003777E-09 -60.0 -60.0 
16328 | 0 | 0.1250
112.8057 -3.578814E-06 +3.997733E-09 -60.0 -60.0 
16328 | 0 | 0.1260
112.9317 -3.577852E-06 +5.758308E-09 -60.0 -60.0 
16328 | 0 | 0.1260
113.2471 -3.577223E-06 +5.884070E-09 -60.0 -60.0 
16328 | 0 | 0.3154
113.3604 -3.577769E-06 +4.878023E-09 -60.0 -60.0 
16328 | 0 | 0.1133
113.4863 -3.577098E-06 +5.003777E-09 -60.0 -60.0 
16328 | 0 | 0.1259
113.6123 -3.576597E-06 +4.961856E-09 -60.0 -60.0 
TI0.0 | 0 | 0.1260
114.0410 -3.574082E-06 +3.997733E-09 -60.0 -60.0 
16328 | 0 | 0.4287
114.1670 -3.574835E-06 +3.913900E-09 -60.0 -60.0 
16328 | 0 | 0.1260
114.2930 -3.573917E-06 +3.788143E-09 -60.0 -60.0 
16328 | 0 | 0.1260
114.4199 -3.573998E-06 +5.632557E-09 -60.0 -60.0 
16328 | 0 | 0.1269
114.5459 -3.573286E-06 +5.381053E-09 -60.0 -60.0 
TI0.0 | 0 | 0.1260
114.8457 -3.572071E-06 +5.548726E-09 -60.0 -60.0 
16328 | 0 | 0.2998
114.9824 -3.571441E-06 +4.878026E-09 -60.0 -60.0 
16328 | 0 | 0.1367
115.0986 -3.571820E-06 +5.884075E-09 -60.0 -60.0 
16328 | 0 | 0.1162
115.2256 -3.571023E-06 +4.626505E-09 -60.0 -60.0 
16328 | 0 | 0.1270
115.3516 -3.570101E-06 +5.297214E-09 -60.0 -60.0 
TI0.0 | 0 | 0.1260
115.6494 -3.569976E-06 +5.464871E-09 -60.0 -60.0 
16328 | 0 | 0.2978
115.7783 -3.569680E-06 +5.925989E-09 -60.0 -60.0 
16328 | 0 | 0.1289
115.9043 -3.569888E-06 +5.548726E-09 -60.0 -60.0 
16328 | 0 | 0.1260
116.0303 -3.568133E-06 +4.542677E-09 -60.0 -60.0 
16328 | 0 | 0.1260
116.1563 -3.568507E-06 +4.542676E-09 -60.0 -60.0 
TI0.0 | 0 | 0.1260
116.4561 -3.567462E-06 +6.890107E-09 -60.0 -60.0 
16328 | 0 | 0.2998
116.5840 -3.567043E-06 +5.297210E-09 -60.0 -60.0 
16328 | 0 | 0.1279
116.7110 -3.566037E-06 +5.884070E-09 -60.0 -60.0 
16328 | 0 | 0.1270
116.8360 -3.565827E-06 +5.129540E-09 -60.0 -60.0 
16328 | 0 | 0.1250
116.9619 -3.565783E-06 +6.470932E-09 -60.0 -60.0 
16328 | 0 | 0.1259
117.2637 -3.565700E-06 +4.878021E-09 -60.0 -60.0 
16328 | 0 | 0.3018
117.3906 -3.565158E-06 +5.464886E-09 -60.0 -60.0 
16328 | 0 | 0.1269
117.5166 -3.564068E-06 +5.297217E-09 -60.0 -60.0 
16328 | 0 | 0.1260
117.6416 -3.563941E-06 +4.794189E-09 -60.0 -60.0 
TI0.0 | 0 | 0.1250
118.0703 -3.563190E-06 +6.135577E-09 -60.0 -60.0 
16328 | 0 | 0.4287
118.1983 -3.562936E-06 +4.710353E-09 -60.0 -60.0 
16328 | 0 | 0.1280
118.3281 -3.562435E-06 +3.871976E-09 -60.0 -60.0 
16328 | 0 | 0.1298
#------ comments: init_log
118.4727 -3.561429E-06 +4.333074E-09 -60.0 -60.0 
16328 | 0 | 0.1446
#------ comments: init_log
118.5908 -3.561722E-06 +5.129526E-09 -60.0 -60.0 
TI0.0 | 0 | 0.1181
118.8604 -3.560548E-06 +5.464882E-09 -60.0 -60.0 
16328 | 0 | 0.2696
118.9863 -3.559751E-06 +5.003781E-09 -60.0 -60.0 
16328 | 0 | 0.1259
119.1123 -3.559628E-06 +6.303257E-09 -60.0 -60.0 
16328 | 0 | 0.1260
119.2393 -3.559710E-06 +5.758312E-09 -60.0 -60.0 
16328 | 0 | 0.1270
119.3643 -3.558704E-06 +4.794177E-09 -60.0 -60.0 
TI0.0 | 0 | 0.1250
119.6651 -3.558370E-06 +4.961861E-09 -60.0 -60.0 
16328 | 0 | 0.3008
119.7920 -3.557868E-06 +5.339130E-09 -60.0 -60.0 
16328 | 0 | 0.1269
119.9170 -3.557447E-06 +4.249240E-09 -60.0 -60.0 
16328 | 0 | 0.1250
120.0430 -3.556317E-06 +4.919933E-09 -60.0 -60.0 
16328 | 0 | 0.1260
120.1690 -3.556651E-06 +3.913891E-09 -60.0 -60.0 
TI0.0 | 0 | 0.1260
120.4707 -3.555017E-06 +5.590644E-09 -60.0 -60.0 
16328 | 0 | 0.3017
120.5977 -3.556106E-06 +5.967912E-09 -60.0 -60.0 
16328 | 0 | 0.1270
120.7236 -3.555521E-06 +6.387086E-09 -60.0 -60.0 
16328 | 0 | 0.1259
120.8486 -3.554767E-06 +4.165412E-09 -60.0 -60.0 
16328 | 0 | 0.1250
120.9746 -3.554598E-06 +5.003788E-09 -60.0 -60.0 
16328 | 0 | 0.1260
121.2764 -3.553258E-06 +5.422965E-09 -60.0 -60.0 
16328 | 0 | 0.3018
121.4024 -3.553550E-06 +5.800235E-09 -60.0 -60.0 
16328 | 0 | 0.1260
121.5283 -3.552420E-06 +5.967906E-09 -60.0 -60.0 
16328 | 0 | 0.1259
121.6543 -3.552586E-06 +4.710348E-09 -60.0 -60.0 
TI0.0 | 0 | 0.1260
122.0850 -3.551038E-06 +6.303259E-09 -60.0 -60.0 
16328 | 0 | 0.4307
122.2100 -3.550200E-06 +4.794180E-09 -60.0 -60.0 
16328 | 0 | 0.1250
122.3360 -3.550828E-06 +5.171455E-09 -60.0 -60.0 
16328 | 0 | 0.1260
122.4610 -3.549863E-06 +4.584595E-09 -60.0 -60.0 
16328 | 0 | 0.1250
122.5869 -3.549612E-06 +5.003782E-09 -60.0 -60.0 
TI0.0 | 0 | 0.1259
122.8897 -3.548902E-06 +5.129533E-09 -60.0 -60.0 
16328 | 0 | 0.3028
123.0137 -3.547812E-06 +4.919939E-09 -60.0 -60.0 
16328 | 0 | 0.1240
123.1397 -3.547935E-06 +4.416918E-09 -60.0 -60.0 
16328 | 0 | 0.1260
123.2656 -3.547937E-06 +4.794182E-09 -60.0 -60.0 
16328 | 0 | 0.1259
123.3916 -3.546261E-06 +4.542673E-09 -60.0 -60.0 
TI0.0 | 0 | 0.1260
123.6953 -3.546638E-06 +5.758309E-09 -60.0 -60.0 
16328 | 0 | 0.3037
123.8194 -3.546095E-06 +6.973953E-09 -60.0 -60.0 
16328 | 0 | 0.1241
123.9444 -3.545756E-06 +5.842145E-09 -60.0 -60.0 
16328 | 0 | 0.1250
124.0703 -3.545422E-06 +5.590642E-09 -60.0 -60.0 
16328 | 0 | 0.1259
124.1963 -3.544080E-06 +4.416925E-09 -60.0 -60.0 
TI0.0 | 0 | 0.1260
124.4990 -3.544290E-06 +4.836104E-09 -60.0 -60.0 
16328 | 0 | 0.3027
124.6221 -3.543369E-06 +5.339136E-09 -60.0 -60.0 
16328 | 0 | 0.1231
124.7481 -3.542990E-06 +5.003781E-09 -60.0 -60.0 
16328 | 0 | 0.1260
124.8740 -3.543161E-06 +5.967910E-09 -60.0 -60.0 
16328 | 0 | 0.1259
125.0010 -3.542029E-06 +5.171458E-09 -60.0 -60.0 
TI0.0 | 0 | 0.1270
125.2881 -3.541358E-06 +6.093664E-09 -60.0 -60.0 
16328 | 0 | 0.2871
125.4131 -3.541190E-06 +3.913889E-09 -60.0 -60.0 
16328 | 0 | 0.1250
125.5381 -3.540520E-06 +5.381048E-09 -60.0 -60.0 
16328 | 0 | 0.1250
125.6651 -3.540520E-06 +6.219421E-09 -60.0 -60.0 
16328 | 0 | 0.1270
125.7910 -3.540604E-06 +6.387097E-09 -60.0 -60.0 
16328 | 0 | 0.1259
126.1094 -3.539599E-06 +5.632554E-09 -60.0 -60.0 
16328 | 0 | 0.3184
126.2334 -3.538968E-06 +5.087616E-09 -60.0 -60.0 
16328 | 0 | 0.1240
126.3594 -3.538341E-06 +4.668432E-09 -60.0 -60.0 
16328 | 0 | 0.1260
#::::: ABORT ::::::
126.4854 -3.539135E-06 +4.165408E-09 -60.0 -60.0 
TI0.0 | 0 | 0.1260
#
#----------------------- FOOTER ------------------------------------
# DEV_1 VDS:  KEITHLEY INSTRUMENTS INC.,MODEL 2400,1322544,C32   Oct  4 2010 14:20:11/A02  /R/J
# DEV_1 VDS: Serial<id=0xb389e7ec, open=True>(port='/dev/ttyUSB5', baudrate=9600, bytesize=8, parity='N', stopbits=1, timeout=1, xonxoff=0, rtscts=1, dsrdtr=False)
# DEV_2 VGS:  KEITHLEY INSTRUMENTS INC.,MODEL 2400,4033786,C32   Oct  4 2010 14:20:11/A02  /T/K
# DEV_1 VDS: Serial<id=0xb38ac5cc, open=True>(port='/dev/ttyUSB0', baudrate=9600, bytesize=8, parity='N', stopbits=1, timeout=1, xonxoff=0, rtscts=1, dsrdtr=False)
#
# ======= ERROR'S @ VDS
## :STAT:MEAS?   	 64 
## :SYST:ERR:ALL? 	 0,"No error" 
## *ESR?   	 0 
## *OPC?   	 1 
## :STAT:OPER?   	 1088 
## :STAT:MEAS?   	 0 
## :STAT:QUES?   	 0 
#
# ======= ERROR'S @ VGS
## :STAT:MEAS?   	 64 
## :SYST:ERR:ALL? 	 0,"No error" 
## *ESR?   	 0 
## *OPC?   	 1 
## :STAT:OPER?   	 1088 
## :STAT:MEAS?   	 0 
## :STAT:QUES?   	 0 
#
#
# ----* zajaczkowksi@mpip-mainz.mpg.de *-------------------------------
# ----- End of file 2019-02-04 18:03:42.269099 created by:/home/mar345/ele/ele/bin/K2400.pyc
